{"learner":{"attributes":{},"feature_names":[],"feature_types":[],"gradient_booster":{"model":{"gbtree_model_param":{"num_parallel_tree":"1","num_trees":"1000"},"iteration_indptr":[0,1,2,3,4,5,6,7,8,9,10,11,12,13,14,15,16,17,18,19,20,21,22,23,24,25,26,27,28,29,30,31,32,33,34,35,36,37,38,39,40,41,42,43,44,45,46,47,48,49,50,51,52,53,54,55,56,57,58,59,60,61,62,63,64,65,66,67,68,69,70,71,72,73,74,75,76,77,78,79,80,81,82,83,84,85,86,87,88,89,90,91,92,93,94,95,96,97,98,99,100,101,102,103,104,105,106,107,108,109,110,111,112,113,114,115,116,117,118,119,120,121,122,123,124,125,126,127,128,129,130,131,132,133,134,135,136,137,138,139,140,141,142,143,144,145,146,147,148,149,150,151,152,153,154,155,156,157,158,159,160,161,162,163,164,165,166,167,168,169,170,171,172,173,174,175,176,177,178,179,180,181,182,183,184,185,186,187,188,189,190,191,192,193,194,195,196,197,198,199,200,201,202,203,204,205,206,207,208,209,210,211,212,213,214,215,216,217,218,219,220,221,222,223,224,225,226,227,228,229,230,231,232,233,234,235,236,237,238,239,240,241,242,243,244,245,246,247,248,249,250,251,252,253,254,255,256,257,258,259,260,261,262,263,264,265,266,267,268,269,270,271,272,273,274,275,276,277,278,279,280,281,282,283,284,285,286,287,288,289,290,291,292,293,294,295,296,297,298,299,300,301,302,303,304,305,306,307,308,309,310,311,312,313,314,315,316,317,318,319,320,321,322,323,324,325,326,327,328,329,330,331,332,333,334,335,336,337,338,339,340,341,342,343,344,345,346,347,348,349,350,351,352,353,354,355,356,357,358,359,360,361,362,363,364,365,366,367,368,369,370,371,372,373,374,375,376,377,378,379,380,381,382,383,384,385,386,387,388,389,390,391,392,393,394,395,396,397,398,399,400,401,402,403,404,405,406,407,408,409,410,411,412,413,414,415,416,417,418,419,420,421,422,423,424,425,426,427,428,429,430,431,432,433,434,435,436,437,438,439,440,441,442,443,444,445,446,447,448,449,450,451,452,453,454,455,456,457,458,459,460,461,462,463,464,465,466,467,468,469,470,471,472,473,474,475,476,477,478,479,480,481,482,483,484,485,486,487,488,489,490,491,492,493,494,495,496,497,498,499,500,501,502,503,504,505,506,507,508,509,510,511,512,513,514,515,516,517,518,519,520,521,522,523,524,525,526,527,528,529,530,531,532,533,534,535,536,537,538,539,540,541,542,543,544,545,546,547,548,549,550,551,552,553,554,555,556,557,558,559,560,561,562,563,564,565,566,567,568,569,570,571,572,573,574,575,576,577,578,579,580,581,582,583,584,585,586,587,588,589,590,591,592,593,594,595,596,597,598,599,600,601,602,603,604,605,606,607,608,609,610,611,612,613,614,615,616,617,618,619,620,621,622,623,624,625,626,627,628,629,630,631,632,633,634,635,636,637,638,639,640,641,642,643,644,645,646,647,648,649,650,651,652,653,654,655,656,657,658,659,660,661,662,663,664,665,666,667,668,669,670,671,672,673,674,675,676,677,678,679,680,681,682,683,684,685,686,687,688,689,690,691,692,693,694,695,696,697,698,699,700,701,702,703,704,705,706,707,708,709,710,711,712,713,714,715,716,717,718,719,720,721,722,723,724,725,726,727,728,729,730,731,732,733,734,735,736,737,738,739,740,741,742,743,744,745,746,747,748,749,750,751,752,753,754,755,756,757,758,759,760,761,762,763,764,765,766,767,768,769,770,771,772,773,774,775,776,777,778,779,780,781,782,783,784,785,786,787,788,789,790,791,792,793,794,795,796,797,798,799,800,801,802,803,804,805,806,807,808,809,810,811,812,813,814,815,816,817,818,819,820,821,822,823,824,825,826,827,828,829,830,831,832,833,834,835,836,837,838,839,840,841,842,843,844,845,846,847,848,849,850,851,852,853,854,855,856,857,858,859,860,861,862,863,864,865,866,867,868,869,870,871,872,873,874,875,876,877,878,879,880,881,882,883,884,885,886,887,888,889,890,891,892,893,894,895,896,897,898,899,900,901,902,903,904,905,906,907,908,909,910,911,912,913,914,915,916,917,918,919,920,921,922,923,924,925,926,927,928,929,930,931,932,933,934,935,936,937,938,939,940,941,942,943,944,945,946,947,948,949,950,951,952,953,954,955,956,957,958,959,960,961,962,963,964,965,966,967,968,969,970,971,972,973,974,975,976,977,978,979,980,981,982,983,984,985,986,987,988,989,990,991,992,993,994,995,996,997,998,999,1000],"tree_info":[0,0,0,0,0,0,0,0,0,0,0,0,0,0,0,0,0,0,0,0,0,0,0,0,0,0,0,0,0,0,0,0,0,0,0,0,0,0,0,0,0,0,0,0,0,0,0,0,0,0,0,0,0,0,0,0,0,0,0,0,0,0,0,0,0,0,0,0,0,0,0,0,0,0,0,0,0,0,0,0,0,0,0,0,0,0,0,0,0,0,0,0,0,0,0,0,0,0,0,0,0,0,0,0,0,0,0,0,0,0,0,0,0,0,0,0,0,0,0,0,0,0,0,0,0,0,0,0,0,0,0,0,0,0,0,0,0,0,0,0,0,0,0,0,0,0,0,0,0,0,0,0,0,0,0,0,0,0,0,0,0,0,0,0,0,0,0,0,0,0,0,0,0,0,0,0,0,0,0,0,0,0,0,0,0,0,0,0,0,0,0,0,0,0,0,0,0,0,0,0,0,0,0,0,0,0,0,0,0,0,0,0,0,0,0,0,0,0,0,0,0,0,0,0,0,0,0,0,0,0,0,0,0,0,0,0,0,0,0,0,0,0,0,0,0,0,0,0,0,0,0,0,0,0,0,0,0,0,0,0,0,0,0,0,0,0,0,0,0,0,0,0,0,0,0,0,0,0,0,0,0,0,0,0,0,0,0,0,0,0,0,0,0,0,0,0,0,0,0,0,0,0,0,0,0,0,0,0,0,0,0,0,0,0,0,0,0,0,0,0,0,0,0,0,0,0,0,0,0,0,0,0,0,0,0,0,0,0,0,0,0,0,0,0,0,0,0,0,0,0,0,0,0,0,0,0,0,0,0,0,0,0,0,0,0,0,0,0,0,0,0,0,0,0,0,0,0,0,0,0,0,0,0,0,0,0,0,0,0,0,0,0,0,0,0,0,0,0,0,0,0,0,0,0,0,0,0,0,0,0,0,0,0,0,0,0,0,0,0,0,0,0,0,0,0,0,0,0,0,0,0,0,0,0,0,0,0,0,0,0,0,0,0,0,0,0,0,0,0,0,0,0,0,0,0,0,0,0,0,0,0,0,0,0,0,0,0,0,0,0,0,0,0,0,0,0,0,0,0,0,0,0,0,0,0,0,0,0,0,0,0,0,0,0,0,0,0,0,0,0,0,0,0,0,0,0,0,0,0,0,0,0,0,0,0,0,0,0,0,0,0,0,0,0,0,0,0,0,0,0,0,0,0,0,0,0,0,0,0,0,0,0,0,0,0,0,0,0,0,0,0,0,0,0,0,0,0,0,0,0,0,0,0,0,0,0,0,0,0,0,0,0,0,0,0,0,0,0,0,0,0,0,0,0,0,0,0,0,0,0,0,0,0,0,0,0,0,0,0,0,0,0,0,0,0,0,0,0,0,0,0,0,0,0,0,0,0,0,0,0,0,0,0,0,0,0,0,0,0,0,0,0,0,0,0,0,0,0,0,0,0,0,0,0,0,0,0,0,0,0,0,0,0,0,0,0,0,0,0,0,0,0,0,0,0,0,0,0,0,0,0,0,0,0,0,0,0,0,0,0,0,0,0,0,0,0,0,0,0,0,0,0,0,0,0,0,0,0,0,0,0,0,0,0,0,0,0,0,0,0,0,0,0,0,0,0,0,0,0,0,0,0,0,0,0,0,0,0,0,0,0,0,0,0,0,0,0,0,0,0,0,0,0,0,0,0,0,0,0,0,0,0,0,0,0,0,0,0,0,0,0,0,0,0,0,0,0,0,0,0,0,0,0,0,0,0,0,0,0,0,0,0,0,0,0,0,0,0,0,0,0,0,0,0,0,0,0,0,0,0,0,0,0,0,0,0,0,0,0,0,0,0,0,0,0,0,0,0,0,0,0,0,0,0,0,0,0,0,0,0,0,0,0,0,0,0,0,0,0,0,0,0,0,0,0,0,0,0,0,0,0,0,0,0,0,0,0,0,0,0,0,0,0,0,0,0,0,0,0,0,0,0,0,0,0,0,0,0,0,0,0,0,0,0,0,0,0,0,0,0,0,0,0,0,0,0,0,0,0,0,0,0,0,0,0,0,0,0,0,0,0,0,0,0,0,0,0,0,0,0,0,0,0,0,0,0,0,0,0,0,0,0,0,0,0,0,0,0,0,0,0,0,0,0,0,0,0,0,0,0,0,0,0,0,0,0,0,0,0,0,0,0,0,0,0,0,0,0,0,0,0,0,0,0,0,0,0,0,0,0,0,0,0,0,0,0,0,0,0,0,0,0,0,0,0,0,0,0,0,0],"trees":[{"base_weights":[8.760286E-3,4.0623558E-1,-3.6776084E-1,-8.369415E-2,5.5919546E-1,1.9192626E-1,-5.547965E-1,-1.67432E-1,3.6837485E-2,5.914302E-1,-0E0,-1.3104649E-1,3.6657727E-1,-1.22711286E-1,-6.212174E-1,-2.1554457E-1,4.2599106E-5,-1.4454404E-4,1.05639316E-1,-0E0,6.1262715E-1,-1.7236494E-1,-0E0,2.7384022E-3,-0E0,2.5785105E-2,-2.1878879E-1,-0E0,-6.342772E-1,-0E0,-2.522513E-1,-0E0,1.0011863E-3,6.258886E-1,-0E0,-0E0,-1.9058232E-1,7.0722844E-4,-1.20749915E-4,-2.4986933E-1,-0E0,-0E0,-6.5158004E-1,-2.0324993E-3,-0E0,4.529204E-3,-0E0,-0E0,-1.45047E-3,-1.9361094E-3,-0E0,-4.7290726E-3,-0E0],"categories":[],"categories_nodes":[],"categories_segments":[],"categories_sizes":[],"default_left":[0,0,0,0,0,0,0,0,0,0,0,0,0,0,0,0,0,0,0,0,0,0,0,0,0,0,0,0,0,0,0,0,0,0,0,0,0,0,0,0,0,0,0,0,0,0,0,0,0,0,0,0,0],"id":0,"left_children":[1,3,5,7,9,11,13,15,17,19,-1,21,23,25,27,29,-1,-1,31,-1,33,35,-1,-1,-1,37,39,-1,41,-1,43,-1,-1,45,-1,-1,47,-1,-1,49,-1,-1,51,-1,-1,-1,-1,-1,-1,-1,-1,-1,-1],"loss_changes":[3.456081E2,9.373625E1,1.3734879E2,5.256568E0,1.266626E1,2.7476248E1,1.2130554E1,4.0910807E0,1.6831193E0,9.032043E0,0E0,1.6971412E0,2.5548935E0,6.06977E0,8.142639E0,3.3602152E0,0E0,0E0,1.2838477E0,0E0,7.6697083E0,8.1479645E-1,0E0,0E0,0E0,1.4117599E0,2.5992012E0,0E0,5.353424E0,0E0,3.2483215E0,0E0,0E0,6.2792053E0,0E0,0E0,5.721011E-1,0E0,0E0,1.9667025E0,0E0,0E0,6.5468445E0,0E0,0E0,0E0,0E0,0E0,0E0,0E0,0E0,0E0,0E0],"parents":[2147483647,0,0,1,1,2,2,3,3,4,4,5,5,6,6,7,7,8,8,9,9,11,11,12,12,13,13,14,14,15,15,18,18,20,20,21,21,25,25,26,26,28,28,30,30,33,33,36,36,39,39,42,42],"right_children":[2,4,6,8,10,12,14,16,18,20,-1,22,24,26,28,30,-1,-1,32,-1,34,36,-1,-1,-1,38,40,-1,42,-1,44,-1,-1,46,-1,-1,48,-1,-1,50,-1,-1,52,-1,-1,-1,-1,-1,-1,-1,-1,-1,-1],"split_conditions":[1.5E1,7E0,-3.2E0,6.707317E-1,8.12E-1,-5.1E0,4.62E-1,1.17E1,7E0,3E0,-0E0,2.8E1,3E1,1.9E1,2E0,2.14E1,4.2599106E-5,-1.4454404E-4,4E0,-0E0,4.87E-1,1.84E1,-0E0,2.7384022E-3,-0E0,2.2E1,2.8E1,-0E0,-1.4E0,-0E0,2.6E1,-0E0,1.0011863E-3,2.76E1,-0E0,-0E0,4.1E1,7.0722844E-4,-1.20749915E-4,2.9E1,-0E0,-0E0,9.2E1,-2.0324993E-3,-0E0,4.529204E-3,-0E0,-0E0,-1.45047E-3,-1.9361094E-3,-0E0,-4.7290726E-3,-0E0],"split_indices":[51,103,77,106,65,25,55,66,37,86,0,80,93,28,35,69,0,0,95,0,59,23,0,0,0,34,93,0,77,0,54,0,0,64,0,0,68,0,0,91,0,0,58,0,0,0,0,0,0,0,0,0,0],"split_type":[0,0,0,0,0,0,0,0,0,0,0,0,0,0,0,0,0,0,0,0,0,0,0,0,0,0,0,0,0,0,0,0,0,0,0,0,0,0,0,0,0,0,0,0,0,0,0,0,0,0,0,0,0],"sum_hessian":[2.095189E3,1.0258712E3,1.0693176E3,2.4261624E2,7.8325507E2,2.5604068E2,8.13277E2,1.593847E2,8.323153E1,7.251638E2,5.8091213E1,8.249928E1,1.735414E2,1.6524265E2,6.480343E2,1.4205498E2,1.7329731E1,2.02587E1,6.2972828E1,3.2462734E1,6.927011E2,6.0043858E1,2.2455427E1,1.5889655E2,1.4644843E1,6.1508343E1,1.0373431E2,1.0495471E1,6.375388E2,1.4156682E1,1.278983E2,1.2448117E1,5.0524708E1,6.787885E2,1.3912601E1,7.810583E0,5.2233276E1,4.100556E1,2.050278E1,9.641189E1,7.3224216E0,2.6360718E1,6.111781E2,1.1130081E2,1.6597488E1,6.512074E2,2.7581121E1,9.519148E0,4.2714127E1,8.689274E1,9.519148E0,5.8262067E2,2.8557444E1],"tree_param":{"num_deleted":"0","num_feature":"108","num_nodes":"53","size_leaf_vector":"1"}},{"base_weights":[-0E0,2.4448685E-1,-5.834073E-1,-4.7721054E-2,5.0785047E-1,-0E0,-7.001467E-1,-2.3226206E-1,1.659993E-1,1.5267971E-1,6.1761796E-1,-5.851701E-2,7.101473E-2,-0E0,-7.329464E-1,3.0684665E-2,-2.894761E-1,2.5972658E-1,-3.6661733E-2,-4.8398998E-2,2.4108484E-1,-0E0,6.3419926E-1,-1.3555327E-1,1.06771724E-4,7.761424E-4,-0E0,-7.461729E-1,-0E0,-0E0,5.6630734E-4,-0E0,-3.4110793E-1,2.881573E-1,-0E0,-1.0320936E-1,1.1064013E-4,-6.099258E-4,-0E0,2.6530236E-1,-0E0,6.484126E-1,-0E0,-1.1301577E-3,-0E0,-7.625756E-1,-0E0,-4.6293795E-4,3.7046894E-4,-2.6759894E-3,-0E0,2.154023E-3,-0E0,-9.799575E-4,-0E0,-0E0,2.0273235E-3,-0E0,4.7035967E-3,-5.449271E-3,-0E0],"categories":[],"categories_nodes":[],"categories_segments":[],"categories_sizes":[],"default_left":[0,0,0,0,0,0,0,0,0,0,0,0,0,0,0,0,0,0,0,0,0,0,0,0,0,0,0,0,0,0,0,0,0,0,0,0,0,0,0,0,0,0,0,0,0,0,0,0,0,0,0,0,0,0,0,0,0,0,0,0,0],"id":1,"left_children":[1,3,5,7,9,11,13,15,17,19,21,23,25,-1,27,29,31,33,35,37,39,-1,41,43,-1,-1,-1,45,-1,-1,-1,47,49,51,-1,53,-1,-1,-1,55,-1,57,-1,-1,-1,59,-1,-1,-1,-1,-1,-1,-1,-1,-1,-1,-1,-1,-1,-1,-1],"loss_changes":[3.3035788E2,1.3237836E2,4.7200546E1,3.8485355E1,1.8117416E1,1.3614044E0,1.1865082E1,1.099431E1,1.1192431E1,9.372319E0,6.4652557E0,2.1843102E0,9.259075E-1,0E0,6.539154E0,7.319834E-1,6.3635216E0,3.914627E0,1.6076683E0,7.0967823E-1,2.7564983E0,0E0,4.7138367E0,8.1018114E-1,0E0,0E0,0E0,7.712616E0,0E0,0E0,0E0,1.0229528E0,7.0773544E0,2.6595573E0,0E0,1.2135338E0,0E0,0E0,0E0,2.869625E0,0E0,5.0476227E0,0E0,0E0,0E0,4.733673E0,0E0,0E0,0E0,0E0,0E0,0E0,0E0,0E0,0E0,0E0,0E0,0E0,0E0,0E0,0E0],"parents":[2147483647,0,0,1,1,2,2,3,3,4,4,5,5,6,6,7,7,8,8,9,9,10,10,11,11,12,12,14,14,15,15,16,16,17,17,18,18,19,19,20,20,22,22,23,23,27,27,31,31,32,32,33,33,35,35,39,39,41,41,45,45],"right_children":[2,4,6,8,10,12,14,16,18,20,22,24,26,-1,28,30,32,34,36,38,40,-1,42,44,-1,-1,-1,46,-1,-1,-1,48,50,52,-1,54,-1,-1,-1,56,-1,58,-1,-1,-1,60,-1,-1,-1,-1,-1,-1,-1,-1,-1,-1,-1,-1,-1,-1,-1],"split_conditions":[2.2E1,1.3E1,3.59E-1,2.9E0,3E-1,-4.7E0,9E0,6E0,6.944444E-1,1.7E1,4E0,2.8E1,1.081E2,-0E0,8.17E-1,7E0,6E0,2.4E1,7.46E-1,8.1E0,9.19E1,-0E0,3E1,5.3E1,1.06771724E-4,7.761424E-4,-0E0,3E1,-0E0,-0E0,5.6630734E-4,9E0,8.1E-1,2.19E1,-0E0,1.8E1,1.1064013E-4,-6.099258E-4,-0E0,1.5E1,-0E0,4.1E0,-0E0,-1.1301577E-3,-0E0,1.75E1,-0E0,-4.6293795E-4,3.7046894E-4,-2.6759894E-3,-0E0,2.154023E-3,-0E0,-9.799575E-4,-0E0,-0E0,2.0273235E-3,-0E0,4.7035967E-3,-5.449271E-3,-0E0],"split_indices":[29,80,55,25,25,25,33,34,107,80,54,80,24,0,13,81,100,47,3,19,58,0,42,52,0,0,0,88,0,0,0,85,13,11,0,34,0,0,0,103,0,73,0,0,0,70,0,0,0,0,0,0,0,0,0,0,0,0,0,0,0],"split_type":[0,0,0,0,0,0,0,0,0,0,0,0,0,0,0,0,0,0,0,0,0,0,0,0,0,0,0,0,0,0,0,0,0,0,0,0,0,0,0,0,0,0,0,0,0,0,0,0,0,0,0,0,0,0,0,0,0,0,0,0,0],"sum_hessian":[2.1080808E3,1.53109E3,5.769909E2,7.5205664E2,7.790333E2,1.1251129E2,4.644796E2,4.1945563E2,3.3260104E2,2.6164047E2,5.173929E2,6.44437E1,4.806759E1,2.7837696E1,4.366419E2,5.7855415E1,3.6160022E2,2.3496645E2,9.763459E1,6.592574E1,1.9571474E2,1.6101791E1,5.0129108E2,4.296515E1,2.1478556E1,3.3916004E1,1.4151585E1,4.2931638E2,7.32554E0,2.710172E1,3.0753693E1,7.617858E1,2.8542163E2,2.1813054E2,1.6835905E1,6.7372536E1,3.0262056E1,4.1998135E1,2.3927608E1,1.8229288E2,1.34218645E1,4.8616675E2,1.5124317E1,3.1492096E1,1.1473053E1,4.19794E2,9.522385E0,3.760432E1,3.857426E1,2.578339E2,2.7587751E1,2.0959001E2,8.540524E0,5.175096E1,1.5621572E1,9.278076E0,1.730148E2,2.3663157E1,4.625036E2,4.1173587E2,8.058113E0],"tree_param":{"num_deleted":"0","num_feature":"108","num_nodes":"61","size_leaf_vector":"1"}},{"base_weights":[-4.422989E-3,-4.845071E-1,2.8684297E-1,-0E0,-6.600171E-1,4.797776E-1,-1.2048251E-1,-2.0971343E-1,1.8809693E-1,-0E0,-7.042598E-1,4.9973115E-1,-0E0,6.5660805E-2,-2.8323594E-1,-2.6057744E-1,-0E0,2.1503682E-1,-0E0,-7.296335E-1,-6.142001E-5,5.222508E-1,-0E0,1.5335424E-1,-3.7027795E-2,-3.104892E-1,-0E0,-1.956491E-3,-0E0,2.3794095E-1,-0E0,-0E0,-7.392532E-1,5.431073E-1,-0E0,1.8623686E-1,-0E0,-1.096927E-1,7.433063E-5,-3.2991108E-1,-0E0,1.7712467E-3,-0E0,-5.264381E-3,-0E0,-0E0,3.934032E-3,1.5078376E-3,-0E0,-1.0569004E-3,-0E0,-0E0,-2.4410158E-3],"categories":[],"categories_nodes":[],"categories_segments":[],"categories_sizes":[],"default_left":[0,0,0,0,0,0,0,0,0,0,0,0,0,0,0,0,0,0,0,0,0,0,0,0,0,0,0,0,0,0,0,0,0,0,0,0,0,0,0,0,0,0,0,0,0,0,0,0,0,0,0,0,0],"id":2,"left_children":[1,3,5,7,9,11,13,15,17,-1,19,21,-1,23,25,27,-1,29,-1,31,-1,33,-1,35,37,39,-1,-1,-1,41,-1,-1,43,45,-1,47,-1,49,-1,51,-1,-1,-1,-1,-1,-1,-1,-1,-1,-1,-1,-1,-1],"loss_changes":[3.2834656E2,7.670555E1,1.2262619E2,1.7634619E1,1.5674103E1,1.3811615E1,1.9992722E1,3.2674236E0,2.1223783E0,0E0,3.9461975E0,1.1162598E1,0E0,4.3768864E0,4.292679E0,1.0253696E0,0E0,1.7386122E0,0E0,3.5823975E0,0E0,1.2078796E1,0E0,1.8934622E0,1.5867608E0,2.7927513E0,0E0,0E0,0E0,9.1118145E-1,0E0,0E0,2.9692383E0,9.672363E0,0E0,1.8685431E0,0E0,1.4156615E0,0E0,2.6580696E0,0E0,0E0,0E0,0E0,0E0,0E0,0E0,0E0,0E0,0E0,0E0,0E0,0E0],"parents":[2147483647,0,0,1,1,2,2,3,3,4,4,5,5,6,6,7,7,8,8,10,10,11,11,13,13,14,14,15,15,17,17,19,19,21,21,23,23,24,24,25,25,29,29,32,32,33,33,35,35,37,37,39,39],"right_children":[2,4,6,8,10,12,14,16,18,-1,20,22,-1,24,26,28,-1,30,-1,32,-1,34,-1,36,38,40,-1,-1,-1,42,-1,-1,44,46,-1,48,-1,50,-1,52,-1,-1,-1,-1,-1,-1,-1,-1,-1,-1,-1,-1,-1],"split_conditions":[4.5945945E-1,-2.4E0,3E0,-4.9E0,5E0,2.9E1,9E0,2.8E1,2.6E1,-0E0,4.88E1,8.18E-1,-0E0,1.5E1,2.6E1,2.4E1,-0E0,2.56E1,-0E0,3.5897437E-1,-6.142001E-5,2.8E1,-0E0,7.887324E-1,2.5E1,2.9E1,-0E0,-1.956491E-3,-0E0,2.8E1,-0E0,-0E0,1.161E2,9E0,-0E0,9E0,-0E0,2E1,7.433063E-5,2E0,-0E0,1.7712467E-3,-0E0,-5.264381E-3,-0E0,-0E0,3.934032E-3,1.5078376E-3,-0E0,-1.0569004E-3,-0E0,-0E0,-2.4410158E-3],"split_indices":[106,77,77,25,53,47,51,81,28,0,56,65,0,42,93,26,0,17,0,107,0,36,0,107,32,91,0,0,0,92,0,0,24,103,0,29,0,95,0,35,0,0,0,0,0,0,0,0,0,0,0,0,0],"split_type":[0,0,0,0,0,0,0,0,0,0,0,0,0,0,0,0,0,0,0,0,0,0,0,0,0,0,0,0,0,0,0,0,0,0,0,0,0,0,0,0,0,0,0,0,0,0,0,0,0,0,0,0,0],"sum_hessian":[2.1248909E3,7.865393E2,1.3383516E3,2.3553021E2,5.510091E2,9.091864E2,4.291652E2,1.025546E2,1.3297562E2,4.8365032E1,5.0264404E2,8.850337E2,2.4152729E1,2.0595966E2,2.2320552E2,7.7170296E1,2.5384312E1,1.22725006E2,1.0250607E1,4.684339E2,3.421016E1,8.423278E2,4.2705875E1,1.2640235E2,7.9557304E1,2.1246233E2,1.0743191E1,6.813399E1,9.0363035E0,1.1150216E2,1.1222845E1,8.299807E0,4.601341E2,8.1183374E2,3.049411E1,1.0614151E2,2.026084E1,4.563579E1,3.3921516E1,2.0171857E2,1.0743766E1,1.0271784E2,8.784317E0,4.5207364E2,8.06044E0,2.0743408E1,7.910903E2,9.491501E1,1.1226508E1,3.758491E1,8.05088E0,7.3219986E0,1.9439656E2],"tree_param":{"num_deleted":"0","num_feature":"108","num_nodes":"53","size_leaf_vector":"1"}},{"base_weights":[-3.817638E-3,-4.8660818E-1,2.964022E-1,2.2738883E-2,-6.4855534E-1,-1.1692925E-1,5.388214E-1,-9.233536E-2,1.6187185E-1,-1.5084125E-2,-6.969944E-1,1.3475323E-1,-3.0177897E-1,4.770427E-2,5.7950747E-1,-1.749964E-1,1.7922177E-4,1.9262403E-1,-0E0,9.269883E-6,-7.14845E-2,-7.122172E-1,-0E0,-1.9456418E-2,2.2340336E-1,-0E0,-3.3775964E-1,-2.6561785E-5,1.02479406E-1,5.918415E-1,-0E0,-2.0232935E-1,-0E0,1.4568062E-3,-0E0,-0E0,-6.894002E-4,-7.285364E-1,-0E0,8.133915E-5,-8.3149865E-2,-0E0,2.5180689E-1,-3.6472556E-1,-0E0,9.710981E-4,-0E0,6.0486394E-1,-0E0,-0E0,-1.556225E-3,-5.2039144E-3,-0E0,-7.551756E-4,-0E0,2.015055E-3,-0E0,-2.7600785E-3,-0E0,4.3458594E-3,-0E0],"categories":[],"categories_nodes":[],"categories_segments":[],"categories_sizes":[],"default_left":[0,0,0,0,0,0,0,0,0,0,0,0,0,0,0,0,0,0,0,0,0,0,0,0,0,0,0,0,0,0,0,0,0,0,0,0,0,0,0,0,0,0,0,0,0,0,0,0,0,0,0,0,0,0,0,0,0,0,0,0,0],"id":3,"left_children":[1,3,5,7,9,11,13,15,17,19,21,23,25,27,29,31,-1,33,-1,-1,35,37,-1,39,41,-1,43,-1,45,47,-1,49,-1,-1,-1,-1,-1,51,-1,-1,53,-1,55,57,-1,-1,-1,59,-1,-1,-1,-1,-1,-1,-1,-1,-1,-1,-1,-1,-1],"loss_changes":[3.404491E2,8.154289E1,1.5364737E2,7.1076236E0,1.4580109E1,3.379188E1,1.0531097E1,3.6990514E0,1.8292542E0,7.4950904E-1,9.628052E0,6.390522E0,4.9407463E0,1.4307839E0,6.9725647E0,1.3420539E0,0E0,8.2805824E-1,0E0,0E0,5.820444E-1,9.39801E0,0E0,1.0444181E0,2.3666697E0,0E0,3.6516495E0,0E0,1.3147612E0,6.221222E0,0E0,8.019581E-1,0E0,0E0,0E0,0E0,0E0,5.221466E0,0E0,0E0,6.3611996E-1,0E0,1.8602114E0,4.4935265E0,0E0,0E0,0E0,5.7445984E0,0E0,0E0,0E0,0E0,0E0,0E0,0E0,0E0,0E0,0E0,0E0,0E0,0E0],"parents":[2147483647,0,0,1,1,2,2,3,3,4,4,5,5,6,6,7,7,8,8,9,9,10,10,11,11,12,12,13,13,14,14,15,15,17,17,20,20,21,21,23,23,24,24,26,26,28,28,29,29,31,31,37,37,40,40,42,42,43,43,47,47],"right_children":[2,4,6,8,10,12,14,16,18,20,22,24,26,28,30,32,-1,34,-1,-1,36,38,-1,40,42,-1,44,-1,46,48,-1,50,-1,-1,-1,-1,-1,52,-1,-1,54,-1,56,58,-1,-1,-1,60,-1,-1,-1,-1,-1,-1,-1,-1,-1,-1,-1,-1,-1],"split_conditions":[4.5945945E-1,-3E0,1.1E1,-4.1E0,1.8E1,8E0,4.2E0,2.8E1,2.6E1,9E0,1.16E2,4E0,7E0,4.5E-1,4.11E1,2.3E1,1.7922177E-4,2.32E1,-0E0,9.269883E-6,1.36E1,3E1,-0E0,1.91E1,2.08E1,-0E0,2.7E1,-2.6561785E-5,6.1E0,4.34E1,-0E0,3E0,-0E0,1.4568062E-3,-0E0,-0E0,-6.894002E-4,4.92E1,-0E0,8.133915E-5,3.64E1,-0E0,3.41E1,2.8E1,-0E0,9.710981E-4,-0E0,2.71E1,-0E0,-0E0,-1.556225E-3,-5.2039144E-3,-0E0,-7.551756E-4,-0E0,2.015055E-3,-0E0,-2.7600785E-3,-0E0,4.3458594E-3,-0E0],"split_indices":[106,77,103,25,28,51,73,80,92,84,24,81,27,7,61,78,0,74,0,0,18,88,0,74,17,0,95,0,20,57,0,78,0,0,0,0,0,4,0,0,15,0,61,87,0,0,0,69,0,0,0,0,0,0,0,0,0,0,0,0,0],"split_type":[0,0,0,0,0,0,0,0,0,0,0,0,0,0,0,0,0,0,0,0,0,0,0,0,0,0,0,0,0,0,0,0,0,0,0,0,0,0,0,0,0,0,0,0,0,0,0,0,0,0,0,0,0,0,0,0,0,0,0,0,0],"sum_hessian":[2.126299E3,8.005934E2,1.3257057E3,2.0279117E2,5.9780225E2,4.9774994E2,8.2795575E2,9.791042E1,1.0488074E2,6.4505035E1,5.332972E2,2.0395639E2,2.9379355E2,9.656607E1,7.3138965E2,6.8625275E1,2.928515E1,9.219533E1,1.26854105E1,1.636949E1,4.8135548E1,5.252377E2,8.059525E0,7.054042E1,1.3341595E2,3.735093E1,2.5644263E2,2.268055E1,7.388552E1,7.1675275E2,1.4636883E1,5.7391224E1,1.1234051E1,8.4878136E1,7.3171945E0,1.1483317E1,3.665223E1,5.149773E2,1.0260372E1,1.8305803E1,5.223462E1,1.365999E1,1.19755974E2,2.3226726E2,2.4175365E1,6.2183075E1,1.1702447E1,6.987076E2,1.804521E1,1.0257655E1,4.713357E1,5.0617587E2,8.801423E0,4.4179768E1,8.0548525E0,9.121893E1,2.8537035E1,2.1566528E2,1.660198E1,6.8091235E2,1.779519E1],"tree_param":{"num_deleted":"0","num_feature":"108","num_nodes":"61","size_leaf_vector":"1"}},{"base_weights":[1.0613059E-2,3.7861043E-1,-3.4545115E-1,5.009574E-1,-1.104611E-1,1.1081542E-1,-5.7599604E-1,1.3100836E-2,5.6161505E-1,1.14178045E-4,-1.5071407E-1,2.8708377E-1,-1.3184305E-1,-5.9553224E-1,-0E0,-6.326875E-2,1.1482501E-1,5.848572E-1,-0E0,-1.8276714E-1,-0E0,-0E0,3.0607685E-1,-2.0026773E-1,6.372648E-5,-0E0,-6.0668653E-1,-9.1889326E-4,3.0410047E-5,1.4861728E-1,-0E0,5.923394E-1,-0E0,-0E0,-2.131544E-1,-0E0,3.197453E-1,-2.494544E-1,-0E0,-6.2731E-1,-0E0,1.2288085E-3,-0E0,4.214483E-3,-0E0,-1.7029316E-3,-0E0,2.500726E-3,-0E0,-0E0,-1.8353751E-3,-4.4891667E-3,-0E0],"categories":[],"categories_nodes":[],"categories_segments":[],"categories_sizes":[],"default_left":[0,0,0,0,0,0,0,0,0,0,0,0,0,0,0,0,0,0,0,0,0,0,0,0,0,0,0,0,0,0,0,0,0,0,0,0,0,0,0,0,0,0,0,0,0,0,0,0,0,0,0,0,0],"id":4,"left_children":[1,3,5,7,9,11,13,15,17,-1,19,21,23,25,-1,27,29,31,-1,33,-1,-1,35,37,-1,-1,39,-1,-1,41,-1,43,-1,-1,45,-1,47,49,-1,51,-1,-1,-1,-1,-1,-1,-1,-1,-1,-1,-1,-1,-1],"loss_changes":[3.0521292E2,7.818483E1,1.3401552E2,2.274936E1,2.92655E0,2.5433655E1,1.1229187E1,2.9808862E0,9.757507E0,0E0,2.6860228E0,2.8934479E0,4.196982E0,7.1479187E0,0E0,1.8024642E0,1.4050255E0,4.533325E0,0E0,2.6376572E0,0E0,0E0,1.9429436E0,3.2864351E0,0E0,0E0,6.83432E0,0E0,0E0,1.2062147E0,0E0,2.7844238E0,0E0,0E0,2.691327E0,0E0,1.7602272E0,5.8840084E-1,0E0,5.7802734E0,0E0,0E0,0E0,0E0,0E0,0E0,0E0,0E0,0E0,0E0,0E0,0E0,0E0],"parents":[2147483647,0,0,1,1,2,2,3,3,4,4,5,5,6,6,7,7,8,8,10,10,11,11,12,12,13,13,15,15,16,16,17,17,19,19,22,22,23,23,26,26,29,29,31,31,34,34,36,36,37,37,39,39],"right_children":[2,4,6,8,10,12,14,16,18,-1,20,22,24,26,-1,28,30,32,-1,34,-1,-1,36,38,-1,-1,40,-1,-1,42,-1,44,-1,-1,46,-1,48,50,-1,52,-1,-1,-1,-1,-1,-1,-1,-1,-1,-1,-1,-1,-1],"split_conditions":[1.5E1,5.1E0,-1.5E0,4.2E0,2E0,2.3E1,1.163E2,6E-1,8.15E-1,1.14178045E-4,6.6E0,1.88E1,-4.2E0,6.79E-1,-0E0,2.1E1,8.08E-1,4.23E1,-0E0,1.79E1,-0E0,-0E0,1.6E1,2.8E1,6.372648E-5,-0E0,4.76E-1,-9.1889326E-4,3.0410047E-5,3E1,-0E0,2.1E1,-0E0,-0E0,8.17E-1,-0E0,2.6E1,1.83E1,-0E0,8.27E-1,-0E0,1.2288085E-3,-0E0,4.214483E-3,-0E0,-1.7029316E-3,-0E0,2.500726E-3,-0E0,-0E0,-1.8353751E-3,-4.4891667E-3,-0E0],"split_indices":[51,77,77,73,51,28,24,3,65,0,20,17,25,65,0,103,65,61,0,74,0,0,9,81,0,0,7,0,0,84,0,27,0,0,13,0,98,23,0,13,0,0,0,0,0,0,0,0,0,0,0,0,0],"split_type":[0,0,0,0,0,0,0,0,0,0,0,0,0,0,0,0,0,0,0,0,0,0,0,0,0,0,0,0,0,0,0,0,0,0,0,0,0,0,0,0,0,0,0,0,0,0,0,0,0,0,0,0,0],"sum_hessian":[2.115234E3,1.0483325E3,1.0669012E3,8.5005426E2,1.9827832E2,3.6455536E2,7.023459E2,1.2338386E2,7.2667035E2,1.3418388E1,1.8485992E2,2.1970311E2,1.4485223E2,6.818368E2,2.0509094E1,4.683305E1,7.655081E1,6.9032336E2,3.6347027E1,1.7216675E2,1.2693183E1,8.293449E0,2.1140965E2,1.0701744E2,3.78348E1,9.286776E0,6.7255005E2,3.5374634E1,1.1458414E1,6.65483E1,1.0002505E1,6.8325104E2,7.07234E0,1.5628481E1,1.5653827E2,7.5606503E0,2.0384901E2,8.4075226E1,2.2942211E1,6.395616E2,3.2988472E1,5.8500908E1,8.047396E0,6.737324E2,9.518608E0,1.4359834E2,1.293992E1,1.5873822E2,4.5110783E1,7.577363E0,7.649786E1,6.290579E2,1.0503662E1],"tree_param":{"num_deleted":"0","num_feature":"108","num_nodes":"53","size_leaf_vector":"1"}},{"base_weights":[-0E0,3.1039476E-1,-4.3569276E-1,5.063224E-1,-1.085229E-1,2.2111697E-2,-5.9746784E-1,5.4227865E-1,5.123324E-3,-2.5134715E-1,1.0476477E-1,-2.0041487E-1,2.3074514E-1,-0E0,-6.212153E-1,5.567372E-1,-0E0,-1.4884994E-4,5.244434E-4,-0E0,-3.095469E-1,1.5358822E-1,-0E0,-2.509922E-1,-0E0,-0E0,2.6330048E-1,-6.4801925E-1,-0E0,5.6941247E-1,-0E0,-3.407246E-1,-0E0,1.9971581E-1,-0E0,-1.8737384E-3,-0E0,2.7976573E-1,-0E0,-0E0,-6.6646326E-1,-0E0,4.0746946E-3,-0E0,-2.6167373E-3,-0E0,1.5902376E-3,-0E0,2.0938022E-3,-0E0,-4.77784E-3],"categories":[],"categories_nodes":[],"categories_segments":[],"categories_sizes":[],"default_left":[0,0,0,0,0,0,0,0,0,0,0,0,0,0,0,0,0,0,0,0,0,0,0,0,0,0,0,0,0,0,0,0,0,0,0,0,0,0,0,0,0,0,0,0,0,0,0,0,0,0,0],"id":5,"left_children":[1,3,5,7,9,11,13,15,17,19,21,23,25,-1,27,29,-1,-1,-1,-1,31,33,-1,35,-1,-1,37,39,-1,41,-1,43,-1,45,-1,-1,-1,47,-1,-1,49,-1,-1,-1,-1,-1,-1,-1,-1,-1,-1],"loss_changes":[3.1478012E2,1.2082037E2,7.783093E1,1.2456543E1,1.9469456E1,2.1015255E1,1.2791595E1,5.656952E0,9.5037913E-1,7.6777363E0,2.4182935E0,2.9395351E0,2.517603E0,0E0,1.02276E1,6.231079E0,0E0,0E0,0E0,0E0,5.026623E0,2.9339237E0,0E0,8.37286E-1,0E0,0E0,1.3952827E0,5.653961E0,0E0,5.1580505E0,0E0,4.4959106E0,0E0,1.8251104E0,0E0,0E0,0E0,1.1013565E0,0E0,0E0,4.69162E0,0E0,0E0,0E0,0E0,0E0,0E0,0E0,0E0,0E0,0E0],"parents":[2147483647,0,0,1,1,2,2,3,3,4,4,5,5,6,6,7,7,8,8,9,9,10,10,11,11,12,12,14,14,15,15,20,20,21,21,23,23,26,26,27,27,29,29,31,31,33,33,37,37,40,40],"right_children":[2,4,6,8,10,12,14,16,18,20,22,24,26,-1,28,30,-1,-1,-1,-1,32,34,-1,36,-1,-1,38,40,-1,42,-1,44,-1,46,-1,-1,-1,48,-1,-1,50,-1,-1,-1,-1,-1,-1,-1,-1,-1,-1],"split_conditions":[1.7E1,3.1E0,-2.4E0,2.5E1,6.5625E-1,-4.6E0,5E0,3.67E1,1.4E1,6.11E-1,1.7E1,2.8E1,1.3E1,-0E0,6E-1,4.85E-1,-0E0,-1.4884994E-4,5.244434E-4,-0E0,2.7E1,2.1E1,-0E0,3E1,-0E0,-0E0,1.64E1,3.8E0,-0E0,3.13E-1,-0E0,3E0,-0E0,2E0,-0E0,-1.8737384E-3,-0E0,1.77E1,-0E0,-0E0,3E0,-0E0,4.0746946E-3,-0E0,-2.6167373E-3,-0E0,1.5902376E-3,-0E0,2.0938022E-3,-0E0,-4.77784E-3],"split_indices":[27,77,77,33,106,25,52,67,80,55,41,81,102,0,25,59,0,0,0,0,17,47,0,28,0,0,18,72,0,10,0,42,0,95,0,0,0,61,0,0,35,0,0,0,0,0,0,0,0,0,0],"split_type":[0,0,0,0,0,0,0,0,0,0,0,0,0,0,0,0,0,0,0,0,0,0,0,0,0,0,0,0,0,0,0,0,0,0,0,0,0,0,0,0,0,0,0,0,0,0,0,0,0,0,0],"sum_hessian":[2.1162053E3,1.2547294E3,8.614758E2,8.5329694E2,4.0143246E2,2.3546991E2,6.260059E2,7.7263135E2,8.066557E1,2.5237305E2,1.4905942E2,9.673563E1,1.3873428E2,2.1755922E1,6.0425E2,7.458336E2,2.6797737E1,2.5372955E1,5.5292618E1,4.1995586E1,2.1037747E2,1.1514077E2,3.3918644E1,6.988934E1,2.6846283E1,2.0484816E1,1.18249466E2,5.710571E2,3.3192863E1,7.2754565E2,1.8287989E1,1.984087E2,1.1968755E1,9.830455E1,1.683622E1,6.2068146E1,7.821195E0,1.1044655E2,7.8029237E0,2.423171E1,5.4682544E2,1.2180781E1,7.1536487E2,1.6361526E1,1.8204718E2,9.03361E0,8.927094E1,1.2679724E1,9.776682E1,1.3696541E1,5.331289E2],"tree_param":{"num_deleted":"0","num_feature":"108","num_nodes":"51","size_leaf_vector":"1"}},{"base_weights":[-0E0,-4.440511E-1,2.9323635E-1,-6.04467E-1,6.859282E-2,-5.63927E-2,5.484957E-1,-0E0,-6.4171875E-1,-8.588337E-2,2.0651172E-1,1.258012E-1,-2.4333696E-1,-0E0,5.7161695E-1,-6.622755E-1,-0E0,-1.4563024E-1,-0E0,-0E0,2.2863382E-1,2.3534892E-1,-4.1499715E-2,-2.8807616E-1,-0E0,-0E0,5.8475184E-1,-6.765894E-1,-0E0,-0E0,-1.2084665E-3,2.4709731E-1,-0E0,2.7111503E-1,-0E0,-1.14473246E-1,2.8436317E-4,-3.1642184E-1,-0E0,-0E0,5.922759E-1,-4.842091E-3,-0E0,1.8413685E-3,-0E0,2.0535905E-3,-0E0,-0E0,-1.0688571E-3,-2.358631E-3,-0E0,-0E0,4.2713056E-3],"categories":[],"categories_nodes":[],"categories_segments":[],"categories_sizes":[],"default_left":[0,0,0,0,0,0,0,0,0,0,0,0,0,0,0,0,0,0,0,0,0,0,0,0,0,0,0,0,0,0,0,0,0,0,0,0,0,0,0,0,0,0,0,0,0,0,0,0,0,0,0,0,0],"id":6,"left_children":[1,3,5,7,9,11,13,-1,15,17,19,21,23,-1,25,27,-1,29,-1,-1,31,33,35,37,-1,-1,39,41,-1,-1,-1,43,-1,45,-1,47,-1,49,-1,-1,51,-1,-1,-1,-1,-1,-1,-1,-1,-1,-1,-1,-1],"loss_changes":[3.0115042E2,8.452467E1,1.3157799E2,1.3385864E1,9.322471E0,2.7037195E1,1.0144608E1,0E0,6.4159546E0,2.0939162E0,1.651659E0,9.730705E0,5.9117374E0,0E0,8.885437E0,6.7095947E0,0E0,8.802936E-1,0E0,0E0,1.2676945E0,2.2336998E0,2.3795428E0,4.3683395E0,0E0,0E0,4.1253357E0,4.1018677E0,0E0,0E0,0E0,9.7365093E-1,0E0,1.9202957E0,0E0,1.759332E0,0E0,2.9733582E0,0E0,0E0,4.0082703E0,0E0,0E0,0E0,0E0,0E0,0E0,0E0,0E0,0E0,0E0,0E0,0E0],"parents":[2147483647,0,0,1,1,2,2,3,3,4,4,5,5,6,6,8,8,9,9,10,10,11,11,12,12,14,14,15,15,17,17,20,20,21,21,22,22,23,23,26,26,27,27,31,31,33,33,35,35,37,37,40,40],"right_children":[2,4,6,8,10,12,14,-1,16,18,20,22,24,-1,26,28,-1,30,-1,-1,32,34,36,38,-1,-1,40,42,-1,-1,-1,44,-1,46,-1,48,-1,50,-1,-1,52,-1,-1,-1,-1,-1,-1,-1,-1,-1,-1,-1,-1],"split_conditions":[4.69E-1,2.2E1,1.1E1,7E0,-4.6E0,9E0,5E0,-0E0,3E-1,2.8E1,3E0,5.4E0,2.2E1,-0E0,9E0,3E1,-0E0,4.22E1,-0E0,-0E0,2.8E1,3.36E1,8E-1,1.6E1,-0E0,-0E0,3.12E-1,8.12E-1,-0E0,-0E0,-1.2084665E-3,1.71E1,-0E0,2.8E1,-0E0,1.8E1,2.8436317E-4,2.9E1,-0E0,-0E0,1E1,-4.842091E-3,-0E0,1.8413685E-3,-0E0,2.0535905E-3,-0E0,-0E0,-1.0688571E-3,-2.358631E-3,-0E0,-0E0,4.2713056E-3],"split_indices":[3,80,80,52,25,51,54,0,25,80,84,77,99,0,79,89,0,68,0,0,97,61,3,103,0,0,10,13,0,0,0,70,0,83,0,74,0,91,0,0,103,0,0,0,0,0,0,0,0,0,0,0,0],"split_type":[0,0,0,0,0,0,0,0,0,0,0,0,0,0,0,0,0,0,0,0,0,0,0,0,0,0,0,0,0,0,0,0,0,0,0,0,0,0,0,0,0,0,0,0,0,0,0,0,0,0,0,0,0],"sum_hessian":[2.0999746E3,8.142225E2,1.2857521E3,6.1800555E2,1.9621692E2,5.637541E2,7.219979E2,4.912226E1,5.688833E2,8.308049E1,1.1313643E2,2.8061893E2,2.831352E2,3.4588253E1,6.8740967E2,5.422597E2,2.662362E1,5.843095E1,2.4649544E1,8.775297E0,1.0436113E2,1.7344742E2,1.07171486E2,2.4286226E2,4.0272934E1,9.261778E0,6.781479E2,5.297737E2,1.2485989E1,1.6374193E1,4.205676E1,9.484767E1,9.513457E0,1.3494629E2,3.850114E1,8.789929E1,1.9272196E1,2.2677226E2,1.6089994E1,8.038778E0,6.7010913E2,5.172998E2,1.2473854E1,8.729191E1,7.555768E0,1.2447144E2,1.0474838E1,7.5658607E0,8.0333435E1,2.1700156E2,9.770716E0,2.6338625E1,6.437705E2],"tree_param":{"num_deleted":"0","num_feature":"108","num_nodes":"53","size_leaf_vector":"1"}},{"base_weights":[-6.5982556E-3,3.6397246E-1,-3.707864E-1,-1.3364267E-1,5.261146E-1,7.099757E-2,-5.6890494E-1,1.4964391E-2,-1.8813677E-1,5.589875E-1,-0E0,-1.9202249E-1,2.5479025E-1,-5.991892E-1,-0E0,-2.830041E-5,5.4876314E-4,-2.2044255E-1,-0E0,5.753347E-1,-0E0,-2.3557374E-1,-0E0,-0E0,2.7775452E-1,-6.090735E-1,-0E0,-0E0,-2.609425E-1,-0E0,5.878743E-1,-0E0,-2.6605183E-1,3.1590945E-1,-0E0,-0E0,-6.188991E-1,-0E0,-1.9942666E-3,4.2821695E-3,-0E0,-0E0,-2.026622E-3,2.333558E-3,-0E0,-4.482617E-3,-0E0],"categories":[],"categories_nodes":[],"categories_segments":[],"categories_sizes":[],"default_left":[0,0,0,0,0,0,0,0,0,0,0,0,0,0,0,0,0,0,0,0,0,0,0,0,0,0,0,0,0,0,0,0,0,0,0,0,0,0,0,0,0,0,0,0,0,0,0],"id":7,"left_children":[1,3,5,7,9,11,13,15,17,19,-1,21,23,25,-1,-1,-1,27,-1,29,-1,31,-1,-1,33,35,-1,-1,37,-1,39,-1,41,43,-1,-1,45,-1,-1,-1,-1,-1,-1,-1,-1,-1,-1],"loss_changes":[3.1337784E2,1.0272592E2,1.1180081E2,4.587357E0,1.5141968E1,2.7323557E1,1.3228546E1,8.283188E-1,3.2020435E0,9.45929E0,0E0,2.9175663E0,3.2320938E0,6.67276E0,0E0,0E0,0E0,3.3587618E0,0E0,8.120728E0,0E0,2.561924E0,0E0,0E0,3.4431992E0,6.1231995E0,0E0,0E0,2.381134E0,0E0,6.351837E0,0E0,1.4609566E0,1.9359722E0,0E0,0E0,7.801819E0,0E0,0E0,0E0,0E0,0E0,0E0,0E0,0E0,0E0,0E0],"parents":[2147483647,0,0,1,1,2,2,3,3,4,4,5,5,6,6,7,7,8,8,9,9,11,11,12,12,13,13,17,17,19,19,21,21,24,24,25,25,28,28,30,30,32,32,33,33,36,36],"right_children":[2,4,6,8,10,12,14,16,18,20,-1,22,24,26,-1,-1,-1,28,-1,30,-1,32,-1,-1,34,36,-1,-1,38,-1,40,-1,42,44,-1,-1,46,-1,-1,-1,-1,-1,-1,-1,-1,-1,-1],"split_conditions":[1.5E1,7E0,-1.9E0,5E0,8.13E-1,-4.7E0,4.76E-1,4.4E1,3.94E-1,2.9E1,-0E0,2.6E1,5E0,6.8E0,-0E0,-2.830041E-5,5.4876314E-4,6.41E-1,-0E0,3.86E1,-0E0,8E0,-0E0,-0E0,2.7E1,2E0,-0E0,-0E0,2.11E1,-0E0,3.64E1,-0E0,2E0,4.4E1,-0E0,-0E0,8.17E-1,-0E0,-1.9942666E-3,4.2821695E-3,-0E0,-0E0,-2.026622E-3,2.333558E-3,-0E0,-4.482617E-3,-0E0],"split_indices":[51,103,77,46,65,25,7,16,10,47,0,96,86,73,0,0,0,55,0,68,0,43,0,0,86,35,0,0,69,0,67,0,26,2,0,0,13,0,0,0,0,0,0,0,0,0,0],"split_type":[0,0,0,0,0,0,0,0,0,0,0,0,0,0,0,0,0,0,0,0,0,0,0,0,0,0,0,0,0,0,0,0,0,0,0,0,0,0,0,0,0,0,0,0,0,0,0],"sum_hessian":[2.1094458E3,1.0343091E3,1.0751367E3,2.4620934E2,7.8809973E2,3.4099075E2,7.3414594E2,4.589084E1,2.003185E2,7.3448035E2,5.3619358E1,1.1975526E2,2.2123549E2,6.882028E2,4.5943142E1,1.050278E1,3.5388058E1,1.8298285E2,1.7335651E1,7.1596906E2,1.8511309E1,9.6541275E1,2.3213984E1,9.993418E0,2.1124207E2,6.80619E2,7.5838118E0,3.3441772E1,1.4954108E2,1.1198124E1,7.0477094E2,7.5733323E0,8.896794E1,1.7371834E2,3.752373E1,8.7952E0,6.718238E2,9.280594E0,1.4026048E2,6.6775775E2,3.7013176E1,1.09953575E1,7.797259E1,1.6542473E2,8.293606E0,6.4738116E2,2.4442656E1],"tree_param":{"num_deleted":"0","num_feature":"108","num_nodes":"47","size_leaf_vector":"1"}},{"base_weights":[2.2071306E-2,-4.225084E-1,3.3849353E-1,-0E0,-6.2073207E-1,-5.5035137E-2,5.340688E-1,-2.0668094E-1,1.826818E-1,-0E0,-6.58502E-1,1.5303254E-1,-2.0905085E-1,5.5914015E-1,-0E0,-2.6222473E-1,-0E0,2.0914967E-1,-0E0,-6.7321473E-1,-0E0,2.1405412E-1,-0E0,-2.4243353E-1,-0E0,5.7298714E-1,-0E0,-2.8373995E-1,-0E0,2.3400477E-1,-0E0,-6.849946E-1,-0E0,-0E0,2.4115352E-1,-2.8534478E-1,-0E0,-0E0,5.833846E-1,-0E0,-2.12365E-3,1.8081758E-3,-0E0,-4.9427003E-3,-0E0,1.8322472E-3,-0E0,-2.220532E-3,-0E0,-0E0,4.1989433E-3],"categories":[],"categories_nodes":[],"categories_segments":[],"categories_sizes":[],"default_left":[0,0,0,0,0,0,0,0,0,0,0,0,0,0,0,0,0,0,0,0,0,0,0,0,0,0,0,0,0,0,0,0,0,0,0,0,0,0,0,0,0,0,0,0,0,0,0,0,0,0,0],"id":8,"left_children":[1,3,5,7,9,11,13,15,17,-1,19,21,23,25,-1,27,-1,29,-1,31,-1,33,-1,35,-1,37,-1,39,-1,41,-1,43,-1,-1,45,47,-1,-1,49,-1,-1,-1,-1,-1,-1,-1,-1,-1,-1,-1,-1],"loss_changes":[3.2681726E2,8.3197876E1,1.1229274E2,1.919225E1,1.3877136E1,2.1031914E1,1.1831787E1,4.195364E0,1.7808409E0,0E0,5.015106E0,4.221494E0,4.341007E0,9.272125E0,0E0,1.8104248E0,0E0,1.4122858E0,0E0,5.396454E0,0E0,1.9643393E0,0E0,5.0553627E0,0E0,7.326233E0,0E0,1.3330355E0,0E0,1.2669573E0,0E0,4.4494934E0,0E0,0E0,1.0513849E0,4.5656223E0,0E0,0E0,5.0071716E0,0E0,0E0,0E0,0E0,0E0,0E0,0E0,0E0,0E0,0E0,0E0,0E0],"parents":[2147483647,0,0,1,1,2,2,3,3,4,4,5,5,6,6,7,7,8,8,10,10,11,11,12,12,13,13,15,15,17,17,19,19,21,21,23,23,25,25,27,27,29,29,31,31,34,34,35,35,38,38],"right_children":[2,4,6,8,10,12,14,16,18,-1,20,22,24,26,-1,28,-1,30,-1,32,-1,34,-1,36,-1,38,-1,40,-1,42,-1,44,-1,-1,46,48,-1,-1,50,-1,-1,-1,-1,-1,-1,-1,-1,-1,-1,-1,-1],"split_conditions":[4.73E-1,-1.5E0,1E1,-4.7E0,5E0,6E0,4.8E-1,2.8E1,-2.3E0,-0E0,2.9E1,8E-1,1.26E1,3E0,-0E0,4.62E-1,-0E0,2.7E1,-0E0,2.9E1,-0E0,1.31E1,-0E0,2.1E1,-0E0,2.98E-1,-0E0,6E0,-0E0,3E0,-0E0,9.15E1,-0E0,-0E0,2.2E1,2.9E1,-0E0,-0E0,3E0,-0E0,-2.12365E-3,1.8081758E-3,-0E0,-4.9427003E-3,-0E0,1.8322472E-3,-0E0,-2.220532E-3,-0E0,-0E0,4.1989433E-3],"split_indices":[3,77,103,25,53,27,59,80,77,0,99,65,14,77,0,7,0,86,0,88,0,18,0,88,0,10,0,99,0,105,0,58,0,0,47,48,0,0,86,0,0,0,0,0,0,0,0,0,0,0,0],"split_type":[0,0,0,0,0,0,0,0,0,0,0,0,0,0,0,0,0,0,0,0,0,0,0,0,0,0,0,0,0,0,0,0,0,0,0,0,0,0,0,0,0,0,0,0,0,0,0,0,0,0,0],"sum_hessian":[2.114209E3,8.533979E2,1.2608112E3,2.9903326E2,5.543646E2,4.298113E2,8.309999E2,1.2201357E2,1.770197E2,4.1588654E1,5.1277594E2,1.6021642E2,2.6959488E2,7.8669226E2,4.430758E1,9.662703E1,2.5386543E1,1.5060886E2,2.6410833E1,4.970869E2,1.5689038E1,1.2215611E2,3.806031E1,2.4711441E2,2.2480486E1,7.7230457E2,1.4387734E1,8.953662E1,7.090414E0,1.2476446E2,2.5844406E1,4.8802057E2,9.0663595E0,1.4638592E1,1.0751752E2,2.109576E2,3.6156815E1,9.505249E0,7.627993E2,8.074642E0,8.1461975E1,1.04540146E2,2.0224314E1,4.6792596E2,2.0094603E1,9.263513E1,1.4882386E1,1.9898674E2,1.1970849E1,2.4349272E1,7.3845E2],"tree_param":{"num_deleted":"0","num_feature":"108","num_nodes":"51","size_leaf_vector":"1"}},{"base_weights":[-2.1369746E-2,3.424653E-1,-3.758995E-1,-7.85708E-2,5.297422E-1,8.948378E-2,-5.55459E-1,-2.2873612E-1,3.745028E-2,-0E0,5.688764E-1,-1.5460871E-1,2.5902826E-1,-5.829271E-1,-0E0,-2.524949E-1,-0E0,1.2717101E-1,-4.0257003E-2,5.9829205E-1,1.29906135E-2,-2.1649905E-1,1.8502224E-6,3.104195E-1,-0E0,-1.7549768E-5,-6.1567926E-1,-2.7320045E-1,-0E0,1.6129485E-1,-0E0,-8.977799E-2,-0E0,6.1613536E-1,-0E0,-1.2803104E-4,6.571394E-4,-2.3951824E-1,-0E0,2.2839936E-3,-0E0,-6.2952316E-1,-0E0,-2.0986039E-3,-0E0,1.3094334E-3,-0E0,-0E0,-1.01806E-3,-0E0,4.428603E-3,-0E0,-1.8193863E-3,-4.519006E-3,-0E0],"categories":[],"categories_nodes":[],"categories_segments":[],"categories_sizes":[],"default_left":[0,0,0,0,0,0,0,0,0,0,0,0,0,0,0,0,0,0,0,0,0,0,0,0,0,0,0,0,0,0,0,0,0,0,0,0,0,0,0,0,0,0,0,0,0,0,0,0,0,0,0,0,0,0,0],"id":9,"left_children":[1,3,5,7,9,11,13,15,17,-1,19,21,23,25,-1,27,-1,29,31,33,35,37,-1,39,-1,-1,41,43,-1,45,-1,47,-1,49,-1,-1,-1,51,-1,-1,-1,53,-1,-1,-1,-1,-1,-1,-1,-1,-1,-1,-1,-1,-1],"loss_changes":[3.001002E2,9.7955475E1,1.08221375E2,9.975322E0,1.5372314E1,2.2025928E1,1.2139954E1,2.168274E0,3.3709388E0,0E0,6.4488373E0,3.8488703E0,3.03265E0,1.063623E1,0E0,1.7239552E0,0E0,1.8272591E0,1.0993361E0,4.9416656E0,1.2061597E0,1.5590038E0,0E0,1.2948322E0,0E0,0E0,9.944672E0,1.9330311E0,0E0,1.4450464E0,0E0,1.95882E0,0E0,4.8372345E0,0E0,0E0,0E0,9.543686E-1,0E0,0E0,0E0,5.8767395E0,0E0,0E0,0E0,0E0,0E0,0E0,0E0,0E0,0E0,0E0,0E0,0E0,0E0],"parents":[2147483647,0,0,1,1,2,2,3,3,4,4,5,5,6,6,7,7,8,8,10,10,11,11,12,12,13,13,15,15,17,17,18,18,19,19,20,20,21,21,23,23,26,26,27,27,29,29,31,31,33,33,37,37,41,41],"right_children":[2,4,6,8,10,12,14,16,18,-1,20,22,24,26,-1,28,-1,30,32,34,36,38,-1,40,-1,-1,42,44,-1,46,-1,48,-1,50,-1,-1,-1,52,-1,-1,-1,54,-1,-1,-1,-1,-1,-1,-1,-1,-1,-1,-1,-1,-1],"split_conditions":[1.5E1,9E0,-2.4E0,3.1E0,5E0,-4.6E0,2.8E1,2.8E1,6.944444E-1,-0E0,2.4E1,2.8E1,1.53E1,5E0,-0E0,2.8E1,-0E0,9E0,1.8E1,2.9E1,1.45E1,3.95E-1,1.8502224E-6,2.9E1,-0E0,-1.7549768E-5,4.19E1,4.87E1,-0E0,1.179E2,-0E0,4.81E1,-0E0,3.61E1,-0E0,-1.2803104E-4,6.571394E-4,3E0,-0E0,2.2839936E-3,-0E0,6E-1,-0E0,-2.0986039E-3,-0E0,1.3094334E-3,-0E0,-0E0,-1.01806E-3,-0E0,4.428603E-3,-0E0,-1.8193863E-3,-4.519006E-3,-0E0],"split_indices":[51,103,77,25,54,25,93,87,107,0,33,80,18,53,0,96,0,28,36,46,70,3,0,92,0,0,9,4,0,76,0,56,0,5,0,0,0,78,0,0,0,25,0,0,0,0,0,0,0,0,0,0,0,0,0],"split_type":[0,0,0,0,0,0,0,0,0,0,0,0,0,0,0,0,0,0,0,0,0,0,0,0,0,0,0,0,0,0,0,0,0,0,0,0,0,0,0,0,0,0,0,0,0,0,0,0,0,0,0,0,0,0,0],"sum_hessian":[2.1124092E3,1.0327644E3,1.0796449E3,3.2328024E2,7.094842E2,3.0254874E2,7.770961E2,1.27126495E2,1.9615375E2,6.0849777E1,6.486344E2,1.07799225E2,1.9474951E2,7.315502E2,4.5545963E1,1.19311584E2,7.814906E0,1.0921183E2,8.694192E1,5.9418506E2,5.4449368E1,8.510306E1,2.2696167E1,1.3485558E2,5.9893944E1,5.869277E1,6.728574E2,1.0953736E2,9.774225E0,9.798386E1,1.122797E1,6.911277E1,1.7829144E1,5.672295E2,2.6955532E1,2.4076519E1,3.0372849E1,7.7293785E1,7.8092737E0,1.2657428E2,8.281293E0,6.64068E2,8.789399E0,9.6584236E1,1.2953122E1,8.895813E1,9.02573E0,1.4161554E1,5.4951218E1,1.5789367E1,5.514401E2,1.1738307E1,6.555548E1,6.481925E2,1.5875479E1],"tree_param":{"num_deleted":"0","num_feature":"108","num_nodes":"55","size_leaf_vector":"1"}},{"base_weights":[-1.0819492E-2,-4.515138E-1,2.8341308E-1,4.9720712E-2,-5.8587426E-1,-8.457562E-3,5.521751E-1,-8.597236E-2,1.8450299E-1,-0E0,-6.2240654E-1,1.8691452E-1,-1.8234308E-1,5.695867E-1,-0E0,-1.443828E-1,-0E0,2.2261019E-1,-0E0,-6.393081E-1,-0E0,2.9749504E-1,-4.0869784E-2,-2.1540745E-1,5.43676E-5,5.832892E-1,-0E0,-0E0,-1.2949933E-3,-0E0,2.3686233E-1,-6.4940625E-1,-0E0,-0E0,3.2936668E-1,-0E0,-9.925984E-2,-0E0,-2.7486992E-1,-0E0,5.999969E-1,-0E0,1.7750479E-3,-0E0,-4.677251E-3,-0E0,2.4717879E-3,-0E0,-9.5225574E-4,4.1894385E-4,-4.2839735E-4,-0E0,-2.220391E-3,4.3400032E-3,-0E0],"categories":[],"categories_nodes":[],"categories_segments":[],"categories_sizes":[],"default_left":[0,0,0,0,0,0,0,0,0,0,0,0,0,0,0,0,0,0,0,0,0,0,0,0,0,0,0,0,0,0,0,0,0,0,0,0,0,0,0,0,0,0,0,0,0,0,0,0,0,0,0,0,0,0,0],"id":10,"left_children":[1,3,5,7,9,11,13,15,17,-1,19,21,23,25,-1,27,-1,29,-1,31,-1,33,35,37,-1,39,-1,-1,-1,-1,41,43,-1,-1,45,-1,47,49,51,-1,53,-1,-1,-1,-1,-1,-1,-1,-1,-1,-1,-1,-1,-1,-1],"loss_changes":[3.0285355E2,7.091194E1,1.136648E2,7.6880064E0,1.7022278E1,2.9185242E1,7.610733E0,1.9795687E0,1.685319E0,0E0,9.476776E0,1.311227E1,4.883256E0,6.768631E0,0E0,1.7591155E0,0E0,7.562952E-1,0E0,4.9515686E0,0E0,4.491564E0,1.2606579E0,4.590008E0,0E0,6.450989E0,0E0,0E0,0E0,0E0,8.2247925E-1,5.1043396E0,0E0,0E0,2.8988075E0,0E0,1.1474009E0,1.1773131E0,4.017536E0,0E0,4.692642E0,0E0,0E0,0E0,0E0,0E0,0E0,0E0,0E0,0E0,0E0,0E0,0E0,0E0,0E0],"parents":[2147483647,0,0,1,1,2,2,3,3,4,4,5,5,6,6,7,7,8,8,10,10,11,11,12,12,13,13,15,15,17,17,19,19,21,21,22,22,23,23,25,25,30,30,31,31,34,34,36,36,37,37,38,38,40,40],"right_children":[2,4,6,8,10,12,14,16,18,-1,20,22,24,26,-1,28,-1,30,-1,32,-1,34,36,38,-1,40,-1,-1,-1,-1,42,44,-1,-1,46,-1,48,50,52,-1,54,-1,-1,-1,-1,-1,-1,-1,-1,-1,-1,-1,-1,-1,-1],"split_conditions":[4.69E-1,3.59E-1,1.3E1,-4.7E0,7E0,8E0,8.18E-1,3.18E-1,3.9E1,-0E0,2.6E1,1.2E1,2.8E1,2.9E1,-0E0,8E0,-0E0,1.7E1,-0E0,3E1,-0E0,2E0,1.7E1,1.2E1,5.43676E-5,1.1E1,-0E0,-0E0,-1.2949933E-3,-0E0,1.79E1,2E0,-0E0,-0E0,2E0,-0E0,2E1,3.2E1,7E0,-0E0,2.9E1,-0E0,1.7750479E-3,-0E0,-4.677251E-3,-0E0,2.4717879E-3,-0E0,-9.5225574E-4,4.1894385E-4,-4.2839735E-4,-0E0,-2.220391E-3,4.3400032E-3,-0E0],"split_indices":[3,55,80,25,52,51,65,3,57,0,103,60,96,47,0,46,0,28,0,93,0,81,11,92,0,103,0,0,0,0,61,44,0,0,99,0,52,15,34,0,34,0,0,0,0,0,0,0,0,0,0,0,0,0,0],"split_type":[0,0,0,0,0,0,0,0,0,0,0,0,0,0,0,0,0,0,0,0,0,0,0,0,0,0,0,0,0,0,0,0,0,0,0,0,0,0,0,0,0,0,0,0,0,0,0,0,0,0,0,0,0,0,0],"sum_hessian":[2.114091E3,8.349651E2,1.2791259E3,1.7759058E2,6.573745E2,6.47673E2,6.314529E2,7.699095E1,1.00599625E2,4.3052486E1,6.14322E2,2.7879822E2,3.6887473E2,6.105092E2,2.0943707E1,5.378057E1,2.321038E1,6.990062E1,3.0699001E1,5.9992065E2,1.4401377E1,1.9032812E2,8.847011E1,3.393207E2,2.9554018E1,5.971306E2,1.3378597E1,9.532021E0,4.424855E1,7.0618024E0,6.2838818E1,5.898756E2,1.0045058E1,1.3188054E1,1.7714006E2,3.362508E1,5.4845028E1,1.1111578E2,2.2820494E2,2.0699533E1,5.764311E2,7.0645638E0,5.5774254E1,2.0099005E1,5.697766E2,1.0731579E1,1.6640848E2,1.1702027E1,4.3143E1,2.3670492E1,8.744529E1,4.0282276E1,1.8792267E2,5.5214966E2,2.4281399E1],"tree_param":{"num_deleted":"0","num_feature":"108","num_nodes":"55","size_leaf_vector":"1"}},{"base_weights":[2.5012603E-2,-4.0871185E-1,3.2955703E-1,-5.710452E-1,2.1307815E-2,1.8795852E-2,5.860536E-1,-0E0,-6.1036664E-1,-1.343249E-1,1.6735044E-1,2.4721475E-1,-1.4635551E-1,6.0913813E-1,-0E0,-6.2394756E-1,-0E0,-0E0,-1.8002541E-1,2.0364076E-1,-0E0,-0E0,3.181056E-1,-2.2496097E-1,2.3995005E-2,6.242396E-1,-0E0,-6.5395975E-1,-1.0024209E-4,-2.0586419E-1,-0E0,2.3277411E-1,-0E0,-0E0,3.5184062E-1,-0E0,-2.654047E-1,8.2100816E-2,-5.0636598E-5,6.3902235E-1,-0E0,-4.673418E-3,-0E0,-1.5606842E-3,-0E0,1.7927616E-3,-0E0,2.6513927E-3,-0E0,-2.0682756E-3,-0E0,-0E0,7.7886623E-4,-0E0,4.568792E-3],"categories":[],"categories_nodes":[],"categories_segments":[],"categories_sizes":[],"default_left":[0,0,0,0,0,0,0,0,0,0,0,0,0,0,0,0,0,0,0,0,0,0,0,0,0,0,0,0,0,0,0,0,0,0,0,0,0,0,0,0,0,0,0,0,0,0,0,0,0,0,0,0,0,0,0],"id":11,"left_children":[1,3,5,7,9,11,13,-1,15,17,19,21,23,25,-1,27,-1,-1,29,31,-1,-1,33,35,37,39,-1,41,-1,43,-1,45,-1,-1,47,-1,49,51,-1,53,-1,-1,-1,-1,-1,-1,-1,-1,-1,-1,-1,-1,-1,-1,-1],"loss_changes":[3.0717886E2,7.236496E1,1.0346184E2,1.1456604E1,1.0600513E1,3.282452E1,1.1617722E1,0E0,4.7265625E0,2.5402071E0,2.3512778E0,8.081036E0,8.648221E0,7.4796753E0,0E0,5.1080017E0,0E0,0E0,1.4179821E0,1.6291647E0,0E0,0E0,5.1265697E0,4.3315506E0,1.0709678E0,5.176422E0,0E0,4.474167E0,0E0,8.695431E-1,0E0,1.4740438E0,0E0,0E0,3.947258E0,0E0,4.0303917E0,8.416642E-1,0E0,4.971344E0,0E0,0E0,0E0,0E0,0E0,0E0,0E0,0E0,0E0,0E0,0E0,0E0,0E0,0E0,0E0],"parents":[2147483647,0,0,1,1,2,2,3,3,4,4,5,5,6,6,8,8,9,9,10,10,11,11,12,12,13,13,15,15,18,18,19,19,22,22,23,23,24,24,25,25,27,27,29,29,31,31,34,34,36,36,37,37,39,39],"right_children":[2,4,6,8,10,12,14,-1,16,18,20,22,24,26,-1,28,-1,-1,30,32,-1,-1,34,36,38,40,-1,42,-1,44,-1,46,-1,-1,48,-1,50,52,-1,54,-1,-1,-1,-1,-1,-1,-1,-1,-1,-1,-1,-1,-1,-1,-1],"split_conditions":[4.71E-1,2.2E1,1.3E1,5E0,-5.1E0,8E0,8.18E-1,-0E0,8.12E-1,9.35E1,3.44E1,4E0,5.1E0,4.83E-1,-0E0,5.9E0,-0E0,-0E0,5.6E0,2.47E1,-0E0,-0E0,4E0,6E0,1.5E1,2.8E1,-0E0,4.2E1,-1.0024209E-4,2.9E1,-0E0,2.9E1,-0E0,-0E0,2.2E1,-0E0,2.8E1,6E0,-5.0636598E-5,3.87E1,-0E0,-4.673418E-3,-0E0,-1.5606842E-3,-0E0,1.7927616E-3,-0E0,2.6513927E-3,-0E0,-2.0682756E-3,-0E0,-0E0,7.7886623E-4,-0E0,4.568792E-3],"split_indices":[3,103,80,53,25,51,65,0,13,76,67,81,73,59,0,73,0,0,20,64,0,0,44,34,51,36,0,54,0,80,0,101,0,0,50,0,96,87,0,68,0,0,0,0,0,0,0,0,0,0,0,0,0,0,0],"split_type":[0,0,0,0,0,0,0,0,0,0,0,0,0,0,0,0,0,0,0,0,0,0,0,0,0,0,0,0,0,0,0,0,0,0,0,0,0,0,0,0,0,0,0,0,0,0,0,0,0,0,0,0,0,0,0],"sum_hessian":[2.116245E3,8.467768E2,1.2694684E3,6.0345624E2,2.4332053E2,6.401168E2,6.293516E2,5.7725044E1,5.457312E2,9.443278E1,1.4888776E2,2.67551E2,3.7256583E2,6.059761E2,2.3375513E1,5.298054E2,1.5925783E1,1.0507525E1,8.3925255E1,1.2280534E2,2.6082413E1,6.811994E1,1.9943105E2,2.649597E2,1.0760613E2,5.911349E2,1.4841185E1,4.8465027E2,4.515515E1,7.267765E1,1.1247602E1,9.91617E1,2.3643644E1,1.4366585E1,1.8506445E2,4.2976494E1,2.2198318E2,6.994071E1,3.766542E1,5.71926E2,1.9208849E1,4.7680072E2,7.8495584E0,6.5598E1,7.0796514E0,8.7953125E1,1.1208572E1,1.7557596E2,9.488507E0,2.080493E2,1.3933884E1,1.0485408E1,5.9455303E1,9.468975E0,5.624571E2],"tree_param":{"num_deleted":"0","num_feature":"108","num_nodes":"55","size_leaf_vector":"1"}},{"base_weights":[-0E0,-4.5485115E-1,3.0737612E-1,1.9912696E-3,-5.645679E-1,-4.8179366E-2,5.6625485E-1,-1.0959261E-1,1.5509866E-1,-1.6040443E-2,-6.254241E-1,8.260647E-2,-2.351296E-1,5.9210396E-1,-0E0,-0E0,-1.4831902E-1,1.3097499E-3,-0E0,1.9147132E-2,-9.189734E-2,-6.4626515E-1,-0E0,1.9426847E-1,-8.5713156E-2,-2.8272924E-1,-0E0,6.109203E-1,-0E0,-1.660358E-1,-0E0,-0E0,4.6164458E-4,-0E0,-8.3417026E-4,-6.576893E-1,-0E0,-0E0,2.6102388E-1,-1.4892612E-1,1.6148384E-4,-0E0,-3.3113292E-1,6.210234E-1,-0E0,-1.2753258E-3,-0E0,-4.7125937E-3,-0E0,2.0181881E-3,-0E0,-0E0,-1.4458278E-3,-0E0,-2.5611946E-3,4.469193E-3,-0E0],"categories":[],"categories_nodes":[],"categories_segments":[],"categories_sizes":[],"default_left":[0,0,0,0,0,0,0,0,0,0,0,0,0,0,0,0,0,0,0,0,0,0,0,0,0,0,0,0,0,0,0,0,0,0,0,0,0,0,0,0,0,0,0,0,0,0,0,0,0,0,0,0,0,0,0,0,0],"id":12,"left_children":[1,3,5,7,9,11,13,15,17,19,21,23,25,27,-1,-1,29,-1,-1,31,33,35,-1,37,39,41,-1,43,-1,45,-1,-1,-1,-1,-1,47,-1,-1,49,51,-1,-1,53,55,-1,-1,-1,-1,-1,-1,-1,-1,-1,-1,-1,-1,-1],"loss_changes":[3.2677863E2,5.2165634E1,1.35011E2,6.8643017E0,1.956363E1,1.9691519E1,1.2084808E1,1.7362187E0,1.5904603E0,1.3239396E0,9.715363E0,1.1054035E1,5.1645107E0,1.1063171E1,0E0,0E0,7.800231E-1,0E0,0E0,5.3846955E-1,6.8761575E-1,5.1094666E0,0E0,3.61841E0,2.931745E0,3.1855106E0,0E0,6.6941833E0,0E0,6.84742E-1,0E0,0E0,0E0,0E0,0E0,4.7005005E0,0E0,0E0,2.654047E0,3.3110628E0,0E0,0E0,2.3220863E0,5.979553E0,0E0,0E0,0E0,0E0,0E0,0E0,0E0,0E0,0E0,0E0,0E0,0E0,0E0],"parents":[2147483647,0,0,1,1,2,2,3,3,4,4,5,5,6,6,7,7,8,8,9,9,10,10,11,11,12,12,13,13,16,16,19,19,20,20,21,21,23,23,24,24,25,25,27,27,29,29,35,35,38,38,39,39,42,42,43,43],"right_children":[2,4,6,8,10,12,14,16,18,20,22,24,26,28,-1,-1,30,-1,-1,32,34,36,-1,38,40,42,-1,44,-1,46,-1,-1,-1,-1,-1,48,-1,-1,50,52,-1,-1,54,56,-1,-1,-1,-1,-1,-1,-1,-1,-1,-1,-1,-1,-1],"split_conditions":[4.7297296E-1,3.59E-1,1.2E1,-4.1E0,1.8E1,1.1E1,8.13E-1,3.45E1,2.7E1,5.48E-1,1.15E2,1.12E2,2.1E1,2.9E1,-0E0,-0E0,3E1,1.3097499E-3,-0E0,9E0,-3.2E0,3E1,-0E0,1.6E1,1.17E1,1E1,-0E0,9.39E1,-0E0,3E1,-0E0,-0E0,4.6164458E-4,-0E0,-8.3417026E-4,8.15E-1,-0E0,-0E0,2.9E1,4E0,1.6148384E-4,-0E0,6E0,5.52E-1,-0E0,-1.2753258E-3,-0E0,-4.7125937E-3,-0E0,2.0181881E-3,-0E0,-0E0,-1.4458278E-3,-0E0,-2.5611946E-3,4.469193E-3,-0E0],"split_indices":[106,55,81,25,28,51,65,57,47,55,24,76,88,47,0,0,103,0,0,39,25,88,0,40,66,42,0,58,0,28,0,0,0,0,0,13,0,0,98,42,0,0,33,55,0,0,0,0,0,0,0,0,0,0,0,0,0],"split_type":[0,0,0,0,0,0,0,0,0,0,0,0,0,0,0,0,0,0,0,0,0,0,0,0,0,0,0,0,0,0,0,0,0,0,0,0,0,0,0,0,0,0,0,0,0,0,0,0,0,0,0,0,0,0,0,0,0],"sum_hessian":[2.1218071E3,8.3922546E2,1.2825817E3,1.6805962E2,6.7116583E2,5.632768E2,7.193049E2,8.333287E1,8.472674E1,9.401806E1,5.771478E2,3.401709E2,2.2310588E2,6.832804E2,3.6024464E1,7.080704E0,7.625217E1,7.2308235E1,1.2418507E1,4.374939E1,5.026867E1,5.5705286E2,2.0094915E1,2.242817E2,1.1588921E2,1.8619873E2,3.6907158E1,6.650461E2,1.8234335E1,6.770882E1,8.543351E0,1.1972719E1,3.1776672E1,1.3468394E1,3.6800278E1,5.4602747E2,1.1025388E1,9.426711E1,1.3001459E2,9.664769E1,1.9241522E1,5.015464E1,1.3604408E2,6.5751697E2,7.529105E0,6.0617245E1,7.0915728E0,5.3328937E2,1.2738101E1,1.2173161E2,8.2829685E0,1.780489E1,7.88428E1,2.4201439E1,1.1184265E2,6.3879803E2,1.8718946E1],"tree_param":{"num_deleted":"0","num_feature":"108","num_nodes":"57","size_leaf_vector":"1"}},{"base_weights":[-0E0,3.7938824E-1,-3.734093E-1,5.356061E-1,-0E0,7.494787E-2,-6.0859317E-1,-0E0,5.7158893E-1,1.2664147E-1,-1.1335467E-1,-1.9607708E-1,2.6012728E-1,-6.4195085E-1,-0E0,5.8451977E-2,-1.8444829E-4,5.83872E-1,-0E0,-0E0,1.9211228E-1,-1.7880447E-1,1.3582612E-2,-2.468564E-1,-0E0,-0E0,2.8119305E-1,-6.608603E-1,-0E0,6.6933455E-4,-0E0,6.0179466E-1,-0E0,-0E0,2.122361E-1,-2.2333458E-1,-0E0,-0E0,4.7608468E-4,-0E0,-2.9120797E-1,2.9737607E-1,-0E0,-6.8192756E-1,-0E0,1.3211557E-5,4.385931E-3,-0E0,1.6213806E-3,-1.7277773E-3,-0E0,-0E0,-2.1843824E-3,2.197384E-3,-0E0,-0E0,-4.972292E-3],"categories":[],"categories_nodes":[],"categories_segments":[],"categories_sizes":[],"default_left":[0,0,0,0,0,0,0,0,0,0,0,0,0,0,0,0,0,0,0,0,0,0,0,0,0,0,0,0,0,0,0,0,0,0,0,0,0,0,0,0,0,0,0,0,0,0,0,0,0,0,0,0,0,0,0,0,0],"id":13,"left_children":[1,3,5,7,9,11,13,15,17,19,21,23,25,27,-1,29,-1,31,-1,-1,33,35,37,39,-1,-1,41,43,-1,-1,-1,45,-1,-1,47,49,-1,-1,-1,-1,51,53,-1,55,-1,-1,-1,-1,-1,-1,-1,-1,-1,-1,-1,-1,-1],"loss_changes":[3.3215463E2,7.169403E1,1.3459404E2,1.2988251E1,7.65028E0,3.059877E1,1.3859558E1,5.890011E-1,6.1924286E0,3.326649E0,4.192314E0,3.83012E0,3.207508E0,8.575775E0,0E0,6.842808E-1,0E0,4.7124023E0,0E0,0E0,1.2154045E0,3.199911E0,6.3828224E-1,2.9998722E0,0E0,0E0,1.7844753E0,8.422394E0,0E0,0E0,0E0,4.0254517E0,0E0,0E0,1.055582E0,1.8783092E0,0E0,0E0,0E0,0E0,1.3728676E0,2.0108185E0,0E0,8.774994E0,0E0,0E0,0E0,0E0,0E0,0E0,0E0,0E0,0E0,0E0,0E0,0E0,0E0],"parents":[2147483647,0,0,1,1,2,2,3,3,4,4,5,5,6,6,7,7,8,8,9,9,10,10,11,11,12,12,13,13,15,15,17,17,20,20,21,21,22,22,23,23,26,26,27,27,31,31,34,34,35,35,40,40,41,41,43,43],"right_children":[2,4,6,8,10,12,14,16,18,20,22,24,26,28,-1,30,-1,32,-1,-1,34,36,38,40,-1,-1,42,44,-1,-1,-1,46,-1,-1,48,50,-1,-1,-1,-1,52,54,-1,56,-1,-1,-1,-1,-1,-1,-1,-1,-1,-1,-1,-1,-1],"split_conditions":[1.5E1,3.1E0,-1.3E0,9E0,6E0,-4.7E0,4.76E-1,1.129E2,3.6E1,1.1E1,5E0,2.8E1,5E0,8.18E-1,-0E0,7.67E-1,-1.8444829E-4,2.9E1,-0E0,-0E0,2E0,2.4E1,4E0,1.42E1,-0E0,-0E0,2.7E1,9.22E1,-0E0,6.6933455E-4,-0E0,1E1,-0E0,-0E0,1.56E1,2.8E1,-0E0,-0E0,4.7608468E-4,-0E0,4E0,1.69E1,-0E0,1.49E1,-0E0,1.3211557E-5,4.385931E-3,-0E0,1.6213806E-3,-1.7277773E-3,-0E0,-0E0,-2.1843824E-3,2.197384E-3,-0E0,-0E0,-4.972292E-3],"split_indices":[51,77,77,52,51,25,7,24,2,49,73,81,86,13,0,65,0,46,0,0,95,89,77,18,0,0,78,58,0,0,0,103,0,0,11,96,0,0,0,0,92,18,0,63,0,0,0,0,0,0,0,0,0,0,0,0,0],"split_type":[0,0,0,0,0,0,0,0,0,0,0,0,0,0,0,0,0,0,0,0,0,0,0,0,0,0,0,0,0,0,0,0,0,0,0,0,0,0,0,0,0,0,0,0,0,0,0,0,0,0,0,0,0,0,0,0,0],"sum_hessian":[2.1326453E3,1.050165E3,1.0824803E3,7.2396014E2,3.2620483E2,3.8518756E2,6.972928E2,6.1463985E1,6.6249615E2,1.2357025E2,2.0263458E2,1.3564609E2,2.4954147E2,6.496008E2,4.7691956E1,4.0810192E1,2.0653793E1,6.4866296E2,1.383321E1,3.972698E1,8.384327E1,1.4818788E2,5.44467E1,1.0927437E2,2.6371717E1,1.0723653E1,2.3881783E2,6.2660974E2,2.2991087E1,2.5007278E1,1.5802915E1,6.173881E2,3.1274845E1,7.3286576E0,7.651462E1,1.210504E2,2.7137487E1,1.4632454E1,3.9814247E1,2.5231173E1,8.40432E1,2.2247864E2,1.6339188E1,6.00149E2,2.6460758E1,3.869499E1,5.786931E2,7.8008432E0,6.871377E1,1.12980774E2,8.06962E0,8.569779E0,7.547342E1,2.1249144E2,9.987186E0,3.093364E1,5.6921533E2],"tree_param":{"num_deleted":"0","num_feature":"108","num_nodes":"57","size_leaf_vector":"1"}},{"base_weights":[-0E0,-4.680592E-1,2.8450224E-1,-0E0,-6.4258343E-1,-9.855141E-2,4.537301E-1,-1.3258843E-1,9.4189785E-2,-0E0,-6.7313117E-1,-2.030858E-1,8.498817E-2,-0E0,4.989822E-1,-0E0,-1.5841644E-1,1.490243E-1,-0E0,-0E0,-6.911324E-1,-2.7587903E-1,-0E0,1.485813E-1,-1.0702763E-4,-3.8571905E-2,6.308045E-4,5.677446E-1,9.01258E-2,-0E0,-1.8781155E-1,1.7760639E-1,-0E0,-0E0,-7.0022386E-1,-3.1646734E-1,-0E0,-9.460424E-5,6.707812E-2,1.9187026E-1,-0E0,-6.778573E-4,-0E0,5.8112746E-1,-0E0,-2.6999446E-4,1.6700065E-1,-1.4424085E-3,-0E0,1.434567E-3,-0E0,-4.9853334E-3,-0E0,-2.4941205E-3,-0E0,-0E0,7.93095E-4,1.4594281E-3,-0E0,4.1672005E-3,-0E0,1.4609603E-3,-0E0],"categories":[],"categories_nodes":[],"categories_segments":[],"categories_sizes":[],"default_left":[0,0,0,0,0,0,0,0,0,0,0,0,0,0,0,0,0,0,0,0,0,0,0,0,0,0,0,0,0,0,0,0,0,0,0,0,0,0,0,0,0,0,0,0,0,0,0,0,0,0,0,0,0,0,0,0,0,0,0,0,0,0,0],"id":14,"left_children":[1,3,5,7,9,11,13,15,17,-1,19,21,23,25,27,-1,29,31,-1,-1,33,35,37,39,-1,41,-1,43,45,-1,47,49,-1,-1,51,53,-1,-1,55,57,-1,-1,-1,59,-1,-1,61,-1,-1,-1,-1,-1,-1,-1,-1,-1,-1,-1,-1,-1,-1,-1,-1],"loss_changes":[3.0897382E2,6.959198E1,1.0034627E2,5.864975E0,1.1568665E1,1.2597818E1,1.7691925E1,1.3541882E0,2.3570156E0,0E0,7.713501E0,7.969405E0,2.8181915E0,1.4458784E0,1.495018E1,0E0,1.5169201E0,1.6181626E0,0E0,0E0,3.6195374E0,5.9919224E0,6.9856775E-1,2.444446E0,0E0,1.0811802E0,0E0,6.1151276E0,4.4701586E0,0E0,8.753357E-1,1.1279855E0,0E0,0E0,2.9585571E0,5.291483E0,0E0,0E0,1.0959086E0,8.481684E-1,0E0,0E0,0E0,5.191452E0,0E0,0E0,2.7015004E0,0E0,0E0,0E0,0E0,0E0,0E0,0E0,0E0,0E0,0E0,0E0,0E0,0E0,0E0,0E0,0E0],"parents":[2147483647,0,0,1,1,2,2,3,3,4,4,5,5,6,6,7,7,8,8,10,10,11,11,12,12,13,13,14,14,16,16,17,17,20,20,21,21,22,22,23,23,25,25,27,27,28,28,30,30,31,31,34,34,35,35,38,38,39,39,43,43,46,46],"right_children":[2,4,6,8,10,12,14,16,18,-1,20,22,24,26,28,-1,30,32,-1,-1,34,36,38,40,-1,42,-1,44,46,-1,48,50,-1,-1,52,54,-1,-1,56,58,-1,-1,-1,60,-1,-1,62,-1,-1,-1,-1,-1,-1,-1,-1,-1,-1,-1,-1,-1,-1,-1,-1],"split_conditions":[4.5945945E-1,-2E0,9E0,3.2876712E-1,4.2E0,6.6071427E-1,4.2E0,1.81E1,3.9E1,-0E0,5.7E0,1.13E1,3.43E1,1.8E1,1.6E1,-0E0,8.21E1,1.19E1,-0E0,-0E0,1.74E1,8.18E-1,4E0,9.5E0,-1.0702763E-4,4.84E1,6.308045E-4,4.4E1,1.4E1,-0E0,2.7E1,7.77E-1,-0E0,-0E0,4.93E1,1.43E1,-0E0,-9.460424E-5,6E0,2.9E1,-0E0,-6.778573E-4,-0E0,2.9E1,-0E0,-2.6999446E-4,4.19E1,-1.4424085E-3,-0E0,1.434567E-3,-0E0,-4.9853334E-3,-0E0,-2.4941205E-3,-0E0,-0E0,7.93095E-4,1.4594281E-3,-0E0,4.1672005E-3,-0E0,1.4609603E-3,-0E0],"split_indices":[106,77,103,106,21,106,73,23,57,0,60,14,61,38,51,0,6,8,0,0,22,13,81,77,0,56,0,5,79,0,84,65,0,0,4,8,0,0,95,40,0,0,0,47,0,0,57,0,0,0,0,0,0,0,0,0,0,0,0,0,0,0,0],"split_type":[0,0,0,0,0,0,0,0,0,0,0,0,0,0,0,0,0,0,0,0,0,0,0,0,0,0,0,0,0,0,0,0,0,0,0,0,0,0,0,0,0,0,0,0,0,0,0,0,0,0,0,0,0,0,0,0,0,0,0,0,0,0,0],"sum_hessian":[2.0994253E3,7.761303E2,1.3232948E3,2.4560332E2,5.30527E2,4.0404453E2,9.192503E2,1.01027306E2,1.4457602E2,3.0938599E1,4.995884E2,2.7900732E2,1.2503722E2,1.06484695E2,8.127656E2,8.070818E0,9.295648E1,1.0017641E2,4.4399612E1,1.4991845E1,4.8459656E2,2.0730421E2,7.17031E1,9.57663E1,2.9270914E1,6.4182945E1,4.2301754E1,6.4310114E2,1.6966447E2,1.4427076E1,7.852941E1,9.042733E1,9.749081E0,7.856995E0,4.7673956E2,1.9189876E2,1.5405456E1,2.7924433E1,4.3778667E1,8.1355705E1,1.4410597E1,3.771434E1,2.6468603E1,6.2709955E2,1.6001585E1,4.303331E1,1.2663117E2,6.972287E1,8.806536E0,7.019393E1,2.0233397E1,4.6912994E2,7.6096106E0,1.7357918E2,1.8319574E1,1.0517888E1,3.326078E1,7.404732E1,7.3083816E0,6.1471155E2,1.2388043E1,1.0714613E2,1.9485035E1],"tree_param":{"num_deleted":"0","num_feature":"108","num_nodes":"63","size_leaf_vector":"1"}},{"base_weights":[-1.5321927E-3,-3.6010548E-1,3.3716074E-1,5.830888E-2,-5.472646E-1,4.9508432E-1,-1.00341775E-1,-1.6807418E-1,2.2775802E-1,-0E0,-5.83518E-1,5.23637E-1,-0E0,-1.9207498E-1,3.6226332E-2,-2.3658428E-1,3.1559644E-5,2.533936E-1,-0E0,-0E0,-6.095341E-1,9.860936E-2,5.843658E-1,-2.2471495E-1,-0E0,-2.30062E-4,1.0868742E-1,-2.5946158E-1,-0E0,2.770408E-1,-0E0,-0E0,-6.316175E-1,1.4799119E-3,-1.5608455E-5,-0E0,6.059594E-1,-2.5928187E-1,-0E0,1.4415078E-1,-0E0,-0E0,-1.9084123E-3,-0E0,2.0431876E-3,-4.5175273E-3,-0E0,-0E0,4.3650395E-3,-2.0487255E-3,-0E0,1.1894011E-3,-0E0],"categories":[],"categories_nodes":[],"categories_segments":[],"categories_sizes":[],"default_left":[0,0,0,0,0,0,0,0,0,0,0,0,0,0,0,0,0,0,0,0,0,0,0,0,0,0,0,0,0,0,0,0,0,0,0,0,0,0,0,0,0,0,0,0,0,0,0,0,0,0,0,0,0],"id":15,"left_children":[1,3,5,7,9,11,13,15,17,-1,19,21,-1,23,25,27,-1,29,-1,-1,31,33,35,37,-1,-1,39,41,-1,43,-1,-1,45,-1,-1,-1,47,49,-1,51,-1,-1,-1,-1,-1,-1,-1,-1,-1,-1,-1,-1,-1],"loss_changes":[2.8028976E2,9.6084E1,8.9686005E1,2.1129164E1,1.4619171E1,1.2410538E1,6.8632298E0,4.6972804E0,3.2978745E0,0E0,1.0681976E1,1.0037186E1,0E0,2.851225E0,2.04555E0,1.3510427E0,0E0,2.976385E0,0E0,0E0,5.072937E0,4.594327E0,8.742752E0,3.001029E0,0E0,0E0,1.4264956E0,5.921297E-1,0E0,1.6224289E0,0E0,0E0,5.0591125E0,0E0,0E0,0E0,5.159729E0,2.5609093E0,0E0,1.1015329E0,0E0,0E0,0E0,0E0,0E0,0E0,0E0,0E0,0E0,0E0,0E0,0E0,0E0],"parents":[2147483647,0,0,1,1,2,2,3,3,4,4,5,5,6,6,7,7,8,8,10,10,11,11,13,13,14,14,15,15,17,17,20,20,21,21,22,22,23,23,26,26,27,27,29,29,32,32,36,36,37,37,39,39],"right_children":[2,4,6,8,10,12,14,16,18,-1,20,22,-1,24,26,28,-1,30,-1,-1,32,34,36,38,-1,-1,40,42,-1,44,-1,-1,46,-1,-1,-1,48,50,-1,52,-1,-1,-1,-1,-1,-1,-1,-1,-1,-1,-1,-1,-1],"split_conditions":[2E-1,-1.9E0,6.3013697E-1,-4.7E0,5E0,8.14E-1,5E0,2.8E1,2.6E1,-0E0,5E0,5.36E-1,-0E0,4.9E1,7E0,5.8E0,3.1559644E-5,1.68E1,-0E0,-0E0,3E0,-2.5E0,7E0,4.79E1,-0E0,-2.30062E-4,2.7E1,2E1,-0E0,5.5E0,-0E0,-0E0,4.92E1,1.4799119E-3,-1.5608455E-5,-0E0,7E0,4.86E1,-0E0,5.2E0,-0E0,-0E0,-1.9084123E-3,-0E0,2.0431876E-3,-4.5175273E-3,-0E0,-0E0,4.3650395E-3,-2.0487255E-3,-0E0,1.1894011E-3,-0E0],"split_indices":[25,77,107,25,53,65,25,81,28,0,47,3,0,1,37,20,0,18,0,0,84,77,52,68,0,0,69,28,0,60,0,0,4,0,0,0,81,56,0,21,0,0,0,0,0,0,0,0,0,0,0,0,0],"split_type":[0,0,0,0,0,0,0,0,0,0,0,0,0,0,0,0,0,0,0,0,0,0,0,0,0,0,0,0,0,0,0,0,0,0,0,0,0,0,0,0,0,0,0,0,0,0,0,0,0,0,0,0,0],"sum_hessian":[2.094209E3,1.0258812E3,1.0683278E3,3.259436E2,6.999376E2,7.8864087E2,2.7968686E2,1.1895557E2,2.0698805E2,5.410937E1,6.458283E2,7.3898737E2,4.9653465E1,1.7782513E2,1.0186173E2,9.136195E1,2.7593609E1,1.9820645E2,8.781598E0,3.40658E1,6.117625E2,1.4425502E2,5.9473236E2,1.578001E2,2.002503E1,2.3409203E1,7.845253E1,7.814583E1,1.3216129E1,1.8725513E2,1.0951321E1,3.6603687E1,5.751588E2,5.278906E1,9.1465965E1,2.5248268E1,5.694841E2,1.3676729E2,2.1032808E1,6.746908E1,1.0983455E1,7.565632E0,7.058019E1,7.057408E0,1.8019772E2,5.655806E2,9.578163E0,1.7525148E1,5.519589E2,1.1672252E2,2.0044773E1,5.8692467E1,8.776606E0],"tree_param":{"num_deleted":"0","num_feature":"108","num_nodes":"53","size_leaf_vector":"1"}},{"base_weights":[-0E0,-4.1998124E-1,2.6645043E-1,4.1604232E-2,-5.551704E-1,-3.3262912E-2,5.78955E-1,-1.3515633E-1,2.1461767E-1,-0E0,-5.779366E-1,1.5141127E-1,-2.1593061E-1,5.971345E-1,-0E0,-1.6212997E-1,-0E0,2.3920067E-1,-0E0,-5.934121E-1,-0E0,2.6245046E-1,-2.3051422E-2,-0E0,-3.2839468E-1,6.1114E-1,-0E0,-0E0,-1.8629698E-1,1.8375728E-3,-0E0,-0E0,-6.099016E-1,-0E0,3.0600944E-1,2.3110896E-4,-9.203465E-2,7.7579476E-2,-1.1395944E-1,-3.5697564E-1,-0E0,6.2269765E-1,-0E0,-0E0,-1.4922393E-3,-0E0,-4.48549E-3,2.525679E-3,-0E0,1.4169475E-5,-1.0365724E-3,-0E0,8.881525E-4,-1.0930044E-3,-0E0,-0E0,-2.6347938E-3,-0E0,4.4359975E-3],"categories":[],"categories_nodes":[],"categories_segments":[],"categories_sizes":[],"default_left":[0,0,0,0,0,0,0,0,0,0,0,0,0,0,0,0,0,0,0,0,0,0,0,0,0,0,0,0,0,0,0,0,0,0,0,0,0,0,0,0,0,0,0,0,0,0,0,0,0,0,0,0,0,0,0,0,0,0,0],"id":16,"left_children":[1,3,5,7,9,11,13,15,17,-1,19,21,23,25,-1,27,-1,29,-1,31,-1,33,35,37,39,41,-1,-1,43,-1,-1,-1,45,-1,47,-1,49,51,53,55,-1,57,-1,-1,-1,-1,-1,-1,-1,-1,-1,-1,-1,-1,-1,-1,-1,-1,-1],"loss_changes":[2.5862396E2,6.2709885E1,1.389267E2,1.2547027E1,1.0995544E1,3.1265089E1,8.520996E0,1.268822E0,1.9281559E0,0E0,8.853836E0,1.1182358E1,8.757309E0,7.543579E0,0E0,1.1005507E0,0E0,1.6462984E0,0E0,7.8763733E0,0E0,4.7893066E0,1.7378037E0,3.8308105E0,3.4078445E0,3.969986E0,0E0,0E0,1.3205543E0,0E0,0E0,0E0,8.3984375E0,0E0,4.759615E0,0E0,2.2852468E0,1.6620003E0,1.9828486E0,2.3282967E0,0E0,3.1656494E0,0E0,0E0,0E0,0E0,0E0,0E0,0E0,0E0,0E0,0E0,0E0,0E0,0E0,0E0,0E0,0E0,0E0],"parents":[2147483647,0,0,1,1,2,2,3,3,4,4,5,5,6,6,7,7,8,8,10,10,11,11,12,12,13,13,15,15,17,17,19,19,21,21,22,22,23,23,24,24,25,25,28,28,32,32,34,34,36,36,37,37,38,38,39,39,41,41],"right_children":[2,4,6,8,10,12,14,16,18,-1,20,22,24,26,-1,28,-1,30,-1,32,-1,34,36,38,40,42,-1,-1,44,-1,-1,-1,46,-1,48,-1,50,52,54,56,-1,58,-1,-1,-1,-1,-1,-1,-1,-1,-1,-1,-1,-1,-1,-1,-1,-1,-1],"split_conditions":[4.5945945E-1,3.75E-1,1.4E1,-4.9E0,5E0,9E0,8.17E-1,2.4E1,2.56E1,-0E0,3E1,3.1E1,3.8E0,4.84E-1,-0E0,7.22E-1,-0E0,2.6E1,-0E0,1.8E1,-0E0,4.47E-1,1.7E1,1.4E1,2.8E1,2.9E1,-0E0,-0E0,1.4E1,1.8375728E-3,-0E0,-0E0,5E0,-0E0,6E0,2.3110896E-4,3E0,1.61E1,2.7E1,7.08E-1,-0E0,1.78E1,-0E0,-0E0,-1.4922393E-3,-0E0,-4.48549E-3,2.525679E-3,-0E0,1.4169475E-5,-1.0365724E-3,-0E0,8.881525E-4,-1.0930044E-3,-0E0,-0E0,-2.6347938E-3,-0E0,4.4359975E-3],"split_indices":[106,55,80,25,47,51,65,26,17,0,88,61,77,59,0,65,0,28,0,75,0,7,53,33,48,47,0,0,50,0,0,0,2,0,77,0,31,11,41,65,0,23,0,0,0,0,0,0,0,0,0,0,0,0,0,0,0,0,0],"split_type":[0,0,0,0,0,0,0,0,0,0,0,0,0,0,0,0,0,0,0,0,0,0,0,0,0,0,0,0,0,0,0,0,0,0,0,0,0,0,0,0,0,0,0,0,0,0,0,0,0,0,0,0,0,0,0,0,0,0,0],"sum_hessian":[2.0984246E3,7.913518E2,1.3070728E3,1.8201279E2,6.0933905E2,7.020401E2,6.050327E2,7.781234E1,1.0420044E2,2.2335026E1,5.87004E2,3.355616E2,3.664785E2,5.8628925E2,1.874346E1,6.9979485E1,7.8328524E0,9.689627E1,7.304174E0,5.764683E2,1.0535729E1,2.0139409E2,1.3416753E2,1.8705063E2,1.7942784E2,5.7511554E2,1.117367E1,1.1008211E1,5.8971275E1,8.83589E1,8.537362E0,1.5234871E1,5.612334E2,3.016328E1,1.7123082E2,3.843088E1,9.573663E1,8.82156E1,9.883504E1,1.6228062E2,1.7147211E1,5.603014E2,1.48141985E1,8.314396E0,5.065688E1,3.575505E1,5.254784E2,1.3242543E2,3.8805386E1,1.776207E1,7.797456E1,1.6575033E1,7.1640564E1,8.6393814E1,1.244122E1,7.8412848E0,1.5443935E2,8.243639E0,5.5205774E2],"tree_param":{"num_deleted":"0","num_feature":"108","num_nodes":"59","size_leaf_vector":"1"}},{"base_weights":[-0E0,-5.609862E-1,2.2097197E-1,-1.1730503E-1,-7.0908254E-1,-7.6732315E-2,4.72162E-1,-2.2736882E-1,4.8342254E-2,-0E0,-7.2627187E-1,-2.72657E-1,1.5128177E-1,5.0985706E-1,-0E0,-2.7966607E-1,-0E0,-0E0,9.718387E-2,-7.3902047E-1,-0E0,-3.612941E-1,-0E0,-4.342263E-2,2.372383E-1,5.303998E-1,-0E0,-5.054085E-2,8.685833E-2,-3.054017E-1,-0E0,8.9899387E-4,-0E0,-5.2978E-3,-0E0,-3.9214736E-1,-0E0,-1.11482054E-1,5.0525244E-2,-9.803888E-2,-0E0,2.813307E-1,-0E0,5.464957E-1,-0E0,-0E0,-8.588539E-2,-0E0,7.8342104E-4,-2.3258117E-3,-0E0,-3.0404031E-3,-0E0,-9.253681E-4,-0E0,-0E0,7.1046985E-4,-0E0,-8.759947E-4,2.1445586E-3,-0E0,-0E0,3.9472138E-3,-0E0,-7.7435764E-4],"categories":[],"categories_nodes":[],"categories_segments":[],"categories_sizes":[],"default_left":[0,0,0,0,0,0,0,0,0,0,0,0,0,0,0,0,0,0,0,0,0,0,0,0,0,0,0,0,0,0,0,0,0,0,0,0,0,0,0,0,0,0,0,0,0,0,0,0,0,0,0,0,0,0,0,0,0,0,0,0,0,0,0,0,0],"id":17,"left_children":[1,3,5,7,9,11,13,15,17,-1,19,21,23,25,27,29,-1,-1,31,33,-1,35,37,39,41,43,-1,45,47,49,-1,-1,-1,-1,-1,51,-1,53,55,57,-1,59,-1,61,-1,-1,63,-1,-1,-1,-1,-1,-1,-1,-1,-1,-1,-1,-1,-1,-1,-1,-1,-1,-1],"loss_changes":[2.922431E2,2.8351166E1,1.3174951E2,8.280553E0,7.511078E0,4.285611E1,1.4660828E1,4.338396E0,1.0864048E0,0E0,4.0311127E0,9.425312E0,1.0002486E1,1.0920105E1,1.4072533E0,2.3238564E0,0E0,0E0,9.552077E-1,3.89859E0,0E0,6.0371323E0,2.5051303E0,1.257879E0,4.0974293E0,7.133499E0,0E0,6.749749E-1,5.541016E-1,1.8500385E0,0E0,0E0,0E0,0E0,0E0,5.539715E0,0E0,5.763105E-1,1.2837505E0,8.6535287E-1,0E0,2.7389526E0,0E0,6.739517E0,0E0,0E0,5.7966506E-1,0E0,0E0,0E0,0E0,0E0,0E0,0E0,0E0,0E0,0E0,0E0,0E0,0E0,0E0,0E0,0E0,0E0,0E0],"parents":[2147483647,0,0,1,1,2,2,3,3,4,4,5,5,6,6,7,7,8,8,10,10,11,11,12,12,13,13,14,14,15,15,18,18,19,19,21,21,22,22,23,23,24,24,25,25,27,27,28,28,29,29,35,35,37,37,38,38,39,39,41,41,43,43,46,46],"right_children":[2,4,6,8,10,12,14,16,18,-1,20,22,24,26,28,30,-1,-1,32,34,-1,36,38,40,42,44,-1,46,48,50,-1,-1,-1,-1,-1,52,-1,54,56,58,-1,60,-1,62,-1,-1,64,-1,-1,-1,-1,-1,-1,-1,-1,-1,-1,-1,-1,-1,-1,-1,-1,-1,-1],"split_conditions":[-2.7E0,-1.4E0,1.2E1,-4.7E0,1.25E1,2.8E0,2.1E1,2.8E1,1.5E1,-0E0,1.76E1,9E0,4E0,8.18E-1,1.52E1,3.92E-1,-0E0,-0E0,6E0,4.24E1,-0E0,2.7E1,1.1E1,5.7E0,1.26E1,2.9E1,-0E0,4.82E1,6.9E0,2.8E1,-0E0,8.9899387E-4,-0E0,-5.2978E-3,-0E0,2.4E1,-0E0,4.65E-1,9E0,7.2E0,-0E0,2.4E1,-0E0,2E0,-0E0,-0E0,-2.2E0,-0E0,7.8342104E-4,-2.3258117E-3,-0E0,-3.0404031E-3,-0E0,-9.253681E-4,-0E0,-0E0,7.1046985E-4,-0E0,-8.759947E-4,2.1445586E-3,-0E0,-0E0,3.9472138E-3,-0E0,-7.7435764E-4],"split_indices":[25,77,80,25,18,25,27,80,41,0,70,103,103,65,70,3,0,0,21,5,0,86,40,20,60,47,0,56,19,101,0,0,0,0,0,95,0,7,87,71,0,47,0,40,0,0,25,0,0,0,0,0,0,0,0,0,0,0,0,0,0,0,0,0,0],"split_type":[0,0,0,0,0,0,0,0,0,0,0,0,0,0,0,0,0,0,0,0,0,0,0,0,0,0,0,0,0,0,0,0,0,0,0,0,0,0,0,0,0,0,0,0,0,0,0,0,0,0,0,0,0,0,0,0,0,0,0,0,0,0,0,0,0],"sum_hessian":[2.1244385E3,5.6395E2,1.5604884E3,2.0272221E2,3.6122778E2,7.3274133E2,8.27747E2,1.2811406E2,7.4608154E1,7.6194153E0,3.5360837E2,4.024858E2,3.3025552E2,7.511667E2,7.658036E1,1.04179924E2,2.3934132E1,2.0960976E1,5.3647182E1,3.452658E2,8.342562E0,2.5576076E2,1.4672507E2,8.76854E1,2.4257013E2,7.2486487E2,2.6301775E1,4.8477726E1,2.8102633E1,9.514982E1,9.030111E0,4.486102E1,8.786161E0,3.3567303E2,9.59279E0,2.4031937E2,1.5441387E1,5.480122E1,9.192384E1,6.2791412E1,2.4893991E1,1.9361394E2,4.8956196E1,7.0052277E2,2.4342117E1,9.537719E0,3.8940006E1,7.8150687E0,2.0287563E1,8.26511E1,1.2498715E1,2.0892044E2,3.1398922E1,4.2857246E1,1.1943972E1,2.2502277E1,6.942156E1,8.3060055E0,5.448541E1,1.7877618E2,1.4837759E1,1.9613726E1,6.8090906E2,8.827166E0,3.011284E1],"tree_param":{"num_deleted":"0","num_feature":"108","num_nodes":"65","size_leaf_vector":"1"}},{"base_weights":[-2.576205E-2,2.1734208E-1,-4.7068653E-1,4.5632175E-1,-1.068221E-1,1.30692255E-2,-5.848804E-1,1.0018327E-2,5.1596946E-1,-2.861705E-1,8.66194E-2,1.2783593E-1,-9.041563E-2,-0E0,-6.0542595E-1,-3.8370106E-2,8.727143E-2,3.9905757E-2,5.7187384E-1,-0E0,-3.1464967E-1,1.8265048E-1,-7.3099956E-2,1.6956165E-1,-0E0,-8.9788646E-4,-0E0,-6.218327E-1,-0E0,-7.6984265E-4,6.6988636E-5,-0E0,1.276311E-1,-1.5089806E-4,1.13497324E-1,-0E0,5.840414E-1,-3.35933E-1,-0E0,2.2587444E-1,-0E0,-0E0,-1.2285191E-1,-0E0,1.8925197E-1,-0E0,-6.34202E-1,-0E0,1.0676732E-3,-0E0,1.1314322E-3,4.202329E-3,-0E0,-0E0,-2.5261375E-3,1.7784715E-3,-0E0,-1.133122E-3,-0E0,1.5017374E-3,-0E0,-0E0,-4.5580193E-3],"categories":[],"categories_nodes":[],"categories_segments":[],"categories_sizes":[],"default_left":[0,0,0,0,0,0,0,0,0,0,0,0,0,0,0,0,0,0,0,0,0,0,0,0,0,0,0,0,0,0,0,0,0,0,0,0,0,0,0,0,0,0,0,0,0,0,0,0,0,0,0,0,0,0,0,0,0,0,0,0,0,0,0],"id":18,"left_children":[1,3,5,7,9,11,13,15,17,19,21,23,25,-1,27,29,31,33,35,-1,37,39,41,43,-1,-1,-1,45,-1,-1,-1,-1,47,-1,49,-1,51,53,-1,55,-1,-1,57,-1,59,-1,61,-1,-1,-1,-1,-1,-1,-1,-1,-1,-1,-1,-1,-1,-1,-1,-1],"loss_changes":[2.560238E2,1.2533754E2,5.1932434E1,1.9215271E1,2.9042591E1,4.5086365E0,9.64769E0,1.6257359E0,1.3289703E1,5.2557335E0,8.498767E0,2.257492E0,1.0556203E0,0E0,7.8412476E0,1.4488429E0,1.3451506E0,1.977159E0,6.5210266E0,0E0,4.132759E0,3.521799E0,1.4280225E0,1.0986266E0,0E0,0E0,0E0,4.2261353E0,0E0,0E0,0E0,0E0,7.371185E-1,0E0,2.0009022E0,0E0,4.4866486E0,4.2938232E0,0E0,2.6744194E0,0E0,0E0,1.4679003E0,0E0,1.2141833E0,0E0,4.3077087E0,0E0,0E0,0E0,0E0,0E0,0E0,0E0,0E0,0E0,0E0,0E0,0E0,0E0,0E0,0E0,0E0],"parents":[2147483647,0,0,1,1,2,2,3,3,4,4,5,5,6,6,7,7,8,8,9,9,10,10,11,11,12,12,14,14,15,15,16,16,17,17,18,18,20,20,21,21,22,22,23,23,27,27,32,32,34,34,36,36,37,37,39,39,42,42,44,44,46,46],"right_children":[2,4,6,8,10,12,14,16,18,20,22,24,26,-1,28,30,32,34,36,-1,38,40,42,44,-1,-1,-1,46,-1,-1,-1,-1,48,-1,50,-1,52,54,-1,56,-1,-1,58,-1,60,-1,62,-1,-1,-1,-1,-1,-1,-1,-1,-1,-1,-1,-1,-1,-1,-1,-1],"split_conditions":[1.9E1,5.5E-1,3.59E-1,8E0,2.9E0,2.6E1,5E0,8E0,8E0,6E-1,7.06E-1,2.33E1,2.5E1,-0E0,2.6E1,2.4E1,1.4E1,1.7E1,1.18E1,-0E0,2.9E1,8.93E1,2.19E1,6E0,-0E0,-8.9788646E-4,-0E0,1.8E1,-0E0,-7.6984265E-4,6.6988636E-5,-0E0,5.32E-1,-1.5089806E-4,5E0,-0E0,4.3E1,3E0,-0E0,2.4E1,-0E0,-0E0,8.92E1,-0E0,2.6E1,-0E0,5E0,-0E0,1.0676732E-3,-0E0,1.1314322E-3,4.202329E-3,-0E0,-0E0,-2.5261375E-3,1.7784715E-3,-0E0,-1.133122E-3,-0E0,1.5017374E-3,-0E0,-0E0,-4.5580193E-3],"split_indices":[27,55,55,99,25,28,0,30,95,77,55,22,34,0,103,101,79,1,70,0,91,58,64,100,0,0,0,75,0,0,0,0,3,0,97,0,57,36,0,47,0,0,58,0,84,0,47,0,0,0,0,0,0,0,0,0,0,0,0,0,0,0,0],"split_type":[0,0,0,0,0,0,0,0,0,0,0,0,0,0,0,0,0,0,0,0,0,0,0,0,0,0,0,0,0,0,0,0,0,0,0,0,0,0,0,0,0,0,0,0,0,0,0,0,0,0,0,0,0,0,0,0,0,0,0,0,0,0,0],"sum_hessian":[2.141166E3,1.407662E3,7.3350397E2,8.001204E2,6.0754156E2,1.4415929E2,5.8934467E2,1.25321815E2,6.7479865E2,3.1110324E2,2.9643832E2,9.45016E1,4.9657677E1,2.0078497E1,5.692662E2,4.390597E1,8.141585E1,1.0560648E2,5.6919214E2,1.901785E1,2.920854E2,2.0803252E2,8.840581E1,8.6442375E1,8.059227E0,3.6940624E1,1.27170515E1,5.5437695E2,1.4889238E1,3.2514027E1,1.1391944E1,1.7261684E1,6.415416E1,3.7155865E1,6.8450615E1,8.726538E0,5.604656E2,2.798512E2,1.223419E1,1.6834067E2,3.9691845E1,3.1018112E1,5.73877E1,7.3057733E0,7.9136604E1,1.5004813E1,5.3937213E2,1.7767094E1,4.638707E1,1.0183933E1,5.8266685E1,5.439859E2,1.6479712E1,1.4679395E1,2.651718E2,1.5495918E2,1.33814945E1,4.566538E1,1.172232E1,6.622414E1,1.2912469E1,1.6456474E1,5.2291565E2],"tree_param":{"num_deleted":"0","num_feature":"108","num_nodes":"63","size_leaf_vector":"1"}},{"base_weights":[-0E0,-4.6141142E-1,2.9081747E-1,1.707053E-2,-5.922471E-1,-9.3350135E-2,5.145619E-1,-1.3012633E-1,1.7622992E-1,-0E0,-6.125823E-1,9.0403646E-2,-2.5602493E-1,-0E0,5.480775E-1,-0E0,-1.2027496E-3,-0E0,1.995315E-1,-6.2998194E-1,-0E0,2.0846575E-1,-4.316943E-2,-3.228607E-1,-0E0,-0E0,5.58643E-1,1.554744E-3,-0E0,-6.4120555E-1,-0E0,2.2590774E-1,-0E0,1.1440596E-4,-1.03640534E-1,-3.495108E-1,-0E0,5.692991E-1,-0E0,-0E0,-4.635337E-3,1.7357984E-3,-0E0,-1.0198808E-3,-0E0,-2.6248782E-3,-0E0,4.1124104E-3,-0E0],"categories":[],"categories_nodes":[],"categories_segments":[],"categories_sizes":[],"default_left":[0,0,0,0,0,0,0,0,0,0,0,0,0,0,0,0,0,0,0,0,0,0,0,0,0,0,0,0,0,0,0,0,0,0,0,0,0,0,0,0,0,0,0,0,0,0,0,0,0],"id":19,"left_children":[1,3,5,7,9,11,13,15,17,-1,19,21,23,-1,25,-1,-1,-1,27,29,-1,31,33,35,-1,-1,37,-1,-1,39,-1,41,-1,-1,43,45,-1,47,-1,-1,-1,-1,-1,-1,-1,-1,-1,-1,-1],"loss_changes":[3.1488464E2,6.2934326E1,1.3127866E2,9.500111E0,1.039624E1,2.1809196E1,1.4150543E1,2.0169034E0,1.4350114E0,0E0,9.554871E0,7.638544E0,6.8950863E0,0E0,7.7391357E0,0E0,0E0,0E0,1.248311E0,5.838623E0,0E0,1.332797E0,1.6687511E0,3.2092075E0,0E0,0E0,6.7221375E0,0E0,0E0,5.123993E0,0E0,1.378973E0,0E0,0E0,1.5518563E0,3.5606308E0,0E0,6.352783E0,0E0,0E0,0E0,0E0,0E0,0E0,0E0,0E0,0E0,0E0,0E0],"parents":[2147483647,0,0,1,1,2,2,3,3,4,4,5,5,6,6,7,7,8,8,10,10,11,11,12,12,14,14,18,18,19,19,21,21,22,22,23,23,26,26,29,29,31,31,34,34,35,35,37,37],"right_children":[2,4,6,8,10,12,14,16,18,-1,20,22,24,-1,26,-1,-1,-1,28,30,-1,32,34,36,-1,-1,38,-1,-1,40,-1,42,-1,-1,44,46,-1,48,-1,-1,-1,-1,-1,-1,-1,-1,-1,-1,-1],"split_conditions":[4.5945945E-1,3.7142858E-1,1.1E1,-4.7E0,5E0,9E0,5E0,3.49E1,1.7E1,-0E0,2.97E1,5.3E0,1.11E1,-0E0,1.85E1,-0E0,-1.2027496E-3,-0E0,2.9E1,2.6E1,-0E0,2.9E1,4.81E1,2.6E1,-0E0,-0E0,4.88E-1,1.554744E-3,-0E0,1.45E1,-0E0,8.12E-1,-0E0,1.1440596E-4,4.19E1,2.5E1,-0E0,8.2E-1,-0E0,-0E0,-4.635337E-3,1.7357984E-3,-0E0,-1.0198808E-3,-0E0,-2.6248782E-3,-0E0,4.1124104E-3,-0E0],"split_indices":[106,107,103,25,47,51,1,57,28,0,64,77,66,0,17,0,0,0,95,103,0,97,56,95,0,0,59,0,0,63,0,65,0,0,5,93,0,65,0,0,0,0,0,0,0,0,0,0,0],"split_type":[0,0,0,0,0,0,0,0,0,0,0,0,0,0,0,0,0,0,0,0,0,0,0,0,0,0,0,0,0,0,0,0,0,0,0,0,0,0,0,0,0,0,0,0,0,0,0,0,0],"sum_hessian":[2.1271865E3,8.059041E2,1.3212826E3,1.7925043E2,6.266537E2,4.9542233E2,8.2586017E2,7.6118225E1,1.031322E2,2.0136385E1,6.065173E2,2.3084091E2,2.6458142E2,6.3387974E1,7.624722E2,7.570234E0,6.854799E1,9.969888E0,9.3162315E1,5.917725E2,1.4744804E1,1.2390493E2,1.06935974E2,1.9314555E2,7.143588E1,7.7446203E0,7.547276E2,8.197584E1,1.1186474E1,5.817564E2,1.001607E1,1.15876144E2,8.028787E0,2.3910778E1,8.30252E1,1.7552266E2,1.7622898E1,7.435443E2,1.1183296E1,2.4323988E1,5.5743243E2,1.02730255E2,1.3145889E1,6.448045E1,1.8544743E1,1.6672102E2,8.801632E0,7.187306E2,2.4813738E1],"tree_param":{"num_deleted":"0","num_feature":"108","num_nodes":"49","size_leaf_vector":"1"}},{"base_weights":[1.115701E-2,-4.4178057E-1,2.7213386E-1,-0E0,-6.0525125E-1,4.5530877E-1,-1.2344035E-1,-1.3082758E-1,1.000889E-1,-0E0,-6.231167E-1,1.8917568E-1,5.791912E-1,-2.6904702E-1,9.750198E-2,-1.8253222E-1,-0E0,-3.4224447E-2,1.8871735E-1,-0E0,-6.402257E-1,2.7394554E-1,-0E0,-0E0,6.079979E-1,-3.1106636E-1,-0E0,1.7150165E-1,-2.5376135E-5,-0E0,-2.314097E-1,-5.102579E-4,-0E0,1.5454013E-3,-0E0,-6.511009E-1,-0E0,3.0187526E-1,-0E0,-6.297553E-2,3.1075547E-2,6.221099E-1,-0E0,-3.321921E-1,-0E0,2.2085905E-1,-0E0,-1.8712546E-3,-0E0,-4.6608397E-3,-0E0,2.3156197E-3,-0E0,-0E0,-7.109617E-4,-0E0,5.7863694E-4,4.44962E-3,-0E0,-2.472238E-3,-0E0,1.7086827E-3,-0E0],"categories":[],"categories_nodes":[],"categories_segments":[],"categories_sizes":[],"default_left":[0,0,0,0,0,0,0,0,0,0,0,0,0,0,0,0,0,0,0,0,0,0,0,0,0,0,0,0,0,0,0,0,0,0,0,0,0,0,0,0,0,0,0,0,0,0,0,0,0,0,0,0,0,0,0,0,0,0,0,0,0,0,0],"id":20,"left_children":[1,3,5,7,9,11,13,15,17,-1,19,21,23,25,27,29,-1,31,33,-1,35,37,39,-1,41,43,-1,45,-1,-1,47,-1,-1,-1,-1,49,-1,51,-1,53,55,57,-1,59,-1,61,-1,-1,-1,-1,-1,-1,-1,-1,-1,-1,-1,-1,-1,-1,-1,-1,-1],"loss_changes":[2.724291E2,5.801581E1,1.1584869E2,5.9414234E0,7.9165955E0,1.6542068E1,2.148423E1,2.8995714E0,4.7617207E0,0E0,5.795105E0,9.459915E0,8.47348E0,4.5368633E0,3.4672687E0,2.9821434E0,0E0,5.4002285E-1,1.7899709E0,0E0,5.029297E0,4.276411E0,8.3858275E-1,0E0,5.0536194E0,3.0686169E0,0E0,2.6070256E0,0E0,0E0,1.771368E0,0E0,0E0,0E0,0E0,3.8323975E0,0E0,4.904644E0,0E0,7.8575844E-1,9.039611E-1,4.2158203E0,0E0,3.059101E0,0E0,1.1983118E0,0E0,0E0,0E0,0E0,0E0,0E0,0E0,0E0,0E0,0E0,0E0,0E0,0E0,0E0,0E0,0E0,0E0],"parents":[2147483647,0,0,1,1,2,2,3,3,4,4,5,5,6,6,7,7,8,8,10,10,11,11,12,12,13,13,14,14,15,15,17,17,18,18,20,20,21,21,22,22,24,24,25,25,27,27,30,30,35,35,37,37,39,39,40,40,41,41,43,43,45,45],"right_children":[2,4,6,8,10,12,14,16,18,-1,20,22,24,26,28,30,-1,32,34,-1,36,38,40,-1,42,44,-1,46,-1,-1,48,-1,-1,-1,-1,50,-1,52,-1,54,56,58,-1,60,-1,62,-1,-1,-1,-1,-1,-1,-1,-1,-1,-1,-1,-1,-1,-1,-1,-1,-1],"split_conditions":[4.44E-1,-1.9E0,3E0,3.2876712E-1,1.8E1,1.6E1,6.3235295E-1,2.7E1,2.2E1,-0E0,1.25E1,1.6E1,8.6E0,1.16E1,7E-1,1.2E1,-0E0,2.3E1,3.97E1,-0E0,4.81E-1,1.7E1,1.72E1,-0E0,8.18E-1,1E1,-0E0,1.24E1,-2.5376135E-5,-0E0,1.79E1,-5.102579E-4,-0E0,1.5454013E-3,-0E0,3E1,-0E0,2.08E1,-0E0,7.65E-1,4.5E-1,1.02E1,-0E0,2.3E1,-0E0,2.6E1,-0E0,-1.8712546E-3,-0E0,-4.6608397E-3,-0E0,2.3156197E-3,-0E0,-0E0,-7.109617E-4,-0E0,5.7863694E-4,4.44962E-3,-0E0,-2.472238E-3,-0E0,1.7086827E-3,-0E0],"split_indices":[3,77,77,106,29,80,106,87,80,0,18,50,66,66,55,83,0,96,57,0,7,28,63,0,65,79,0,60,0,0,63,0,0,0,0,101,0,63,0,13,7,19,0,88,0,92,0,0,0,0,0,0,0,0,0,0,0,0,0,0,0,0,0],"split_type":[0,0,0,0,0,0,0,0,0,0,0,0,0,0,0,0,0,0,0,0,0,0,0,0,0,0,0,0,0,0,0,0,0,0,0,0,0,0,0,0,0,0,0,0,0,0,0,0,0,0,0,0,0,0,0,0,0,0,0,0,0,0,0],"sum_hessian":[2.102595E3,7.3013837E2,1.3724567E3,2.3233952E2,4.9779886E2,9.414465E2,4.310101E2,1.0357828E2,1.2876125E2,1.3742791E1,4.8405606E2,4.054512E2,5.359953E2,2.68491E2,1.6251912E2,8.864475E1,1.4933523E1,3.9891544E1,8.8869705E1,1.6982082E1,4.6707397E2,2.6390286E2,1.4154836E2,3.6480114E1,4.9951517E2,2.2101395E2,4.747705E1,9.853396E1,6.3985172E1,1.7887356E1,7.07574E1,2.9124857E1,1.0766686E1,7.4972496E1,1.3897206E1,4.5995044E2,7.1235404E0,2.4553275E2,1.8370127E1,5.955618E1,8.199217E1,4.8540918E2,1.41059675E1,2.0853981E2,1.2474122E1,7.073986E1,2.7794096E1,5.2872738E1,1.7884659E1,4.495977E2,1.0352755E1,2.3509077E2,1.0441975E1,2.4323702E1,3.523248E1,2.754318E1,5.444899E1,4.769543E2,8.454873E0,1.9996774E2,8.572076E0,6.0516262E1,1.0223598E1],"tree_param":{"num_deleted":"0","num_feature":"108","num_nodes":"63","size_leaf_vector":"1"}},{"base_weights":[8.052749E-3,-4.1086957E-1,2.7999884E-1,5.082498E-2,-5.3434354E-1,-8.537054E-2,4.961384E-1,-4.0617697E-2,1.4755927E-1,-0E0,-5.745912E-1,9.428247E-2,-2.4283005E-1,5.146967E-1,-0E0,-9.4482616E-2,2.0913556E-6,1.2547879E-3,-0E0,-0E0,-5.982129E-1,-4.9433723E-2,1.9938298E-1,-2.7796274E-1,5.7719197E-5,5.3828675E-1,-0E0,-0E0,-1.2990205E-1,-6.128242E-1,-0E0,6.398786E-5,-1.13687225E-1,-0E0,2.3631048E-1,-3.1841087E-1,-0E0,6.054416E-1,7.900954E-2,-0E0,-1.0763676E-3,-4.397944E-3,-0E0,-1.0899564E-3,-0E0,1.8379511E-3,-0E0,-2.4821335E-3,-0E0,-0E0,4.3178033E-3,-2.433496E-4,1.3840429E-3],"categories":[],"categories_nodes":[],"categories_segments":[],"categories_sizes":[],"default_left":[0,0,0,0,0,0,0,0,0,0,0,0,0,0,0,0,0,0,0,0,0,0,0,0,0,0,0,0,0,0,0,0,0,0,0,0,0,0,0,0,0,0,0,0,0,0,0,0,0,0,0,0,0],"id":21,"left_children":[1,3,5,7,9,11,13,15,17,-1,19,21,23,25,-1,27,-1,-1,-1,-1,29,31,33,35,-1,37,-1,-1,39,41,-1,-1,43,-1,45,47,-1,49,51,-1,-1,-1,-1,-1,-1,-1,-1,-1,-1,-1,-1,-1,-1],"loss_changes":[2.6196414E2,5.8065765E1,1.19266014E2,3.9296384E0,1.46058655E1,2.0645357E1,1.2097519E1,1.1783643E0,1.1928782E0,0E0,9.421402E0,7.3077416E0,5.7788887E0,1.2261276E1,0E0,1.0973728E0,0E0,0E0,0E0,0E0,6.4761047E0,1.6990153E0,3.2152433E0,6.1606426E0,0E0,1.5841644E1,0E0,0E0,5.815902E-1,6.0598755E0,0E0,0E0,1.5193827E0,0E0,1.9379292E0,3.6747437E0,0E0,4.3557434E0,5.377343E0,0E0,0E0,0E0,0E0,0E0,0E0,0E0,0E0,0E0,0E0,0E0,0E0,0E0,0E0],"parents":[2147483647,0,0,1,1,2,2,3,3,4,4,5,5,6,6,7,7,8,8,10,10,11,11,12,12,13,13,15,15,20,20,21,21,22,22,23,23,25,25,28,28,29,29,32,32,34,34,35,35,37,37,38,38],"right_children":[2,4,6,8,10,12,14,16,18,-1,20,22,24,26,-1,28,-1,-1,-1,-1,30,32,34,36,-1,38,-1,-1,40,42,-1,-1,44,-1,46,48,-1,50,52,-1,-1,-1,-1,-1,-1,-1,-1,-1,-1,-1,-1,-1,-1],"split_conditions":[4.5945945E-1,3.59E-1,1.1E1,-4.7E0,5E0,9E0,2.9E1,2.37E1,1.085E2,-0E0,4.2E0,4E0,2.9E1,8.18E-1,-0E0,3.27E-1,2.0913556E-6,1.2547879E-3,-0E0,-0E0,2.6E1,5E0,4E0,2.6E1,5.7719197E-5,2.48E1,-0E0,-0E0,2.07E1,3E1,-0E0,6.398786E-5,2.4E1,-0E0,2.2E1,2.6E1,-0E0,4.9E0,6E-1,-0E0,-1.0763676E-3,-4.397944E-3,-0E0,-1.0899564E-3,-0E0,1.8379511E-3,-0E0,-2.4821335E-3,-0E0,-0E0,4.3178033E-3,-2.433496E-4,1.3840429E-3],"split_indices":[106,55,103,25,53,51,47,17,24,0,21,80,91,65,0,62,0,0,0,0,103,41,44,95,0,69,0,0,17,88,0,0,46,0,47,87,0,60,3,0,0,0,0,0,0,0,0,0,0,0,0,0,0],"split_type":[0,0,0,0,0,0,0,0,0,0,0,0,0,0,0,0,0,0,0,0,0,0,0,0,0,0,0,0,0,0,0,0,0,0,0,0,0,0,0,0,0,0,0,0,0,0,0,0,0,0,0,0,0],"sum_hessian":[2.0957542E3,7.916168E2,1.3041373E3,1.6603993E2,6.255769E2,4.9433298E2,8.098043E2,7.2936844E1,9.310309E1,5.4671448E1,5.7090546E2,2.2618492E2,2.6814807E2,7.906126E2,1.9191738E1,5.8992985E1,1.3943862E1,6.781838E1,2.5284706E1,2.6082546E1,5.448229E2,8.595768E1,1.4022725E2,2.5421361E2,1.39344635E1,7.560561E2,3.4556515E1,1.2720976E1,4.6272007E1,5.31398E2,1.3424896E1,2.512506E1,6.083262E1,1.3391582E1,1.2683566E2,2.29252E2,2.4961603E1,6.144041E2,1.4165196E2,1.7626236E1,2.8645771E1,5.223071E2,9.090857E0,4.715431E1,1.3678312E1,1.1297056E2,1.3865106E1,1.9668468E2,3.2567326E1,7.497811E0,6.069063E2,7.435125E1,6.730071E1],"tree_param":{"num_deleted":"0","num_feature":"108","num_nodes":"53","size_leaf_vector":"1"}},{"base_weights":[1.4479836E-2,2.3891723E-1,-4.6026585E-1,-5.4379728E-2,5.4806554E-1,-2.198795E-2,-5.8420485E-1,2.0914379E-1,-2.6508102E-1,5.678102E-1,-0E0,-1.3938545E-1,8.267656E-2,-6.0036725E-1,-0E0,2.785498E-1,-0E0,-3.0382967E-1,-0E0,5.8469814E-1,-0E0,-1.8648118E-1,-0E0,9.5856714E-4,-0E0,-0E0,-6.218041E-1,3.3588845E-1,-0E0,-3.3346048E-1,-0E0,-0E0,6.042955E-1,-0E0,-2.1298964E-1,-0E0,-6.3772416E-1,-0E0,2.52543E-3,-2.4494876E-3,-0E0,-0E0,4.3274197E-3,-1.5844499E-3,-0E0,-4.555419E-3,-0E0],"categories":[],"categories_nodes":[],"categories_segments":[],"categories_sizes":[],"default_left":[0,0,0,0,0,0,0,0,0,0,0,0,0,0,0,0,0,0,0,0,0,0,0,0,0,0,0,0,0,0,0,0,0,0,0,0,0,0,0,0,0,0,0,0,0,0,0],"id":22,"left_children":[1,3,5,7,9,11,13,15,17,19,-1,21,23,25,-1,27,-1,29,-1,31,-1,33,-1,-1,-1,-1,35,37,-1,39,-1,-1,41,-1,43,-1,45,-1,-1,-1,-1,-1,-1,-1,-1,-1,-1],"loss_changes":[2.4596106E2,1.5110147E2,3.3578537E1,5.6142895E1,1.0344284E1,5.221499E0,7.262146E0,8.1762085E0,7.5649643E0,9.323746E0,0E0,2.297173E0,1.4405301E0,4.086426E0,0E0,3.6322384E0,0E0,5.287342E0,0E0,6.300476E0,0E0,1.4983244E0,0E0,0E0,0E0,0E0,3.4910126E0,2.7144222E0,0E0,3.5471954E0,0E0,0E0,5.1582336E0,0E0,5.458312E-1,0E0,2.8205566E0,0E0,0E0,0E0,0E0,0E0,0E0,0E0,0E0,0E0,0E0],"parents":[2147483647,0,0,1,1,2,2,3,3,4,4,5,5,6,6,7,7,8,8,9,9,11,11,12,12,13,13,15,15,17,17,19,19,21,21,26,26,27,27,29,29,32,32,34,34,36,36],"right_children":[2,4,6,8,10,12,14,16,18,20,-1,22,24,26,-1,28,-1,30,-1,32,-1,34,-1,-1,-1,-1,36,38,-1,40,-1,-1,42,-1,44,-1,46,-1,-1,-1,-1,-1,-1,-1,-1,-1,-1],"split_conditions":[2E1,1.4E1,4.12E-1,9E0,4.82E-1,-4.1E0,1.161E2,6.94E-1,2.7E1,2.9E1,-0E0,2.8E1,1.8E1,3E0,-0E0,3.29E1,-0E0,1.26E1,-0E0,1.4E1,-0E0,8E0,-0E0,9.5856714E-4,-0E0,-0E0,9.55E1,5.84E-1,-0E0,9.21E1,-0E0,-0E0,6.74E-1,-0E0,2.7E1,-0E0,3E1,-0E0,2.52543E-3,-2.4494876E-3,-0E0,-0E0,4.3274197E-3,-1.5844499E-3,-0E0,-4.555419E-3,-0E0],"split_indices":[28,80,55,51,59,25,24,55,41,36,0,80,97,84,0,61,0,66,0,79,0,46,0,0,0,0,76,3,0,58,0,0,65,0,40,0,93,0,0,0,0,0,0,0,0,0,0],"split_type":[0,0,0,0,0,0,0,0,0,0,0,0,0,0,0,0,0,0,0,0,0,0,0,0,0,0,0,0,0,0,0,0,0,0,0,0,0,0,0,0,0,0,0,0,0,0,0],"sum_hessian":[2.1100312E3,1.4803536E3,6.2967755E2,7.9075684E2,6.8959686E2,1.8109337E2,4.4858417E2,3.3420523E2,4.5655157E2,6.6730585E2,2.2291025E1,1.0609964E2,7.499374E1,4.392695E2,9.314685E0,2.4750093E2,8.670431E1,4.0413977E2,5.2411793E1,6.505473E2,1.675852E1,7.8513016E1,2.7586624E1,3.8235943E1,3.6757793E1,2.6385828E1,4.1288367E2,1.6927748E2,7.822346E1,3.6504117E2,3.9098606E1,3.1026749E1,6.1952057E2,1.0063708E1,6.844931E1,1.700397E1,3.958797E2,1.3100407E1,1.5617708E2,3.555115E2,9.529675E0,1.1358879E1,6.081617E2,6.0841465E1,7.607846E0,3.877424E2,8.137277E0],"tree_param":{"num_deleted":"0","num_feature":"108","num_nodes":"47","size_leaf_vector":"1"}},{"base_weights":[-1.4379421E-2,-3.332638E-1,3.3049378E-1,1.15546264E-1,-5.390464E-1,-7.7762514E-2,4.589726E-1,-1.7732123E-1,2.938297E-1,-0E0,-5.6771505E-1,3.7570782E-2,-1.5744837E-1,-0E0,5.120848E-1,-2.1089606E-1,-0E0,3.229399E-1,-0E0,-5.841664E-1,-0E0,-0E0,8.10202E-2,-0E0,-2.201051E-1,9.076503E-2,-5.293257E-2,5.277912E-1,-0E0,-2.3689102E-1,-0E0,-0E0,3.4768155E-1,-5.9293616E-1,-0E0,-0E0,1.1494486E-1,-2.6439056E-1,-0E0,-0E0,1.20051324E-1,-0E0,-9.140517E-2,-0E0,5.448183E-1,-0E0,-1.794337E-3,2.5639008E-3,-0E0,-3.5295822E-4,-4.4021406E-3,9.4494905E-4,-0E0,-2.011489E-3,-0E0,-0E0,9.903017E-4,-8.328333E-4,-0E0,3.9632716E-3,-0E0],"categories":[],"categories_nodes":[],"categories_segments":[],"categories_sizes":[],"default_left":[0,0,0,0,0,0,0,0,0,0,0,0,0,0,0,0,0,0,0,0,0,0,0,0,0,0,0,0,0,0,0,0,0,0,0,0,0,0,0,0,0,0,0,0,0,0,0,0,0,0,0,0,0,0,0,0,0,0,0,0,0],"id":23,"left_children":[1,3,5,7,9,11,13,15,17,-1,19,21,23,25,27,29,-1,31,-1,33,-1,-1,35,-1,37,39,41,43,-1,45,-1,-1,47,49,-1,-1,51,53,-1,-1,55,-1,57,-1,59,-1,-1,-1,-1,-1,-1,-1,-1,-1,-1,-1,-1,-1,-1,-1,-1],"loss_changes":[2.5795197E2,1.2359807E2,6.550936E1,3.0562048E1,1.2172684E1,4.7694254E0,1.805655E1,1.7767329E0,3.0544567E0,0E0,9.128967E0,8.4871536E-1,4.0669684E0,1.7711219E0,8.005096E0,1.7905817E0,0E0,3.1783447E0,0E0,5.4789124E0,0E0,0E0,9.5658946E-1,0E0,3.5383224E0,7.3643696E-1,7.845038E-1,6.950165E0,0E0,1.0762882E0,0E0,0E0,2.2426682E0,5.2232666E0,0E0,0E0,6.075759E-1,1.7382975E0,0E0,0E0,6.379452E-1,0E0,6.9289815E-1,0E0,5.7716827E0,0E0,0E0,0E0,0E0,0E0,0E0,0E0,0E0,0E0,0E0,0E0,0E0,0E0,0E0,0E0,0E0],"parents":[2147483647,0,0,1,1,2,2,3,3,4,4,5,5,6,6,7,7,8,8,10,10,11,11,12,12,13,13,14,14,15,15,17,17,19,19,22,22,24,24,25,25,26,26,27,27,29,29,32,32,33,33,36,36,37,37,40,40,42,42,44,44],"right_children":[2,4,6,8,10,12,14,16,18,-1,20,22,24,26,28,30,-1,32,-1,34,-1,-1,36,-1,38,40,42,44,-1,46,-1,-1,48,50,-1,-1,52,54,-1,-1,56,-1,58,-1,60,-1,-1,-1,-1,-1,-1,-1,-1,-1,-1,-1,-1,-1,-1,-1,-1],"split_conditions":[6E-1,-1.9E0,7E0,-4.9E0,5E0,1E1,4.2E0,2.8E1,-2.5E0,-0E0,1.161E2,9E0,9E0,8E0,2.9E1,2.4E1,-0E0,3.25E-1,-0E0,3E1,-0E0,-0E0,9.2E0,-0E0,5.1E0,3.15E1,8E0,5E0,-0E0,1.8E1,-0E0,-0E0,1.68E1,4.42E-1,-0E0,-0E0,3.54E1,4E0,-0E0,-0E0,7E0,-0E0,2.5E1,-0E0,1.7E1,-0E0,-1.794337E-3,2.5639008E-3,-0E0,-3.5295822E-4,-4.4021406E-3,9.4494905E-4,-0E0,-2.011489E-3,-0E0,-0E0,9.903017E-4,-8.328333E-4,-0E0,3.9632716E-3,-0E0],"split_indices":[25,77,103,25,47,96,73,81,77,0,24,66,101,51,47,26,0,3,0,88,0,0,14,0,73,67,100,0,0,27,0,0,18,55,0,0,67,104,0,0,89,0,101,0,29,0,0,0,0,0,0,0,0,0,0,0,0,0,0,0,0],"split_type":[0,0,0,0,0,0,0,0,0,0,0,0,0,0,0,0,0,0,0,0,0,0,0,0,0,0,0,0,0,0,0,0,0,0,0,0,0,0,0,0,0,0,0,0,0,0,0,0,0,0,0,0,0,0,0,0,0,0,0,0,0],"sum_hessian":[2.133002E3,1.1226044E3,1.0103975E3,3.548704E2,7.6773395E2,2.3643883E2,7.7395874E2,1.16903725E2,2.3796667E2,4.825711E1,7.1947687E2,7.701114E1,1.5942769E2,1.0422904E2,6.697297E2,9.1500114E1,2.5403606E1,2.0802246E2,2.9944208E1,7.003836E2,1.909323E1,1.4436784E1,6.2574356E1,4.5705437E1,1.1372225E2,5.661893E1,4.761011E1,6.529786E2,1.6751091E1,8.242196E1,9.078158E0,1.6822523E1,1.9119995E2,6.922877E2,8.095919E0,1.24670725E1,5.0107285E1,9.686934E1,1.6852907E1,1.860572E1,3.801321E1,8.260635E0,3.9349476E1,2.3289854E1,6.296887E2,9.269775E0,7.315218E1,1.8149408E2,9.705859E0,6.8973785E1,6.233139E2,4.2038338E1,8.068947E0,8.880219E1,8.067151E0,7.0354686E0,3.0977741E1,3.0116993E1,9.232485E0,6.0056085E2,2.91279E1],"tree_param":{"num_deleted":"0","num_feature":"108","num_nodes":"61","size_leaf_vector":"1"}},{"base_weights":[-1.3129391E-2,3.2064483E-1,-3.406686E-1,4.3447435E-1,-1.1753979E-1,7.428086E-2,-5.2836907E-1,-0E0,4.7168964E-1,-0E0,-1.6489556E-1,-1.462383E-1,2.3055597E-1,-5.662056E-1,-0E0,-2.587486E-4,5.2717652E-2,4.9085826E-1,-0E0,-2.136663E-1,-0E0,-2.0088305E-1,-0E0,-0E0,2.5963533E-1,-5.7973576E-1,-0E0,-0E0,6.2085886E-4,5.0459903E-1,-0E0,-0E0,-2.3297668E-1,-0E0,-2.4547973E-1,-0E0,2.8728265E-1,-5.927413E-1,-0E0,3.6589708E-3,-0E0,-0E0,-1.7978192E-3,-1.9015179E-3,-0E0,2.146309E-3,-0E0,-4.2400006E-3,-0E0],"categories":[],"categories_nodes":[],"categories_segments":[],"categories_sizes":[],"default_left":[0,0,0,0,0,0,0,0,0,0,0,0,0,0,0,0,0,0,0,0,0,0,0,0,0,0,0,0,0,0,0,0,0,0,0,0,0,0,0,0,0,0,0,0,0,0,0,0,0],"id":24,"left_children":[1,3,5,7,9,11,13,15,17,-1,19,21,23,25,-1,-1,27,29,-1,31,-1,33,-1,-1,35,37,-1,-1,-1,39,-1,-1,41,-1,43,-1,45,47,-1,-1,-1,-1,-1,-1,-1,-1,-1,-1,-1],"loss_changes":[2.5537582E2,6.519731E1,1.0051137E2,1.368335E1,2.6597824E0,1.9766201E1,1.883641E1,6.255461E-1,7.460388E0,0E0,3.5827236E0,3.2762036E0,3.143711E0,7.36557E0,0E0,0E0,6.7620885E-1,7.0190735E0,0E0,1.5772133E0,0E0,3.4305172E0,0E0,0E0,3.3059177E0,6.6413574E0,0E0,0E0,0E0,6.730484E0,0E0,0E0,1.6230097E0,0E0,1.7803555E0,0E0,2.2385674E0,6.13031E0,0E0,0E0,0E0,0E0,0E0,0E0,0E0,0E0,0E0,0E0,0E0],"parents":[2147483647,0,0,1,1,2,2,3,3,4,4,5,5,6,6,7,7,8,8,10,10,11,11,12,12,13,13,16,16,17,17,19,19,21,21,24,24,25,25,29,29,32,32,34,34,36,36,37,37],"right_children":[2,4,6,8,10,12,14,16,18,-1,20,22,24,26,-1,-1,28,30,-1,32,-1,34,-1,-1,36,38,-1,-1,-1,40,-1,-1,42,-1,44,-1,46,48,-1,-1,-1,-1,-1,-1,-1,-1,-1,-1,-1],"split_conditions":[1.5E1,5.1E0,-1.9E0,8.6E0,7.4E0,-4.4E0,4.75E-1,7.4E0,2.9E1,-0E0,2.59E1,2.8E1,1.1E1,2.9E1,-0E0,-2.587486E-4,1E1,2.9E1,-0E0,6.32E-1,-0E0,1.91E1,-0E0,-0E0,3.25E-1,8.25E-1,-0E0,-0E0,6.2085886E-4,9.19E1,-0E0,-0E0,2.06E1,-0E0,1.102E2,-0E0,1.68E1,4.87E1,-0E0,3.6589708E-3,-0E0,-0E0,-1.7978192E-3,-1.9015179E-3,-0E0,2.146309E-3,-0E0,-4.2400006E-3,-0E0],"split_indices":[51,77,77,66,71,25,7,19,46,0,17,80,102,88,0,0,100,47,0,55,0,64,0,0,3,13,0,0,0,6,0,0,61,0,24,0,18,16,0,0,0,0,0,0,0,0,0,0,0],"split_type":[0,0,0,0,0,0,0,0,0,0,0,0,0,0,0,0,0,0,0,0,0,0,0,0,0,0,0,0,0,0,0,0,0,0,0,0,0,0,0,0,0,0,0,0,0,0,0,0,0],"sum_hessian":[2.1223342E3,1.0397322E3,1.0826022E3,8.410628E2,1.9866933E2,3.4339615E2,7.3920605E2,8.2060394E1,7.5900244E2,5.2091503E1,1.4657782E2,1.2324711E2,2.2014903E2,6.887625E2,5.0443485E1,2.8600527E1,5.3459866E1,7.23719E2,3.5283417E1,1.2287149E2,2.3706337E1,9.663264E1,2.6614475E1,2.2350931E1,1.977981E2,6.7400934E2,1.4753182E1,1.5731653E1,3.7728214E1,7.067079E2,1.7011084E1,7.32465E0,1.1554684E2,1.0039768E1,8.6592865E1,1.5620319E1,1.8217778E2,6.590547E2,1.495464E1,6.8420703E2,2.250087E1,1.2480837E1,1.03066E2,7.7293594E1,9.299269E0,1.7369077E2,8.48702E0,6.5121063E2,7.844062E0],"tree_param":{"num_deleted":"0","num_feature":"108","num_nodes":"49","size_leaf_vector":"1"}},{"base_weights":[-9.688042E-3,3.2781076E-1,-3.4413815E-1,-4.9802726E-3,4.7238958E-1,5.4062337E-2,-5.232516E-1,9.6415594E-2,-1.5056908E-1,-0E0,5.135818E-1,-1.8952619E-1,2.2930858E-1,-5.5709004E-1,-0E0,-2.7359065E-2,1.6746855E-1,-2.0806913E-1,-0E0,5.244873E-1,-0E0,-2.3986956E-1,-0E0,2.7123666E-1,-0E0,-5.7113665E-1,-0E0,-6.0732703E-4,-0E0,-0E0,2.2781932E-1,-2.248745E-1,-0E0,-0E0,5.335211E-1,-0E0,-1.8943729E-3,3.0982018E-1,-0E0,-5.838412E-1,-0E0,1.7371168E-3,-0E0,-1.7366713E-3,-0E0,3.7985796E-3,-0E0,2.2646696E-3,-0E0,-0E0,-4.2387587E-3],"categories":[],"categories_nodes":[],"categories_segments":[],"categories_sizes":[],"default_left":[0,0,0,0,0,0,0,0,0,0,0,0,0,0,0,0,0,0,0,0,0,0,0,0,0,0,0,0,0,0,0,0,0,0,0,0,0,0,0,0,0,0,0,0,0,0,0,0,0,0,0],"id":25,"left_children":[1,3,5,7,9,11,13,15,17,-1,19,21,23,25,-1,27,29,31,-1,33,-1,35,-1,37,-1,39,-1,-1,-1,-1,41,43,-1,-1,45,-1,-1,47,-1,49,-1,-1,-1,-1,-1,-1,-1,-1,-1,-1,-1],"loss_changes":[2.5912997E2,5.8554825E1,8.986037E1,8.340374E0,1.5724426E1,2.3839106E1,1.5320862E1,4.151656E0,2.7127552E0,0E0,5.8691406E0,3.4269543E0,3.9897346E0,8.269653E0,0E0,8.581059E-1,3.411685E0,1.0198145E0,0E0,4.9457245E0,0E0,2.3351898E0,0E0,4.5346146E0,0E0,7.80809E0,0E0,0E0,0E0,0E0,1.2535038E0,1.4984322E0,0E0,0E0,2.7966766E0,0E0,0E0,1.2221794E0,0E0,6.1003723E0,0E0,0E0,0E0,0E0,0E0,0E0,0E0,0E0,0E0,0E0,0E0],"parents":[2147483647,0,0,1,1,2,2,3,3,4,4,5,5,6,6,7,7,8,8,10,10,11,11,12,12,13,13,15,15,16,16,17,17,19,19,21,21,23,23,25,25,30,30,31,31,34,34,37,37,39,39],"right_children":[2,4,6,8,10,12,14,16,18,-1,20,22,24,26,-1,28,30,32,-1,34,-1,36,-1,38,-1,40,-1,-1,-1,-1,42,44,-1,-1,46,-1,-1,48,-1,50,-1,-1,-1,-1,-1,-1,-1,-1,-1,-1,-1],"split_conditions":[1.5E1,9E0,-1.9E0,1.15E1,4.1E0,-4.7E0,4.76E-1,7E0,1.9E1,-0E0,1.54E1,2.8E1,2.7E1,4.15E1,-0E0,1.3E1,4E0,7.56E-1,-0E0,3.86E1,-0E0,1.89E1,-0E0,-2.4E0,-0E0,6.7E0,-0E0,-6.0732703E-4,-0E0,-0E0,9.6E0,8.17E-1,-0E0,-0E0,4.9E1,-0E0,-1.8943729E-3,4.68E-1,-0E0,1.25E1,-0E0,1.7371168E-3,-0E0,-1.7366713E-3,-0E0,3.7985796E-3,-0E0,2.2646696E-3,-0E0,-0E0,-4.2387587E-3],"split_indices":[51,103,77,60,73,25,7,37,84,0,60,80,86,9,0,97,81,3,0,68,0,64,0,77,0,73,0,0,0,0,71,13,0,0,68,0,0,59,0,18,0,0,0,0,0,0,0,0,0,0,0],"split_type":[0,0,0,0,0,0,0,0,0,0,0,0,0,0,0,0,0,0,0,0,0,0,0,0,0,0,0,0,0,0,0,0,0,0,0,0,0,0,0,0,0,0,0,0,0,0,0,0,0,0,0],"sum_hessian":[2.0823696E3,1.0251714E3,1.0571982E3,3.2414734E2,7.0102405E2,3.3661954E2,7.205787E2,1.7862996E2,1.4551738E2,6.4663704E1,6.363603E2,1.17435356E2,2.191842E2,6.7256866E2,4.8009975E1,4.6387173E1,1.3224278E2,8.832812E1,5.7189266E1,6.2714154E2,9.218778E0,9.3014565E1,2.4420788E1,1.806243E2,3.8559902E1,6.600904E2,1.2478314E1,2.4422564E1,2.1964607E1,4.3814354E1,8.842844E1,8.0521904E1,7.806215E0,7.2454243E0,6.198961E2,8.8206835E0,8.419388E1,1.6089937E2,1.9724924E1,6.500147E2,1.0075675E1,8.013804E1,8.290396E0,7.34334E1,7.0884976E0,6.126323E2,7.2638173E0,1.5313077E2,7.7685976E0,2.9015768E1,6.209989E2],"tree_param":{"num_deleted":"0","num_feature":"108","num_nodes":"51","size_leaf_vector":"1"}},{"base_weights":[-0E0,-4.0370113E-1,2.5788754E-1,-5.711135E-1,1.7893637E-2,-1.2939379E-1,4.345509E-1,-0E0,-5.9428334E-1,1.7079467E-1,-1.6812211E-1,-2.8279734E-1,5.051306E-2,7.3669776E-3,4.7170472E-1,-6.0966593E-1,-0E0,-0E0,2.0741554E-1,-0E0,-2.0050836E-1,-3.1209794E-1,-0E0,1.3526443E-1,-3.0979272E-2,-2.1934893E-2,8.67127E-2,4.9065334E-1,-0E0,-6.232603E-1,-0E0,-0E0,2.4223825E-1,-0E0,-2.2963019E-1,-3.2831272E-1,-0E0,1.6707504E-1,-0E0,6.560157E-5,-9.4845705E-2,-5.049252E-4,-0E0,-0E0,8.283531E-4,5.0893795E-1,-0E0,-0E0,-4.469712E-3,-0E0,1.8389795E-3,-0E0,-1.7099907E-3,-2.646526E-3,-0E0,1.3589255E-3,-0E0,-1.0043695E-3,-0E0,3.6695544E-3,-0E0],"categories":[],"categories_nodes":[],"categories_segments":[],"categories_sizes":[],"default_left":[0,0,0,0,0,0,0,0,0,0,0,0,0,0,0,0,0,0,0,0,0,0,0,0,0,0,0,0,0,0,0,0,0,0,0,0,0,0,0,0,0,0,0,0,0,0,0,0,0,0,0,0,0,0,0,0,0,0,0,0,0],"id":26,"left_children":[1,3,5,7,9,11,13,-1,15,17,19,21,23,25,27,29,-1,-1,31,-1,33,35,-1,37,39,41,43,45,-1,47,-1,-1,49,-1,51,53,-1,55,-1,-1,57,-1,-1,-1,-1,59,-1,-1,-1,-1,-1,-1,-1,-1,-1,-1,-1,-1,-1,-1,-1],"loss_changes":[2.4108257E2,6.912033E1,1.0578726E2,1.0635422E1,1.2861379E1,1.758582E1,1.1778656E1,0E0,7.8362274E0,3.139978E0,1.648231E0,3.78899E0,3.38817E0,1.2198403E0,8.310394E0,6.7319183E0,0E0,0E0,3.1053448E0,0E0,1.7111001E0,2.3447895E0,0E0,1.782866E0,1.2916567E0,6.074335E-1,7.590989E-1,8.301956E0,0E0,4.24617E0,0E0,0E0,1.7145643E0,0E0,5.501318E-1,2.5882225E0,0E0,1.553474E0,0E0,0E0,1.5603797E0,0E0,0E0,0E0,0E0,7.032715E0,0E0,0E0,0E0,0E0,0E0,0E0,0E0,0E0,0E0,0E0,0E0,0E0,0E0,0E0,0E0],"parents":[2147483647,0,0,1,1,2,2,3,3,4,4,5,5,6,6,8,8,9,9,10,10,11,11,12,12,13,13,14,14,15,15,18,18,20,20,21,21,23,23,24,24,25,25,26,26,27,27,29,29,32,32,34,34,35,35,37,37,40,40,45,45],"right_children":[2,4,6,8,10,12,14,-1,16,18,20,22,24,26,28,30,-1,-1,32,-1,34,36,-1,38,40,42,44,46,-1,48,-1,-1,50,-1,52,54,-1,56,-1,-1,58,-1,-1,-1,-1,60,-1,-1,-1,-1,-1,-1,-1,-1,-1,-1,-1,-1,-1,-1,-1],"split_conditions":[4.59E-1,2.2E1,9E0,5E0,2.6E1,3.1E0,4E0,-0E0,4.92E1,5E0,-9.7E0,2.7E1,6.944444E-1,2E1,8.18E-1,2.54E1,-0E0,-0E0,-6.9E0,-0E0,8.22E1,2.73E1,-0E0,2.2E1,9E0,1.5E0,1.1E1,2.8E1,-0E0,2.96E-1,-0E0,-0E0,2E0,-0E0,1.5E1,2.4E1,-0E0,3.1E1,-0E0,6.560157E-5,1.5E1,-5.049252E-4,-0E0,-0E0,8.283531E-4,2.9E1,-0E0,-0E0,-4.469712E-3,-0E0,1.8389795E-3,-0E0,-1.7099907E-3,-2.646526E-3,-0E0,1.3589255E-3,-0E0,-1.0043695E-3,-0E0,3.6695544E-3,-0E0],"split_indices":[3,103,103,47,28,25,30,0,4,100,25,41,107,103,65,75,0,0,25,0,6,17,0,47,100,25,54,36,0,10,0,0,26,0,50,45,0,2,0,0,50,0,0,0,0,47,0,0,0,0,0,0,0,0,0,0,0,0,0,0,0],"split_type":[0,0,0,0,0,0,0,0,0,0,0,0,0,0,0,0,0,0,0,0,0,0,0,0,0,0,0,0,0,0,0,0,0,0,0,0,0,0,0,0,0,0,0,0,0,0,0,0,0,0,0,0,0,0,0,0,0,0,0,0,0],"sum_hessian":[2.1088035E3,7.9288184E2,1.3159218E3,5.54666E2,2.382158E2,4.0642252E2,9.0949927E2,2.0404922E1,5.342611E2,1.5997154E2,7.824426E1,2.1149216E2,1.9493036E2,1.0079949E2,8.0869977E2,5.234376E2,1.0823466E1,1.2670941E1,1.473006E2,1.37423E1,6.450196E1,1.9355908E2,1.7933067E1,1.1110668E2,8.382367E1,5.337068E1,4.7428814E1,7.7392706E2,3.477266E1,5.1360486E2,9.832765E0,1.4695689E1,1.326049E2,8.075918E0,5.642604E1,1.8644487E2,7.1142044E0,1.0014183E2,1.0964854E1,2.7358688E1,5.646498E1,2.6779814E1,2.6590868E1,1.5445672E1,3.198314E1,7.438818E2,3.0045334E1,1.255948E1,5.0104538E2,8.518721E0,1.2408619E2,8.089622E0,4.833642E1,1.3511905E2,5.1325832E1,8.991757E1,1.0224253E1,4.2275772E1,1.4189211E1,7.2931586E2,1.4565895E1],"tree_param":{"num_deleted":"0","num_feature":"108","num_nodes":"61","size_leaf_vector":"1"}},{"base_weights":[-4.053195E-3,3.256289E-1,-3.341589E-1,4.457328E-1,-1.540134E-1,6.712048E-2,-5.365808E-1,-0E0,4.8822019E-1,-0E0,-2.0581883E-1,-1.7618142E-1,2.561122E-1,-5.7463783E-1,-0E0,6.149691E-2,-2.7768165E-4,5.0409395E-1,-0E0,-2.4055755E-1,-0E0,-2.1089266E-1,-0E0,-0E0,2.8083774E-1,-5.919006E-1,-0E0,-0E0,1.153093E-1,-0E0,5.229598E-1,-2.6299787E-1,-0E0,-0E0,-2.3286368E-1,2.9678947E-1,-0E0,-6.014573E-1,-0E0,1.0821054E-3,-0E0,-0E0,3.7341623E-3,-1.990205E-3,-0E0,-0E0,-1.8210324E-3,-0E0,2.2181284E-3,-0E0,-4.29848E-3],"categories":[],"categories_nodes":[],"categories_segments":[],"categories_sizes":[],"default_left":[0,0,0,0,0,0,0,0,0,0,0,0,0,0,0,0,0,0,0,0,0,0,0,0,0,0,0,0,0,0,0,0,0,0,0,0,0,0,0,0,0,0,0,0,0,0,0,0,0,0,0],"id":27,"left_children":[1,3,5,7,9,11,13,15,17,-1,19,21,23,25,-1,27,-1,29,-1,31,-1,33,-1,-1,35,37,-1,-1,39,-1,41,43,-1,-1,45,47,-1,49,-1,-1,-1,-1,-1,-1,-1,-1,-1,-1,-1,-1,-1],"loss_changes":[2.5358673E2,7.615564E1,1.0322937E2,1.5662628E1,3.2142515E0,2.7284328E1,1.5609238E1,8.615229E-1,9.240631E0,0E0,2.9812946E0,2.591168E0,3.341751E0,6.1898804E0,0E0,1.4830668E0,0E0,6.197052E0,0E0,2.0914907E0,0E0,1.8924427E0,0E0,0E0,2.1693192E0,5.524994E0,0E0,0E0,1.4673934E0,0E0,3.7586212E0,1.6718788E0,0E0,0E0,2.2958393E0,2.2449207E0,0E0,4.7946777E0,0E0,0E0,0E0,0E0,0E0,0E0,0E0,0E0,0E0,0E0,0E0,0E0,0E0],"parents":[2147483647,0,0,1,1,2,2,3,3,4,4,5,5,6,6,7,7,8,8,10,10,11,11,12,12,13,13,15,15,17,17,19,19,21,21,24,24,25,25,28,28,30,30,31,31,34,34,35,35,37,37],"right_children":[2,4,6,8,10,12,14,16,18,-1,20,22,24,26,-1,28,-1,30,-1,32,-1,34,-1,-1,36,38,-1,-1,40,-1,42,44,-1,-1,46,48,-1,50,-1,-1,-1,-1,-1,-1,-1,-1,-1,-1,-1,-1,-1],"split_conditions":[1.5E1,5.1E0,-1.4E0,8.8E0,5E0,-4.1E0,4.75E-1,1.108E2,2.9E1,-0E0,2.7E1,2.7E1,7E0,8.15E-1,-0E0,5E0,-2.7768165E-4,3.8E0,-0E0,6E0,-0E0,6E0,-0E0,-0E0,9.18E1,7E0,-0E0,-0E0,2.2E1,-0E0,1.85E1,1.21E1,-0E0,-0E0,7E0,2E0,-0E0,3.07E-1,-0E0,1.0821054E-3,-0E0,-0E0,3.7341623E-3,-1.990205E-3,-0E0,-0E0,-1.8210324E-3,-0E0,2.2181284E-3,-0E0,-4.29848E-3],"split_indices":[51,77,77,66,51,25,7,76,47,0,96,45,88,13,0,53,0,20,0,25,0,36,0,0,58,73,0,0,33,0,17,66,0,0,88,44,0,62,0,0,0,0,0,0,0,0,0,0,0,0,0],"split_type":[0,0,0,0,0,0,0,0,0,0,0,0,0,0,0,0,0,0,0,0,0,0,0,0,0,0,0,0,0,0,0,0,0,0,0,0,0,0,0,0,0,0,0,0,0,0,0,0,0,0,0],"sum_hessian":[2.117301E3,1.0474849E3,1.069816E3,8.575393E2,1.899456E2,3.6875595E2,7.0106006E2,9.471209E1,7.628272E2,5.439582E1,1.3554977E2,1.4518051E2,2.2357544E2,6.449591E2,5.6100975E1,6.634316E1,2.836893E1,7.4532947E2,1.7497736E1,1.2231706E2,1.32327175E1,1.27532745E2,1.7647764E1,1.3123558E1,2.1045189E2,6.194571E2,2.550201E1,1.1849476E1,5.4493687E1,3.7663216E1,7.0766626E2,1.1523967E2,7.0773945E0,7.1065655E0,1.2042618E2,2.0196715E2,8.484741E0,6.118562E2,7.6008677E0,4.6245564E1,8.248121E0,1.0133986E1,6.975323E2,1.06183205E2,9.056464E0,8.836002E0,1.1159018E2,1.2385805E1,1.8958134E2,9.103463E0,6.0275275E2],"tree_param":{"num_deleted":"0","num_feature":"108","num_nodes":"51","size_leaf_vector":"1"}},{"base_weights":[1.6266955E-2,2.6913032E-1,-3.7834105E-1,-1.3761127E-1,4.5781216E-1,4.084905E-2,-5.373463E-1,1.9075017E-2,-2.644085E-1,-3.639338E-4,5.0750154E-1,-1.424543E-1,2.2222048E-1,-0E0,-5.723926E-1,9.663486E-2,-3.610635E-2,-2.9113713E-1,-0E0,1.1550257E-4,-6.612675E-2,-0E0,5.2769935E-1,-1.9818972E-1,-0E0,-0E0,2.4719116E-1,-6.433742E-1,-9.625185E-2,1.5267116E-1,-0E0,1.9256296E-4,-1.08741246E-1,-3.1982806E-1,-0E0,-0E0,-1.0545116E-1,5.44274E-1,-0E0,-0E0,-2.2591232E-1,-0E0,2.7159148E-1,-6.605732E-1,-0E0,-1.4996383E-1,-0E0,-0E0,1.2778748E-3,-0E0,-1.0444256E-3,-0E0,-2.4763972E-3,-9.1862766E-4,-0E0,3.9050765E-3,-0E0,-0E0,-1.6955116E-3,2.0510773E-3,-0E0,-4.720644E-3,-0E0,-0E0,-1.455264E-3],"categories":[],"categories_nodes":[],"categories_segments":[],"categories_sizes":[],"default_left":[0,0,0,0,0,0,0,0,0,0,0,0,0,0,0,0,0,0,0,0,0,0,0,0,0,0,0,0,0,0,0,0,0,0,0,0,0,0,0,0,0,0,0,0,0,0,0,0,0,0,0,0,0,0,0,0,0,0,0,0,0,0,0,0,0],"id":28,"left_children":[1,3,5,7,9,11,13,15,17,19,21,23,25,-1,27,29,31,33,-1,-1,35,-1,37,39,-1,-1,41,43,45,47,-1,-1,49,51,-1,-1,53,55,-1,-1,57,-1,59,61,-1,63,-1,-1,-1,-1,-1,-1,-1,-1,-1,-1,-1,-1,-1,-1,-1,-1,-1,-1,-1],"loss_changes":[2.317853E2,1.1908899E2,6.641626E1,1.2916331E1,2.7339752E1,1.5047253E1,1.1599426E1,2.1673307E0,3.9619694E0,7.358651E-1,1.1875259E1,3.0644736E0,2.1566916E0,0E0,8.574631E0,2.1307926E0,1.8737829E0,3.1484375E0,0E0,0E0,9.251539E-1,0E0,8.181656E0,1.785646E0,0E0,0E0,1.7661438E0,5.916107E0,2.3047087E0,1.4693646E0,0E0,0E0,1.5309417E0,2.84791E0,0E0,0E0,6.547501E-1,6.663269E0,0E0,0E0,8.182087E-1,0E0,1.2552958E0,3.540863E0,0E0,2.7791471E0,0E0,0E0,0E0,0E0,0E0,0E0,0E0,0E0,0E0,0E0,0E0,0E0,0E0,0E0,0E0,0E0,0E0,0E0,0E0],"parents":[2147483647,0,0,1,1,2,2,3,3,4,4,5,5,6,6,7,7,8,8,9,9,10,10,11,11,12,12,14,14,15,15,16,16,17,17,20,20,22,22,23,23,26,26,27,27,28,28,29,29,32,32,33,33,36,36,37,37,40,40,42,42,43,43,45,45],"right_children":[2,4,6,8,10,12,14,16,18,20,22,24,26,-1,28,30,32,34,-1,-1,36,-1,38,40,-1,-1,42,44,46,48,-1,-1,50,52,-1,-1,54,56,-1,-1,58,-1,60,62,-1,64,-1,-1,-1,-1,-1,-1,-1,-1,-1,-1,-1,-1,-1,-1,-1,-1,-1,-1,-1],"split_conditions":[1.8E1,9E0,-2.3E0,9E0,4.1E0,-4.3E0,4E0,6.94E-1,2.9E1,1E1,3E0,2.8E1,6.3E0,-0E0,-1.6E0,3.32E1,1.89E1,2E1,-0E0,1.1550257E-4,1E1,-0E0,2.8E1,8E0,-0E0,-0E0,3.29E-1,4.37E1,2.2E1,3.41E-1,-0E0,1.9256296E-4,2E0,6E0,-0E0,-0E0,2E1,9.38E1,-0E0,-0E0,9E0,-0E0,2.28E1,4.74E-1,-0E0,-1E0,-0E0,-0E0,1.2778748E-3,-0E0,-1.0444256E-3,-0E0,-2.4763972E-3,-9.1862766E-4,-0E0,3.9050765E-3,-0E0,-0E0,-1.6955116E-3,2.0510773E-3,-0E0,-4.720644E-3,-0E0,-0E0,-1.455264E-3],"split_indices":[27,103,77,51,73,25,44,55,96,48,86,80,19,0,25,61,74,102,0,0,79,0,36,95,0,0,3,57,50,62,0,0,27,92,0,0,87,58,0,0,43,0,74,7,0,25,0,0,0,0,0,0,0,0,0,0,0,0,0,0,0,0,0,0,0],"split_type":[0,0,0,0,0,0,0,0,0,0,0,0,0,0,0,0,0,0,0,0,0,0,0,0,0,0,0,0,0,0,0,0,0,0,0,0,0,0,0,0,0,0,0,0,0,0,0,0,0,0,0,0,0,0,0,0,0,0,0,0,0,0,0,0,0],"sum_hessian":[2.1176365E3,1.3239796E3,7.9365686E2,4.1472812E2,9.092515E2,2.2559996E2,5.680569E2,1.9657101E2,2.181571E2,8.294118E1,8.263103E2,1.0079096E2,1.24809E2,4.4622406E1,5.2343445E2,1.11038864E2,8.553216E1,2.0809569E2,1.0061409E1,2.9072393E1,5.3868786E1,2.7364632E1,7.989457E2,7.880955E1,2.1981417E1,8.998375E0,1.1581062E2,4.0794513E2,1.15489334E2,7.2315605E1,3.8723255E1,2.0021538E1,6.551062E1,1.8503352E2,2.3062168E1,1.3861595E1,4.000719E1,7.722819E2,2.6663742E1,7.608132E0,7.120141E1,1.4137575E1,1.0167305E2,3.9508398E2,1.2861148E1,8.766892E1,2.7820415E1,7.7626743E0,6.455293E1,1.0003904E1,5.5506714E1,2.769143E1,1.5734209E2,2.7649982E1,1.235721E1,7.6041254E2,1.1869433E1,7.351479E0,6.3849934E1,