{"learner":{"attributes":{},"feature_names":[],"feature_types":[],"gradient_booster":{"model":{"gbtree_model_param":{"num_parallel_tree":"1","num_trees":"1000"},"iteration_indptr":[0,1,2,3,4,5,6,7,8,9,10,11,12,13,14,15,16,17,18,19,20,21,22,23,24,25,26,27,28,29,30,31,32,33,34,35,36,37,38,39,40,41,42,43,44,45,46,47,48,49,50,51,52,53,54,55,56,57,58,59,60,61,62,63,64,65,66,67,68,69,70,71,72,73,74,75,76,77,78,79,80,81,82,83,84,85,86,87,88,89,90,91,92,93,94,95,96,97,98,99,100,101,102,103,104,105,106,107,108,109,110,111,112,113,114,115,116,117,118,119,120,121,122,123,124,125,126,127,128,129,130,131,132,133,134,135,136,137,138,139,140,141,142,143,144,145,146,147,148,149,150,151,152,153,154,155,156,157,158,159,160,161,162,163,164,165,166,167,168,169,170,171,172,173,174,175,176,177,178,179,180,181,182,183,184,185,186,187,188,189,190,191,192,193,194,195,196,197,198,199,200,201,202,203,204,205,206,207,208,209,210,211,212,213,214,215,216,217,218,219,220,221,222,223,224,225,226,227,228,229,230,231,232,233,234,235,236,237,238,239,240,241,242,243,244,245,246,247,248,249,250,251,252,253,254,255,256,257,258,259,260,261,262,263,264,265,266,267,268,269,270,271,272,273,274,275,276,277,278,279,280,281,282,283,284,285,286,287,288,289,290,291,292,293,294,295,296,297,298,299,300,301,302,303,304,305,306,307,308,309,310,311,312,313,314,315,316,317,318,319,320,321,322,323,324,325,326,327,328,329,330,331,332,333,334,335,336,337,338,339,340,341,342,343,344,345,346,347,348,349,350,351,352,353,354,355,356,357,358,359,360,361,362,363,364,365,366,367,368,369,370,371,372,373,374,375,376,377,378,379,380,381,382,383,384,385,386,387,388,389,390,391,392,393,394,395,396,397,398,399,400,401,402,403,404,405,406,407,408,409,410,411,412,413,414,415,416,417,418,419,420,421,422,423,424,425,426,427,428,429,430,431,432,433,434,435,436,437,438,439,440,441,442,443,444,445,446,447,448,449,450,451,452,453,454,455,456,457,458,459,460,461,462,463,464,465,466,467,468,469,470,471,472,473,474,475,476,477,478,479,480,481,482,483,484,485,486,487,488,489,490,491,492,493,494,495,496,497,498,499,500,501,502,503,504,505,506,507,508,509,510,511,512,513,514,515,516,517,518,519,520,521,522,523,524,525,526,527,528,529,530,531,532,533,534,535,536,537,538,539,540,541,542,543,544,545,546,547,548,549,550,551,552,553,554,555,556,557,558,559,560,561,562,563,564,565,566,567,568,569,570,571,572,573,574,575,576,577,578,579,580,581,582,583,584,585,586,587,588,589,590,591,592,593,594,595,596,597,598,599,600,601,602,603,604,605,606,607,608,609,610,611,612,613,614,615,616,617,618,619,620,621,622,623,624,625,626,627,628,629,630,631,632,633,634,635,636,637,638,639,640,641,642,643,644,645,646,647,648,649,650,651,652,653,654,655,656,657,658,659,660,661,662,663,664,665,666,667,668,669,670,671,672,673,674,675,676,677,678,679,680,681,682,683,684,685,686,687,688,689,690,691,692,693,694,695,696,697,698,699,700,701,702,703,704,705,706,707,708,709,710,711,712,713,714,715,716,717,718,719,720,721,722,723,724,725,726,727,728,729,730,731,732,733,734,735,736,737,738,739,740,741,742,743,744,745,746,747,748,749,750,751,752,753,754,755,756,757,758,759,760,761,762,763,764,765,766,767,768,769,770,771,772,773,774,775,776,777,778,779,780,781,782,783,784,785,786,787,788,789,790,791,792,793,794,795,796,797,798,799,800,801,802,803,804,805,806,807,808,809,810,811,812,813,814,815,816,817,818,819,820,821,822,823,824,825,826,827,828,829,830,831,832,833,834,835,836,837,838,839,840,841,842,843,844,845,846,847,848,849,850,851,852,853,854,855,856,857,858,859,860,861,862,863,864,865,866,867,868,869,870,871,872,873,874,875,876,877,878,879,880,881,882,883,884,885,886,887,888,889,890,891,892,893,894,895,896,897,898,899,900,901,902,903,904,905,906,907,908,909,910,911,912,913,914,915,916,917,918,919,920,921,922,923,924,925,926,927,928,929,930,931,932,933,934,935,936,937,938,939,940,941,942,943,944,945,946,947,948,949,950,951,952,953,954,955,956,957,958,959,960,961,962,963,964,965,966,967,968,969,970,971,972,973,974,975,976,977,978,979,980,981,982,983,984,985,986,987,988,989,990,991,992,993,994,995,996,997,998,999,1000],"tree_info":[0,0,0,0,0,0,0,0,0,0,0,0,0,0,0,0,0,0,0,0,0,0,0,0,0,0,0,0,0,0,0,0,0,0,0,0,0,0,0,0,0,0,0,0,0,0,0,0,0,0,0,0,0,0,0,0,0,0,0,0,0,0,0,0,0,0,0,0,0,0,0,0,0,0,0,0,0,0,0,0,0,0,0,0,0,0,0,0,0,0,0,0,0,0,0,0,0,0,0,0,0,0,0,0,0,0,0,0,0,0,0,0,0,0,0,0,0,0,0,0,0,0,0,0,0,0,0,0,0,0,0,0,0,0,0,0,0,0,0,0,0,0,0,0,0,0,0,0,0,0,0,0,0,0,0,0,0,0,0,0,0,0,0,0,0,0,0,0,0,0,0,0,0,0,0,0,0,0,0,0,0,0,0,0,0,0,0,0,0,0,0,0,0,0,0,0,0,0,0,0,0,0,0,0,0,0,0,0,0,0,0,0,0,0,0,0,0,0,0,0,0,0,0,0,0,0,0,0,0,0,0,0,0,0,0,0,0,0,0,0,0,0,0,0,0,0,0,0,0,0,0,0,0,0,0,0,0,0,0,0,0,0,0,0,0,0,0,0,0,0,0,0,0,0,0,0,0,0,0,0,0,0,0,0,0,0,0,0,0,0,0,0,0,0,0,0,0,0,0,0,0,0,0,0,0,0,0,0,0,0,0,0,0,0,0,0,0,0,0,0,0,0,0,0,0,0,0,0,0,0,0,0,0,0,0,0,0,0,0,0,0,0,0,0,0,0,0,0,0,0,0,0,0,0,0,0,0,0,0,0,0,0,0,0,0,0,0,0,0,0,0,0,0,0,0,0,0,0,0,0,0,0,0,0,0,0,0,0,0,0,0,0,0,0,0,0,0,0,0,0,0,0,0,0,0,0,0,0,0,0,0,0,0,0,0,0,0,0,0,0,0,0,0,0,0,0,0,0,0,0,0,0,0,0,0,0,0,0,0,0,0,0,0,0,0,0,0,0,0,0,0,0,0,0,0,0,0,0,0,0,0,0,0,0,0,0,0,0,0,0,0,0,0,0,0,0,0,0,0,0,0,0,0,0,0,0,0,0,0,0,0,0,0,0,0,0,0,0,0,0,0,0,0,0,0,0,0,0,0,0,0,0,0,0,0,0,0,0,0,0,0,0,0,0,0,0,0,0,0,0,0,0,0,0,0,0,0,0,0,0,0,0,0,0,0,0,0,0,0,0,0,0,0,0,0,0,0,0,0,0,0,0,0,0,0,0,0,0,0,0,0,0,0,0,0,0,0,0,0,0,0,0,0,0,0,0,0,0,0,0,0,0,0,0,0,0,0,0,0,0,0,0,0,0,0,0,0,0,0,0,0,0,0,0,0,0,0,0,0,0,0,0,0,0,0,0,0,0,0,0,0,0,0,0,0,0,0,0,0,0,0,0,0,0,0,0,0,0,0,0,0,0,0,0,0,0,0,0,0,0,0,0,0,0,0,0,0,0,0,0,0,0,0,0,0,0,0,0,0,0,0,0,0,0,0,0,0,0,0,0,0,0,0,0,0,0,0,0,0,0,0,0,0,0,0,0,0,0,0,0,0,0,0,0,0,0,0,0,0,0,0,0,0,0,0,0,0,0,0,0,0,0,0,0,0,0,0,0,0,0,0,0,0,0,0,0,0,0,0,0,0,0,0,0,0,0,0,0,0,0,0,0,0,0,0,0,0,0,0,0,0,0,0,0,0,0,0,0,0,0,0,0,0,0,0,0,0,0,0,0,0,0,0,0,0,0,0,0,0,0,0,0,0,0,0,0,0,0,0,0,0,0,0,0,0,0,0,0,0,0,0,0,0,0,0,0,0,0,0,0,0,0,0,0,0,0,0,0,0,0,0,0,0,0,0,0,0,0,0,0,0,0,0,0,0,0,0,0,0,0,0,0,0,0,0,0,0,0,0,0,0,0,0,0,0,0,0,0,0,0,0,0,0,0,0,0,0,0,0,0,0,0,0,0,0,0,0,0,0,0,0,0,0,0,0,0,0,0,0,0,0,0,0,0,0,0,0,0,0,0,0,0,0,0,0,0,0,0,0,0,0,0,0,0,0,0,0,0,0,0,0,0,0,0,0,0,0,0,0,0,0,0,0,0,0,0,0,0,0,0,0,0,0,0,0,0,0,0,0,0,0,0,0,0,0,0,0,0,0,0,0,0,0,0,0,0,0,0,0,0,0,0,0,0,0,0,0,0,0,0],"trees":[{"base_weights":[2.2651885E-2,3.1289467E-1,-6.769119E-1,-7.083818E-2,7.272014E-1,-9.0900314E-1,1.2358524E-2,3.4868038E-1,-3.8980123E-1,4.8660865E-1,1.0386448E0,-6.183981E-1,-1.1467928E0,4.3998545E-1,-4.8818135E-1,5.852854E-1,-0E0,-5.1660556E-1,1.1180598E-1,9.457109E-1,2.8029448E-1,7.6988403E-4,1.1169729E0,-2.320504E-1,-9.395338E-1,-2.5929484E-1,-1.2654594E0,-1.3729882E-3,6.429588E-1,-8.5134786E-1,1.0374581E-3,1.6561818E-3,8.216181E-3,-1.7757893E-3,5.1654372E-3,-7.332264E-3,-2.2814246E-3,4.966634E-3,-2.41754E-3,1.0525901E-2,-0E0,1.7962699E-3,8.316338E-3,1.1046169E-2,3.1753504E-3,-5.2611944E-3,1.7143043E-3,-1.0884995E-2,-2.7179571E-3,-6.7345346E-3,1.1110787E-3,-1.2846382E-2,-4.0731532E-3,1.4010525E-3,8.988239E-3,-1.1839748E-2,-1.139657E-3],"categories":[],"categories_nodes":[],"categories_segments":[],"categories_sizes":[],"default_left":[0,0,0,0,0,0,0,0,0,0,0,0,0,0,0,0,0,0,0,0,0,0,0,0,0,0,0,0,0,0,0,0,0,0,0,0,0,0,0,0,0,0,0,0,0,0,0,0,0,0,0,0,0,0,0,0,0],"id":0,"left_children":[1,3,5,7,9,11,13,15,17,19,21,23,25,27,29,31,33,35,37,39,41,-1,43,45,47,49,51,-1,53,55,-1,-1,-1,-1,-1,-1,-1,-1,-1,-1,-1,-1,-1,-1,-1,-1,-1,-1,-1,-1,-1,-1,-1,-1,-1,-1,-1],"loss_changes":[2.2712987E2,1.26448685E2,5.3062653E1,5.5163593E1,2.7103851E1,1.5139053E1,1.7836697E1,1.4634424E1,1.5278252E1,1.9588268E1,1.1405655E1,1.31142845E1,1.2640167E1,5.8645773E0,8.789169E0,1.1337074E1,7.461665E0,1.2509808E1,7.409922E0,1.0412487E1,7.3944483E0,0E0,4.327759E0,7.5288467E0,7.007221E0,3.4555993E0,6.971527E0,0E0,4.402213E0,5.9692516E0,0E0,0E0,0E0,0E0,0E0,0E0,0E0,0E0,0E0,0E0,0E0,0E0,0E0,0E0,0E0,0E0,0E0,0E0,0E0,0E0,0E0,0E0,0E0,0E0,0E0,0E0,0E0],"parents":[2147483647,0,0,1,1,2,2,3,3,4,4,5,5,6,6,7,7,8,8,9,9,10,10,11,11,12,12,13,13,14,14,15,15,16,16,17,17,18,18,19,19,20,20,22,22,23,23,24,24,25,25,26,26,28,28,29,29],"right_children":[2,4,6,8,10,12,14,16,18,20,22,24,26,28,30,32,34,36,38,40,42,-1,44,46,48,50,52,-1,54,56,-1,-1,-1,-1,-1,-1,-1,-1,-1,-1,-1,-1,-1,-1,-1,-1,-1,-1,-1,-1,-1,-1,-1,-1,-1,-1,-1],"split_conditions":[2.2E1,1.4E1,2.3E1,8E0,2.3E1,2.6E1,2.7E1,3.09E1,2.1E1,7E0,3E0,5.59E-1,5E0,1.2E1,2.7E1,6E0,4.64E1,6E0,1.03E1,5.1E0,8.08E-1,7.6988403E-4,4.64E-1,1.8E1,2.4E1,5.3E0,2.3E1,-1.3729882E-3,9E0,1.5E1,1.0374581E-3,1.6561818E-3,8.216181E-3,-1.7757893E-3,5.1654372E-3,-7.332264E-3,-2.2814246E-3,4.966634E-3,-2.41754E-3,1.0525901E-2,-0E0,1.7962699E-3,8.316338E-3,1.1046169E-2,3.1753504E-3,-5.2611944E-3,1.7143043E-3,-1.0884995E-2,-2.7179571E-3,-6.7345346E-3,1.1110787E-3,-1.2846382E-2,-4.0731532E-3,1.4010525E-3,8.988239E-3,-1.1839748E-2,-1.139657E-3],"split_indices":[51,80,103,27,80,51,51,61,88,51,30,55,53,87,79,80,16,80,14,21,13,0,59,88,40,73,26,0,26,82,0,0,0,0,0,0,0,0,0,0,0,0,0,0,0,0,0,0,0,0,0,0,0,0,0,0,0],"split_type":[0,0,0,0,0,0,0,0,0,0,0,0,0,0,0,0,0,0,0,0,0,0,0,0,0,0,0,0,0,0,0,0,0,0,0,0,0,0,0,0,0,0,0,0,0,0,0,0,0,0,0,0,0,0,0,0,0],"sum_hessian":[1.1181338E3,7.913097E2,3.268241E2,4.1029968E2,3.8101E2,2.4505705E2,8.1767044E1,1.7622629E2,2.3407341E2,2.1747592E2,1.6353409E2,1.1300938E2,1.3204767E2,4.4910854E1,3.685619E1,1.0471063E2,7.151565E1,1.8794215E2,4.6131256E1,6.5413635E1,1.5206229E2,1.3180359E1,1.5035373E2,5.2965515E1,6.0043858E1,1.6597488E1,1.1545018E2,1.0739552E1,3.4171303E1,2.343175E1,1.3424439E1,4.417861E1,6.053202E1,5.3697758E1,1.7817892E1,9.519148E1,9.275067E1,2.2455427E1,2.367583E1,5.5650406E1,9.763229E0,1.3400032E2,1.8061974E1,1.4034642E2,1.000731E1,3.051009E1,2.2455427E1,4.417861E1,1.5865247E1,8.054664E0,8.542826E0,1.0300207E2,1.2448117E1,1.4400763E1,1.9770538E1,1.4156682E1,9.275067E0],"tree_param":{"num_deleted":"0","num_feature":"106","num_nodes":"57","size_leaf_vector":"1"}},{"base_weights":[2.1160878E-2,2.8995326E-1,-6.741596E-1,-2.887229E-1,4.91786E-1,-1.6920127E-1,-9.838337E-1,-7.71575E-1,-8.179601E-2,2.9563677E-1,8.0531484E-1,-4.7887918E-1,1.8066405E-1,-1.0656735E0,-2.4245788E-1,-2.760226E-1,-1.1643624E0,4.2917034E-1,-2.2427835E-1,6.628235E-1,6.753137E-2,6.442909E-1,1.1751329E0,-7.0369375E-1,3.0141028E-3,-2.562242E-1,5.149568E-1,-1.1321093E0,-0E0,-6.7333686E-3,3.1358942E-3,5.7714886E-4,-9.82292E-3,-1.6469488E-2,-5.5176476E-3,-0E0,9.742583E-3,-2.9382217E-4,-6.469579E-3,-2.5703635E-3,6.951453E-3,7.180636E-3,-2.5534004E-4,-1.1050875E-3,6.815322E-3,6.1442927E-3,1.2820588E-2,-4.2567492E-4,-8.826968E-3,1.3833218E-3,-8.9360885E-3,-1.4543322E-4,9.770894E-3,-3.4496018E-3,-1.15231415E-2],"categories":[],"categories_nodes":[],"categories_segments":[],"categories_sizes":[],"default_left":[0,0,0,0,0,0,0,0,0,0,0,0,0,0,0,0,0,0,0,0,0,0,0,0,0,0,0,0,0,0,0,0,0,0,0,0,0,0,0,0,0,0,0,0,0,0,0,0,0,0,0,0,0,0,0],"id":1,"left_children":[1,3,5,7,9,11,13,15,17,19,21,23,25,27,29,31,33,35,37,39,41,43,45,47,-1,49,51,53,-1,-1,-1,-1,-1,-1,-1,-1,-1,-1,-1,-1,-1,-1,-1,-1,-1,-1,-1,-1,-1,-1,-1,-1,-1,-1,-1],"loss_changes":[2.0975049E2,9.50007E1,4.7921158E1,2.026501E1,3.607753E1,1.3364623E1,1.0547714E1,1.07158165E1,1.0753878E1,3.0723885E1,1.176387E1,1.2170709E1,8.509663E0,1.2025497E1,6.137164E0,8.220959E0,8.624935E0,7.9756656E0,9.913285E0,9.840763E0,1.5686918E1,9.790955E0,4.1365967E0,7.0592613E0,0E0,7.317186E0,9.77371E0,8.916809E0,0E0,0E0,0E0,0E0,0E0,0E0,0E0,0E0,0E0,0E0,0E0,0E0,0E0,0E0,0E0,0E0,0E0,0E0,0E0,0E0,0E0,0E0,0E0,0E0,0E0,0E0,0E0],"parents":[2147483647,0,0,1,1,2,2,3,3,4,4,5,5,6,6,7,7,8,8,9,9,10,10,11,11,12,12,13,13,14,14,15,15,16,16,17,17,18,18,19,19,20,20,21,21,22,22,23,23,25,25,26,26,27,27],"right_children":[2,4,6,8,10,12,14,16,18,20,22,24,26,28,30,32,34,36,38,40,42,44,46,48,-1,50,52,54,-1,-1,-1,-1,-1,-1,-1,-1,-1,-1,-1,-1,-1,-1,-1,-1,-1,-1,-1,-1,-1,-1,-1,-1,-1,-1,-1],"split_conditions":[2.2E1,8E0,4.67E-1,4E-1,2.2E1,-4.7E0,-1.6E0,5.1E0,5E0,7E0,3.1E1,2.8E1,1.7E1,2.28E1,2.06E1,2.51E1,1.72E1,2.52E1,3.81E-1,5E0,5E0,7.08E-1,1.4E1,2.06E1,3.0141028E-3,1.8E1,1.1E1,4.05E1,-0E0,-6.7333686E-3,3.1358942E-3,5.7714886E-4,-9.82292E-3,-1.6469488E-2,-5.5176476E-3,-0E0,9.742583E-3,-2.9382217E-4,-6.469579E-3,-2.5703635E-3,6.951453E-3,7.180636E-3,-2.5534004E-4,-1.1050875E-3,6.815322E-3,6.1442927E-3,1.2820588E-2,-4.2567492E-4,-8.826968E-3,1.3833218E-3,-8.9360885E-3,-1.4543322E-4,9.770894E-3,-3.4496018E-3,-1.15231415E-2],"split_indices":[29,103,55,25,103,25,25,72,41,28,1,81,96,74,75,69,11,17,62,0,47,13,95,17,0,26,26,16,0,0,0,0,0,0,0,0,0,0,0,0,0,0,0,0,0,0,0,0,0,0,0,0,0,0,0],"split_type":[0,0,0,0,0,0,0,0,0,0,0,0,0,0,0,0,0,0,0,0,0,0,0,0,0,0,0,0,0,0,0,0,0,0,0,0,0,0,0,0,0,0,0,0,0,0,0,0,0,0,0,0,0,0,0],"sum_hessian":[1.1219688E3,8.1025946E2,3.117093E2,2.0852696E2,6.017325E2,1.1986418E2,1.9184511E2,6.0829777E1,1.4769719E2,3.7256757E2,2.2916495E2,6.448454E1,5.537964E1,1.7157759E2,2.0267519E1,2.8337711E1,3.2492065E1,3.074857E1,1.16948616E2,1.4094878E2,2.3161877E2,1.6262225E2,6.654269E1,5.1063576E1,1.3420968E1,2.3178944E1,3.2200695E1,1.6131567E2,1.0261927E1,1.172333E1,8.544189E0,1.9541965E1,8.795747E0,1.4903788E1,1.7588278E1,1.8548304E1,1.2200268E1,8.39834E1,3.2965218E1,9.024912E0,1.3192387E2,2.8063566E1,2.035552E2,1.3654636E1,1.4896762E2,1.8771505E1,4.7771183E1,1.4169094E1,3.689448E1,1.4396161E1,8.782783E0,1.5615808E1,1.6584887E1,1.7107067E1,1.442086E2],"tree_param":{"num_deleted":"0","num_feature":"106","num_nodes":"55","size_leaf_vector":"1"}},{"base_weights":[-5.4597366E-4,-3.1793362E-1,4.5668122E-1,-7.341598E-1,3.8439953E-3,1.476781E-1,8.143957E-1,-3.3273092E-1,-9.2468613E-1,-5.6540656E-1,2.2386415E-1,3.8540414E-1,-2.1298768E-1,8.7573606E-1,5.204893E-2,-4.379539E-2,-8.8474596E-1,-3.431756E-1,-1.0895897E0,-7.014988E-1,2.757123E-3,-6.1419066E-2,4.178818E-1,6.610769E-1,9.331253E-2,7.616086E-2,-5.9231526E-1,6.0786664E-1,1.0295564E0,5.8008824E-3,-4.129243E-3,2.2302764E-3,-4.5163105E-3,-1.2625401E-2,-0E0,2.014999E-3,-5.8173263E-3,-2.9092478E-3,-1.1215014E-2,-8.579426E-4,-8.472173E-3,3.3172593E-3,-2.6604189E-3,2.6692674E-3,6.9012367E-3,7.4031367E-3,-1.9970092E-3,-2.8503076E-3,3.3629928E-3,4.215266E-3,-2.9946442E-3,-7.747818E-3,2.0870867E-3,8.7017175E-3,1.323785E-3,1.1127414E-2,4.9720015E-3],"categories":[],"categories_nodes":[],"categories_segments":[],"categories_sizes":[],"default_left":[0,0,0,0,0,0,0,0,0,0,0,0,0,0,0,0,0,0,0,0,0,0,0,0,0,0,0,0,0,0,0,0,0,0,0,0,0,0,0,0,0,0,0,0,0,0,0,0,0,0,0,0,0,0,0,0,0],"id":2,"left_children":[1,3,5,7,9,11,13,15,17,19,21,23,25,27,29,31,33,35,37,39,-1,41,43,45,47,49,51,53,55,-1,-1,-1,-1,-1,-1,-1,-1,-1,-1,-1,-1,-1,-1,-1,-1,-1,-1,-1,-1,-1,-1,-1,-1,-1,-1,-1,-1],"loss_changes":[1.6190085E2,8.889034E1,4.967608E1,2.0925919E1,4.6464787E1,2.1372244E1,9.1418E0,1.4534549E1,1.7278564E1,1.2475147E1,1.5208907E1,1.1523476E1,1.1098209E1,6.290344E0,5.1141353E0,8.042028E0,1.2990532E1,7.1726217E0,9.613113E0,9.79829E0,0E0,9.822727E0,5.967907E0,8.488205E0,7.883342E0,8.165403E0,8.5E0,9.9548E0,7.0339355E0,0E0,0E0,0E0,0E0,0E0,0E0,0E0,0E0,0E0,0E0,0E0,0E0,0E0,0E0,0E0,0E0,0E0,0E0,0E0,0E0,0E0,0E0,0E0,0E0,0E0,0E0,0E0,0E0],"parents":[2147483647,0,0,1,1,2,2,3,3,4,4,5,5,6,6,7,7,8,8,9,9,10,10,11,11,12,12,13,13,14,14,15,15,16,16,17,17,18,18,19,19,21,21,22,22,23,23,24,24,25,25,26,26,27,27,28,28],"right_children":[2,4,6,8,10,12,14,16,18,20,22,24,26,28,30,32,34,36,38,40,-1,42,44,46,48,50,52,54,56,-1,-1,-1,-1,-1,-1,-1,-1,-1,-1,-1,-1,-1,-1,-1,-1,-1,-1,-1,-1,-1,-1,-1,-1,-1,-1,-1,-1],"split_conditions":[1.5E0,1.4E1,1.4E1,1.4E1,-5.1E0,1.15E1,5.8E0,2.48E1,1.5E1,2.8E1,2.1E1,2.33E1,1.1E1,2E1,9E0,1.7E1,2.06E1,5.06E-1,1E1,2.16E1,2.757123E-3,2.37E1,3.9E1,2.3E1,4.6E0,1.74E1,5.9E0,7E0,8.82E1,5.8008824E-3,-4.129243E-3,2.2302764E-3,-4.5163105E-3,-1.2625401E-2,-0E0,2.014999E-3,-5.8173263E-3,-2.9092478E-3,-1.1215014E-2,-8.579426E-4,-8.472173E-3,3.3172593E-3,-2.6604189E-3,2.6692674E-3,6.9012367E-3,7.4031367E-3,-1.9970092E-3,-2.8503076E-3,3.3629928E-3,4.215266E-3,-2.9946442E-3,-7.747818E-3,2.0870867E-3,8.7017175E-3,1.323785E-3,1.1127414E-2,4.9720015E-3],"split_indices":[25,103,80,47,25,60,21,69,28,81,103,64,47,103,43,44,75,3,33,9,0,61,54,47,73,11,20,28,6,0,0,0,0,0,0,0,0,0,0,0,0,0,0,0,0,0,0,0,0,0,0,0,0,0,0,0,0],"split_type":[0,0,0,0,0,0,0,0,0,0,0,0,0,0,0,0,0,0,0,0,0,0,0,0,0,0,0,0,0,0,0,0,0,0,0,0,0,0,0,0,0,0,0,0,0,0,0,0,0,0,0,0,0,0,0,0,0],"sum_hessian":[1.1146008E3,6.589735E2,4.5562735E2,2.8779416E2,3.7117935E2,2.4616757E2,2.0945976E2,9.4580635E1,1.9321352E2,1.0220171E2,2.6897763E2,1.4951399E2,9.665358E1,1.9288686E2,1.6572895E1,6.353224E1,3.104839E1,4.4216297E1,1.4899722E2,8.903054E1,1.3171176E1,1.0764735E2,1.6133029E2,7.511806E1,7.4395935E1,5.4181675E1,4.2471905E1,7.358528E1,1.1930158E2,8.2857895E0,8.2871065E0,3.7868664E1,2.566358E1,2.0540556E1,1.0507833E1,1.3684334E1,3.0531961E1,1.711032E1,1.318869E2,2.2494137E1,6.65364E1,3.6129196E1,7.151815E1,1.1480613E2,4.6524162E1,6.6822235E1,8.295827E0,2.8549753E1,4.584618E1,2.8796865E1,2.5384811E1,3.39343E1,8.537606E0,4.2860867E1,3.0724413E1,9.080655E1,2.8495035E1],"tree_param":{"num_deleted":"0","num_feature":"106","num_nodes":"57","size_leaf_vector":"1"}},{"base_weights":[-9.146415E-4,-7.0530033E-1,2.918581E-1,-5.6060534E-2,-9.793422E-1,-2.2323371E-1,6.078499E-1,-3.4537423E-1,4.4788337E-1,1.0819639E-3,-1.0260289E0,1.816975E-1,-5.1661265E-1,8.670867E-1,3.575129E-1,2.5827923E-1,-5.6858224E-1,1.312598E-1,1.0336455E-2,-0E0,-1.0719486E0,5.552907E-1,-1.0996035E-1,-6.8735003E-1,-8.147244E-2,9.863819E-1,3.7240332E-1,1.0169771E-1,6.546513E-1,-2.4185837E-3,7.4218684E-3,1.8263105E-3,-8.495177E-3,-3.0865208E-3,5.312303E-3,-1.0902499E-2,-3.7704464E-3,6.9450582E-3,-2.2063425E-3,5.084797E-3,-2.5242134E-3,-4.745311E-3,-1.0927433E-2,1.574931E-3,-5.4368186E-3,1.0178258E-2,5.225877E-3,-1.4849313E-3,6.867743E-3,2.1875352E-3,-5.316037E-3,7.4090264E-3,6.1023684E-4],"categories":[],"categories_nodes":[],"categories_segments":[],"categories_sizes":[],"default_left":[0,0,0,0,0,0,0,0,0,0,0,0,0,0,0,0,0,0,0,0,0,0,0,0,0,0,0,0,0,0,0,0,0,0,0,0,0,0,0,0,0,0,0,0,0,0,0,0,0,0,0,0,0],"id":3,"left_children":[1,3,5,7,9,11,13,15,17,-1,19,21,23,25,27,29,31,33,-1,-1,35,37,39,41,43,45,47,49,51,-1,-1,-1,-1,-1,-1,-1,-1,-1,-1,-1,-1,-1,-1,-1,-1,-1,-1,-1,-1,-1,-1,-1,-1],"loss_changes":[2.3875328E2,5.9752594E1,1.3322192E2,1.502765E1,1.291507E1,3.715379E1,3.1765472E1,9.31737E0,6.5285106E0,0E0,1.085614E1,1.4520531E1,1.2860134E1,1.330426E1,1.9227417E1,5.316453E0,1.3049751E1,5.509029E0,0E0,0E0,1.0098953E1,8.62915E0,7.2700973E0,9.52784E0,6.8468266E0,5.850662E0,9.9114895E0,1.2056697E1,8.294338E0,0E0,0E0,0E0,0E0,0E0,0E0,0E0,0E0,0E0,0E0,0E0,0E0,0E0,0E0,0E0,0E0,0E0,0E0,0E0,0E0,0E0,0E0,0E0,0E0],"parents":[2147483647,0,0,1,1,2,2,3,3,4,4,5,5,6,6,7,7,8,8,10,10,11,11,12,12,13,13,14,14,15,15,16,16,17,17,20,20,21,21,22,22,23,23,24,24,25,25,26,26,27,27,28,28],"right_children":[2,4,6,8,10,12,14,16,18,-1,20,22,24,26,28,30,32,34,-1,-1,36,38,40,42,44,46,48,50,52,-1,-1,-1,-1,-1,-1,-1,-1,-1,-1,-1,-1,-1,-1,-1,-1,-1,-1,-1,-1,-1,-1,-1,-1],"split_conditions":[-2.1E0,-2E0,1.1E1,-4.1E0,1.9E1,9E0,-1.9E0,1.93E1,2.2E1,1.0819639E-3,4E0,1.081E2,5E0,1.7E1,2.8E0,1.86E1,1.3E1,7.48E-1,1.0336455E-2,-0E0,2.5E1,2.5E1,1.34E1,4.81E-1,2.2E1,1.56E1,3.5E-1,9.09E1,2.5E1,-2.4185837E-3,7.4218684E-3,1.8263105E-3,-8.495177E-3,-3.0865208E-3,5.312303E-3,-1.0902499E-2,-3.7704464E-3,6.9450582E-3,-2.2063425E-3,5.084797E-3,-2.5242134E-3,-4.745311E-3,-1.0927433E-2,1.574931E-3,-5.4368186E-3,1.0178258E-2,5.225877E-3,-1.4849313E-3,6.867743E-3,2.1875352E-3,-5.316037E-3,7.4090264E-3,6.1023684E-4],"split_indices":[25,77,103,25,64,51,77,75,35,0,44,76,73,27,25,75,91,65,0,0,26,30,70,59,35,18,10,58,98,0,0,0,0,0,0,0,0,0,0,0,0,0,0,0,0,0,0,0,0,0,0,0,0],"split_type":[0,0,0,0,0,0,0,0,0,0,0,0,0,0,0,0,0,0,0,0,0,0,0,0,0,0,0,0,0,0,0,0,0,0,0,0,0,0,0,0,0,0,0,0,0,0,0,0,0,0,0,0,0],"sum_hessian":[1.1546E3,3.3934985E2,8.152501E2,1.01794556E2,2.375553E2,3.0921936E2,5.060308E2,6.572917E1,3.6065388E1,9.057939E0,2.2849736E2,1.2903938E2,1.8017998E2,2.4617177E2,2.59859E2,1.6854216E1,4.887495E1,2.5589796E1,1.0475593E1,9.781643E0,2.1871571E2,5.7292007E1,7.1747375E1,1.2788323E2,5.229675E1,1.9650377E2,4.9668E1,1.4153484E2,1.1832418E2,8.06296E0,8.791257E0,1.4165552E1,3.47094E1,1.1699755E1,1.389004E1,1.9448792E2,2.4227798E1,4.7544083E1,9.747925E0,1.2687882E1,5.9059494E1,9.3625786E1,3.4257446E1,3.4216354E1,1.8080397E1,1.612264E2,3.5277374E1,1.9238617E1,3.042938E1,1.1981531E2,2.1719522E1,9.616232E1,2.2161852E1],"tree_param":{"num_deleted":"0","num_feature":"106","num_nodes":"53","size_leaf_vector":"1"}},{"base_weights":[2.5211435E-2,6.318682E-1,-2.3049669E-1,4.4095047E-2,9.689741E-1,3.003262E-1,-5.499961E-1,-2.7796888E-1,3.2887903E-1,8.0816776E-1,1.3193452E0,-1.1299728E-1,4.9655494E-1,-3.2698882E-1,-9.70332E-1,-1.0760787E-2,-3.588677E-2,6.0736483E-1,-2.697221E-1,4.3564358E-1,9.544068E-1,6.5892767E-3,1.363705E-2,-4.188945E-1,1.7595088E-1,3.971798E-2,6.2680626E-1,-6.61988E-1,-1.2231672E-1,-3.7624258E-1,-1.1552713E0,-7.066698E-3,1.3647778E-3,-0E0,7.3601888E-3,3.1526387E-3,-8.411475E-3,5.7610623E-3,-2.1571678E-3,-0E0,9.92351E-3,-7.6476145E-3,-1.820038E-4,-6.8375897E-3,3.8458763E-3,7.1911053E-3,-2.410778E-3,6.6107567E-3,4.903086E-4,-7.5685806E-3,-4.6747393E-4,-6.769884E-3,-2.2636738E-4,-6.203222E-3,4.566664E-3,-1.7481302E-3,-1.1513708E-2],"categories":[],"categories_nodes":[],"categories_segments":[],"categories_sizes":[],"default_left":[0,0,0,0,0,0,0,0,0,0,0,0,0,0,0,0,0,0,0,0,0,0,0,0,0,0,0,0,0,0,0,0,0,0,0,0,0,0,0,0,0,0,0,0,0,0,0,0,0,0,0,0,0,0,0,0,0],"id":4,"left_children":[1,3,5,7,9,11,13,15,17,19,21,23,25,27,29,-1,31,33,35,37,39,-1,-1,41,43,45,47,49,51,53,55,-1,-1,-1,-1,-1,-1,-1,-1,-1,-1,-1,-1,-1,-1,-1,-1,-1,-1,-1,-1,-1,-1,-1,-1,-1,-1],"loss_changes":[1.769845E2,6.633319E1,1.3609154E2,1.1585453E1,9.660309E0,2.4693443E1,4.5765076E1,1.1175372E1,1.170311E1,6.8626404E0,2.4546814E0,8.745744E0,1.1712784E1,2.1980366E1,1.745456E1,0E0,6.4843507E0,4.780016E0,8.592088E0,5.5674095E0,9.498436E0,0E0,0E0,6.879801E0,1.0119719E1,1.05891285E1,5.8712616E0,9.697647E0,1.1525264E1,1.0665253E1,6.314621E0,0E0,0E0,0E0,0E0,0E0,0E0,0E0,0E0,0E0,0E0,0E0,0E0,0E0,0E0,0E0,0E0,0E0,0E0,0E0,0E0,0E0,0E0,0E0,0E0,0E0,0E0],"parents":[2147483647,0,0,1,1,2,2,3,3,4,4,5,5,6,6,7,7,8,8,9,9,10,10,11,11,12,12,13,13,14,14,16,16,17,17,18,18,19,19,20,20,23,23,24,24,25,25,26,26,27,27,28,28,29,29,30,30],"right_children":[2,4,6,8,10,12,14,16,18,20,22,24,26,28,30,-1,32,34,36,38,40,-1,-1,42,44,46,48,50,52,54,56,-1,-1,-1,-1,-1,-1,-1,-1,-1,-1,-1,-1,-1,-1,-1,-1,-1,-1,-1,-1,-1,-1,-1,-1,-1,-1],"split_conditions":[-1.9E0,4.41E-1,1.1E1,2.2E1,2.8E1,7E0,2.4E1,2.2E1,2.3E1,5.3E-1,1.59E1,1.3E1,4.4E0,8E0,4.49E-1,-1.0760787E-2,8E0,6E0,1.8E1,4.17E1,7E0,6.5892767E-3,1.363705E-2,1E1,3E0,6E0,1.9E1,1.18E1,2E0,3.56E-1,7E0,-7.066698E-3,1.3647778E-3,-0E0,7.3601888E-3,3.1526387E-3,-8.411475E-3,5.7610623E-3,-2.1571678E-3,-0E0,9.92351E-3,-7.6476145E-3,-1.820038E-4,-6.8375897E-3,3.8458763E-3,7.1911053E-3,-2.410778E-3,6.6107567E-3,4.903086E-4,-7.5685806E-3,-4.6747393E-4,-6.769884E-3,-2.2636738E-4,-6.203222E-3,4.566664E-3,-1.7481302E-3,-1.1513708E-2],"split_indices":[77,3,51,85,81,103,51,103,44,3,11,39,73,103,59,0,90,30,37,5,52,0,0,33,25,43,103,14,104,3,52,0,0,0,0,0,0,0,0,0,0,0,0,0,0,0,0,0,0,0,0,0,0,0,0,0,0],"split_type":[0,0,0,0,0,0,0,0,0,0,0,0,0,0,0,0,0,0,0,0,0,0,0,0,0,0,0,0,0,0,0,0,0,0,0,0,0,0,0,0,0,0,0,0,0,0,0,0,0,0,0,0,0,0,0,0,0],"sum_hessian":[1.1374081E3,3.3770615E2,7.9970197E2,1.24206154E2,2.1349998E2,2.9966968E2,5.0003232E2,5.713586E1,6.707029E1,1.4966594E2,6.383405E1,9.543135E1,2.0423831E2,3.2879718E2,1.7123512E2,1.1241252E1,4.589461E1,4.6569866E1,2.0500425E1,4.4514652E1,1.0515128E2,1.2136843E1,5.169721E1,4.7353374E1,4.807798E1,4.676218E1,1.5747614E2,1.2266208E2,2.061351E2,4.217541E1,1.2905972E2,9.525949E0,3.636866E1,1.0483407E1,3.608646E1,1.00023775E1,1.0498048E1,3.6242645E1,8.272009E0,9.241682E0,9.59096E1,2.269083E1,2.4662546E1,8.801138E0,3.927684E1,1.3875654E1,3.2886528E1,1.3899794E2,1.847819E1,9.915997E1,2.3502102E1,2.760439E1,1.7853072E2,3.26238E1,9.551616E0,8.330353E0,1.2072936E2],"tree_param":{"num_deleted":"0","num_feature":"106","num_nodes":"57","size_leaf_vector":"1"}},{"base_weights":[-0E0,-6.0221326E-1,3.0006123E-1,-1.0629077E-1,-9.13613E-1,7.207902E-1,2.2593107E-2,-5.0261897E-1,3.114389E-1,-9.8496497E-1,2.1567775E-3,3.6405116E-1,8.864047E-1,-2.8233922E-1,3.8488835E-1,-6.803616E-1,1.8007607E-3,-0E0,1.0758604E0,-4.274353E-1,-1.0693042E0,6.033663E-1,-2.14177E-1,1.1210864E0,5.7208824E-1,-1.4566107E-1,-7.881863E-1,5.8211905E-1,-1.3029085E-1,-7.869143E-4,-8.579334E-3,2.7435017E-3,-5.8243894E-3,5.579574E-3,1.2854853E-2,-9.186984E-3,2.3767336E-3,-1.0778032E-2,-3.7008766E-3,7.4472288E-3,-2.732009E-4,-4.5149866E-3,3.2416005E-3,7.7884197E-3,1.23609565E-2,6.858937E-3,-1.277113E-3,5.935876E-3,-2.3019935E-3,-1.995478E-3,-1.1177677E-2,6.4580236E-3,2.1740259E-4,-7.895424E-3,1.3779033E-3],"categories":[],"categories_nodes":[],"categories_segments":[],"categories_sizes":[],"default_left":[0,0,0,0,0,0,0,0,0,0,0,0,0,0,0,0,0,0,0,0,0,0,0,0,0,0,0,0,0,0,0,0,0,0,0,0,0,0,0,0,0,0,0,0,0,0,0,0,0,0,0,0,0,0,0],"id":5,"left_children":[1,3,5,7,9,11,13,15,17,19,-1,21,23,25,27,29,-1,31,33,35,37,39,41,43,45,47,49,51,53,-1,-1,-1,-1,-1,-1,-1,-1,-1,-1,-1,-1,-1,-1,-1,-1,-1,-1,-1,-1,-1,-1,-1,-1,-1,-1],"loss_changes":[2.0763882E2,5.8151566E1,8.91742E1,2.4953505E1,1.9740494E1,1.6823013E1,5.1535015E1,1.0022476E1,1.6541195E1,8.920715E0,0E0,1.412786E1,1.3443741E1,1.6660093E1,2.2120459E1,7.674059E0,0E0,9.338287E0,7.20829E-1,1.2291908E1,7.276001E0,8.773687E0,4.44005E0,3.9191132E0,1.0251869E1,1.4901793E1,1.0619991E1,8.134567E0,1.2005016E1,0E0,0E0,0E0,0E0,0E0,0E0,0E0,0E0,0E0,0E0,0E0,0E0,0E0,0E0,0E0,0E0,0E0,0E0,0E0,0E0,0E0,0E0,0E0,0E0,0E0,0E0],"parents":[2147483647,0,0,1,1,2,2,3,3,4,4,5,5,6,6,7,7,8,8,9,9,11,11,12,12,13,13,14,14,15,15,17,17,18,18,19,19,20,20,21,21,22,22,23,23,24,24,25,25,26,26,27,27,28,28],"right_children":[2,4,6,8,10,12,14,16,18,20,-1,22,24,26,28,30,-1,32,34,36,38,40,42,44,46,48,50,52,54,-1,-1,-1,-1,-1,-1,-1,-1,-1,-1,-1,-1,-1,-1,-1,-1,-1,-1,-1,-1,-1,-1,-1,-1,-1,-1],"split_conditions":[-1.6E0,-1.1E0,4.8E-1,-4.5E0,9.17E1,1.6E1,3.2E0,2.8E1,5.7E1,1.3E1,2.1567775E-3,1E1,-3E0,4.8E-1,5.6E0,2.09E1,1.8007607E-3,-2.8E0,2E1,2.13E1,2.5E1,2.1E1,2.7E1,1.8E0,1.7E1,5E0,4.34E1,2.6E1,1.95E1,-7.869143E-4,-8.579334E-3,2.7435017E-3,-5.8243894E-3,5.579574E-3,1.2854853E-2,-9.186984E-3,2.3767336E-3,-1.0778032E-2,-3.7008766E-3,7.4472288E-3,-2.732009E-4,-4.5149866E-3,3.2416005E-3,7.7884197E-3,1.23609565E-2,6.858937E-3,-1.277113E-3,5.935876E-3,-2.3019935E-3,-1.995478E-3,-1.1177677E-2,6.4580236E-3,2.1740259E-4,-7.895424E-3,1.3779033E-3],"split_indices":[25,77,55,25,58,1,25,81,0,33,0,2,77,59,77,64,0,77,50,22,85,50,93,25,29,47,68,95,22,0,0,0,0,0,0,0,0,0,0,0,0,0,0,0,0,0,0,0,0,0,0,0,0,0,0],"split_type":[0,0,0,0,0,0,0,0,0,0,0,0,0,0,0,0,0,0,0,0,0,0,0,0,0,0,0,0,0,0,0,0,0,0,0,0,0,0,0,0,0,0,0,0,0,0,0,0,0,0,0,0,0,0,0],"sum_hessian":[1.1485192E3,3.808925E2,7.6762665E2,1.482359E2,2.3265659E2,3.035039E2,4.641227E2,7.6842834E1,7.139307E1,2.1965773E2,1.2998851E1,9.8449196E1,2.0505472E2,2.5105861E2,2.130641E2,6.197196E1,1.4870875E1,5.1907867E1,1.94852E1,3.0646486E1,1.8901125E2,7.046658E1,2.7982618E1,1.1485113E2,9.020359E1,1.9962286E2,5.1435745E1,1.5498608E2,5.8078022E1,1.812189E1,4.385007E1,3.6274796E1,1.5633075E1,9.008649E0,1.0476551E1,1.7409126E1,1.323736E1,1.7038408E2,1.862717E1,5.5397602E1,1.5068981E1,1.996375E1,8.018867E0,4.681771E1,6.803342E1,7.508466E1,1.5118922E1,2.099052E1,1.7863235E2,2.2025366E1,2.9410378E1,1.304046E2,2.458148E1,1.6594961E1,4.1483063E1],"tree_param":{"num_deleted":"0","num_feature":"106","num_nodes":"55","size_leaf_vector":"1"}},{"base_weights":[1.4407355E-2,-3.772091E-1,4.3713942E-1,1.619861E-1,-7.246635E-1,8.559458E-2,7.6294065E-1,-3.9395955E-1,4.480861E-1,-3.179398E-1,-8.7588066E-1,2.1061887E-1,-4.9929327E-1,9.95079E-1,4.7323853E-1,2.3399938E-3,-5.587201E-1,2.359507E-1,7.595155E-1,3.3560133E-1,-5.1970613E-1,-7.707228E-1,-1.340298E0,4.6795437E-1,-1.474707E-1,-7.9821193E-1,2.4933502E-4,-0E0,1.0520769E0,6.827295E-2,7.527788E-1,-7.5547933E-3,-0E0,6.814411E-3,-7.708348E-5,8.720911E-3,-1.6345377E-3,-0E0,7.604415E-3,-8.949569E-3,-2.3542638E-3,-1.6127741E-3,-8.199002E-3,-3.4718008E-3,-1.4998986E-2,1.3463185E-3,7.1338764E-3,-3.1537018E-3,4.0373798E-3,-9.766574E-3,-9.331641E-4,1.3308262E-2,8.504898E-3,-2.3365743E-3,5.0644744E-3,9.06905E-3,-0E0],"categories":[],"categories_nodes":[],"categories_segments":[],"categories_sizes":[],"default_left":[0,0,0,0,0,0,0,0,0,0,0,0,0,0,0,0,0,0,0,0,0,0,0,0,0,0,0,0,0,0,0,0,0,0,0,0,0,0,0,0,0,0,0,0,0,0,0,0,0,0,0,0,0,0,0,0,0],"id":6,"left_children":[1,3,5,7,9,11,13,15,17,19,21,23,25,27,29,-1,31,33,35,37,39,41,43,45,47,49,-1,-1,51,53,55,-1,-1,-1,-1,-1,-1,-1,-1,-1,-1,-1,-1,-1,-1,-1,-1,-1,-1,-1,-1,-1,-1,-1,-1,-1,-1],"loss_changes":[1.8639214E2,1.0981031E2,6.1442543E1,3.6543633E1,2.080069E1,1.9103697E1,1.7406097E1,8.497677E0,9.195286E0,1.3339609E1,1.0203644E1,2.0383923E1,7.7175894E0,9.0399475E0,1.3827976E1,0E0,7.7825317E0,1.1480068E1,9.626492E0,3.7668478E0,7.8071613E0,1.121917E1,8.775429E0,1.117687E1,9.69126E0,3.9765491E0,0E0,0E0,5.218109E0,8.2535095E0,1.1703945E1,0E0,0E0,0E0,0E0,0E0,0E0,0E0,0E0,0E0,0E0,0E0,0E0,0E0,0E0,0E0,0E0,0E0,0E0,0E0,0E0,0E0,0E0,0E0,0E0,0E0,0E0],"parents":[2147483647,0,0,1,1,2,2,3,3,4,4,5,5,6,6,7,7,8,8,9,9,10,10,11,11,12,12,13,13,14,14,16,16,17,17,18,18,19,19,20,20,21,21,22,22,23,23,24,24,25,25,28,28,29,29,30,30],"right_children":[2,4,6,8,10,12,14,16,18,20,22,24,26,28,30,-1,32,34,36,38,40,42,44,46,48,50,-1,-1,52,54,56,-1,-1,-1,-1,-1,-1,-1,-1,-1,-1,-1,-1,-1,-1,-1,-1,-1,-1,-1,-1,-1,-1,-1,-1,-1,-1],"split_conditions":[6E-1,4.6E-1,1.2E1,-4.6E0,7E-1,5.4E0,8E0,2.3E1,2.3E1,1.5E1,2.8E1,1.15E1,2E1,8E0,1.6E1,2.3399938E-3,3.5E1,8E0,2.7E1,2.03E1,-5E0,7E0,4E0,7.71E-1,2.66E1,2E1,2.4933502E-4,-0E0,8.33E1,5.1E0,2.43E1,-7.5547933E-3,-0E0,6.814411E-3,-7.708348E-5,8.720911E-3,-1.6345377E-3,-0E0,7.604415E-3,-8.949569E-3,-2.3542638E-3,-1.6127741E-3,-8.199002E-3,-3.4718008E-3,-1.4998986E-2,1.3463185E-3,7.1338764E-3,-3.1537018E-3,4.0373798E-3,-9.766574E-3,-9.331641E-4,1.3308262E-2,8.504898E-3,-2.3365743E-3,5.0644744E-3,9.06905E-3,-0E0],"split_indices":[25,55,80,25,77,21,51,28,93,28,51,60,2,52,93,0,54,78,37,75,25,45,1,13,17,45,0,0,6,20,69,0,0,0,0,0,0,0,0,0,0,0,0,0,0,0,0,0,0,0,0,0,0,0,0,0,0],"split_type":[0,0,0,0,0,0,0,0,0,0,0,0,0,0,0,0,0,0,0,0,0,0,0,0,0,0,0,0,0,0,0,0,0,0,0,0,0,0,0,0,0,0,0,0,0,0,0,0,0,0,0,0,0,0,0,0,0],"sum_hessian":[1.1239319E3,5.826206E2,5.4131134E2,2.276983E2,3.5492227E2,2.6193225E2,2.7937906E2,7.641711E1,1.5128119E2,9.818056E1,2.5674173E2,2.1724937E2,4.468289E1,1.5258476E2,1.267943E2,1.4666188E1,6.175092E1,9.2231735E1,5.9049454E1,2.2201836E1,7.597872E1,2.1244397E2,4.429774E1,1.2740012E2,8.984924E1,2.9054272E1,1.5628621E1,8.008716E0,1.4457605E2,5.3247646E1,7.3546646E1,4.215905E1,1.9591871E1,3.1371841E1,6.0859894E1,5.1027412E1,8.022044E0,1.3173746E1,9.0280905E0,2.7783684E1,4.8195038E1,3.0162281E1,1.822817E2,9.827959E0,3.4469784E1,6.1151558E1,6.6248566E1,6.91128E1,2.0736443E1,2.0754843E1,8.29943E0,4.0658466E1,1.0391759E2,3.1119884E1,2.212776E1,5.7985657E1,1.556099E1],"tree_param":{"num_deleted":"0","num_feature":"106","num_nodes":"57","size_leaf_vector":"1"}},{"base_weights":[-1.8709997E-2,2.5479805E-1,-6.392989E-1,-7.2998695E-2,6.0361445E-1,-0E0,-8.8105077E-1,2.3097563E-1,-3.5116795E-1,4.2861474E-1,9.0950614E-1,4.158342E-1,-3.9048275E-1,-6.0809743E-1,-1.1161152E0,-1.556452E-1,4.2331403E-1,-1.9528973E-1,-9.083196E-1,1.7999629E-2,6.3327664E-1,-1.6151486E-3,1.0335479E0,9.980854E-3,1.7379333E-1,3.8343756E-3,-5.797044E-1,1.8739984E-3,-7.119124E-1,-2.6215375E-3,-1.1935071E0,-3.967228E-3,5.1455684E-3,6.2949996E-4,5.9629437E-3,9.809907E-4,-3.3508758E-3,-1.0562335E-2,-0E0,-1.4826916E-3,6.0628764E-3,6.8678157E-3,-3.642033E-5,2.229123E-3,1.0350564E-2,-5.7241897E-4,7.884244E-3,-6.37051E-4,-8.825337E-3,-1.1926151E-2,-5.22579E-3,-1.19095165E-2,-2.9667562E-3],"categories":[],"categories_nodes":[],"categories_segments":[],"categories_sizes":[],"default_left":[0,0,0,0,0,0,0,0,0,0,0,0,0,0,0,0,0,0,0,0,0,0,0,0,0,0,0,0,0,0,0,0,0,0,0,0,0,0,0,0,0,0,0,0,0,0,0,0,0,0,0,0,0],"id":7,"left_children":[1,3,5,7,9,11,13,15,17,19,21,23,25,27,29,31,33,35,37,39,41,-1,43,-1,45,-1,47,-1,49,-1,51,-1,-1,-1,-1,-1,-1,-1,-1,-1,-1,-1,-1,-1,-1,-1,-1,-1,-1,-1,-1,-1,-1],"loss_changes":[1.9235928E2,9.014136E1,5.4225586E1,3.4339916E1,1.913379E1,1.5629968E1,1.4403854E1,1.455956E1,1.7538305E1,2.0174725E1,1.9049011E1,6.2889185E0,7.6574965E0,1.053294E1,7.3386383E0,1.1742614E1,9.020384E0,8.161842E0,8.799732E0,9.506532E0,9.975365E0,0E0,4.588852E0,0E0,6.1635213E0,0E0,6.524493E0,0E0,7.5482864E0,0E0,5.2599335E0,0E0,0E0,0E0,0E0,0E0,0E0,0E0,0E0,0E0,0E0,0E0,0E0,0E0,0E0,0E0,0E0,0E0,0E0,0E0,0E0,0E0,0E0],"parents":[2147483647,0,0,1,1,2,2,3,3,4,4,5,5,6,6,7,7,8,8,9,9,10,10,11,11,12,12,13,13,14,14,15,15,16,16,17,17,18,18,19,19,20,20,22,22,24,24,26,26,28,28,30,30],"right_children":[2,4,6,8,10,12,14,16,18,20,22,24,26,28,30,32,34,36,38,40,42,-1,44,-1,46,-1,48,-1,50,-1,52,-1,-1,-1,-1,-1,-1,-1,-1,-1,-1,-1,-1,-1,-1,-1,-1,-1,-1,-1,-1,-1,-1],"split_conditions":[2E1,1.4E1,-2.4E0,1E1,6.27E-1,1.9E1,5.59E-1,5E0,4.79E-1,2E1,9E0,1.51E1,1E1,8E0,1.2E1,4.8E0,1.1E1,2.56E1,3.41E1,2.6E1,2.4E1,-1.6151486E-3,3.2E0,9.980854E-3,1.7E1,3.8343756E-3,2.22E1,1.8739984E-3,4.82E1,-2.6215375E-3,5.7E0,-3.967228E-3,5.1455684E-3,6.2949996E-4,5.9629437E-3,9.809907E-4,-3.3508758E-3,-1.0562335E-2,-0E0,-1.4826916E-3,6.0628764E-3,6.8678157E-3,-3.642033E-5,2.229123E-3,1.0350564E-2,-5.7241897E-4,7.884244E-3,-6.37051E-4,-8.825337E-3,-1.1926151E-2,-5.22579E-3,-1.19095165E-2,-2.9667562E-3],"split_indices":[27,79,77,51,3,44,55,103,59,103,0,11,43,54,33,73,37,61,9,48,78,0,25,0,53,0,64,0,4,0,73,0,0,0,0,0,0,0,0,0,0,0,0,0,0,0,0,0,0,0,0,0,0],"split_type":[0,0,0,0,0,0,0,0,0,0,0,0,0,0,0,0,0,0,0,0,0,0,0,0,0,0,0,0,0,0,0,0,0,0,0,0,0,0,0,0,0,0,0,0,0,0,0,0,0,0,0,0,0],"sum_hessian":[1.1300018E3,7.838929E2,3.4610892E2,4.0343134E2,3.8046155E2,9.443086E1,2.5167805E2,1.9163277E2,2.1179855E2,2.4478893E2,1.3567262E2,4.6549767E1,4.78811E1,1.1926923E2,1.3240883E2,6.2499912E1,1.2913286E2,1.6739299E2,4.440557E1,8.28822E1,1.6190672E2,1.3359576E1,1.2231305E2,1.1220003E1,3.5329765E1,8.300858E0,3.9580242E1,1.2748389E1,1.0652084E2,1.2276579E1,1.2013225E2,4.639308E1,1.610683E1,4.8893066E1,8.023979E1,5.6514744E1,1.1087824E2,3.630348E1,8.102094E0,6.4339E1,1.8543201E1,1.4248383E2,1.9422905E1,9.458025E0,1.1285503E2,2.5842136E1,9.487626E0,1.733153E1,2.224871E1,2.186761E1,8.465324E1,1.1102875E2,9.103499E0],"tree_param":{"num_deleted":"0","num_feature":"106","num_nodes":"53","size_leaf_vector":"1"}},{"base_weights":[3.5357043E-2,2.8088433E-1,-6.3471246E-1,1.0640748E-1,8.521064E-1,-6.0381822E-2,-8.8570166E-1,-3.1184107E-1,3.0238044E-1,9.236373E-1,-6.8912574E-4,-4.2824045E-1,4.213775E-1,-4.366549E-1,-1.0293524E0,8.3924234E-2,-6.356104E-1,3.7635285E-1,-4.0103847E-1,7.403367E-1,1.2949526E0,-9.1935337E-1,-1.2602507E-1,6.6027004E-1,-2.214304E-3,-7.971079E-1,1.8790948E-1,-1.2675617E0,-7.3079985E-1,2.8171649E-3,-5.0491528E-3,-6.8971794E-3,3.415074E-3,5.93225E-3,2.4062274E-3,5.4475833E-3,-6.681691E-3,4.6812645E-3,1.0436938E-2,8.618983E-3,1.4048454E-2,-2.2415004E-3,-1.24674635E-2,-3.8888603E-3,4.4333963E-3,-1.1305325E-3,9.349665E-3,-0E0,-1.0162875E-2,5.9526046E-3,-1.5258177E-3,-1.2896369E-2,-3.3735437E-3,-8.150234E-3,1.8414891E-3],"categories":[],"categories_nodes":[],"categories_segments":[],"categories_sizes":[],"default_left":[0,0,0,0,0,0,0,0,0,0,0,0,0,0,0,0,0,0,0,0,0,0,0,0,0,0,0,0,0,0,0,0,0,0,0,0,0,0,0,0,0,0,0,0,0,0,0,0,0,0,0,0,0,0,0],"id":8,"left_children":[1,3,5,7,9,11,13,15,17,19,-1,21,23,25,27,29,31,33,35,37,39,41,43,45,-1,47,49,51,53,-1,-1,-1,-1,-1,-1,-1,-1,-1,-1,-1,-1,-1,-1,-1,-1,-1,-1,-1,-1,-1,-1,-1,-1,-1,-1],"loss_changes":[1.860596E2,8.1913025E1,4.295307E1,5.2311226E1,1.3425339E1,1.680073E1,1.2118378E1,2.639698E1,2.277567E1,9.985992E0,0E0,7.252304E0,6.732852E0,1.2614264E1,8.973267E0,1.1931134E1,1.0797989E1,1.1329269E1,1.2583376E1,9.409386E0,1.271759E0,3.9747906E0,6.1367693E0,8.4694195E0,0E0,8.006912E0,3.421997E0,5.5746155E0,9.339489E0,0E0,0E0,0E0,0E0,0E0,0E0,0E0,0E0,0E0,0E0,0E0,0E0,0E0,0E0,0E0,0E0,0E0,0E0,0E0,0E0,0E0,0E0,0E0,0E0,0E0,0E0],"parents":[2147483647,0,0,1,1,2,2,3,3,4,4,5,5,6,6,7,7,8,8,9,9,11,11,12,12,13,13,14,14,15,15,16,16,17,17,18,18,19,19,20,20,21,21,22,22,23,23,25,25,26,26,27,27,28,28],"right_children":[2,4,6,8,10,12,14,16,18,20,-1,22,24,26,28,30,32,34,36,38,40,42,44,46,-1,48,50,52,54,-1,-1,-1,-1,-1,-1,-1,-1,-1,-1,-1,-1,-1,-1,-1,-1,-1,-1,-1,-1,-1,-1,-1,-1,-1,-1],"split_conditions":[2.1E1,2.2E1,-2E0,3E-1,4.68E-1,-4.5E0,2E0,5.45E-1,4.86E-1,3.7E1,-6.8912574E-4,7.41E-1,2.3E1,2.8E1,-4.9E0,2.4E1,2.9E1,5E0,4E0,3.3E0,1.4E1,1.8E1,2.5E1,4.41E-1,-2.214304E-3,1.2E1,1.7E1,2.7E1,2.7E1,2.8171649E-3,-5.0491528E-3,-6.8971794E-3,3.415074E-3,5.93225E-3,2.4062274E-3,5.4475833E-3,-6.681691E-3,4.6812645E-3,1.0436938E-2,8.618983E-3,1.4048454E-2,-2.2415004E-3,-1.24674635E-2,-3.8888603E-3,4.4333963E-3,-1.1305325E-3,9.349665E-3,-0E0,-1.0162875E-2,5.9526046E-3,-1.5258177E-3,-1.2896369E-2,-3.3735437E-3,-8.150234E-3,1.8414891E-3],"split_indices":[28,80,77,25,59,25,105,55,59,54,0,13,44,9,25,36,84,29,42,25,82,86,90,7,0,84,39,100,29,0,0,0,0,0,0,0,0,0,0,0,0,0,0,0,0,0,0,0,0,0,0,0,0,0,0],"split_type":[0,0,0,0,0,0,0,0,0,0,0,0,0,0,0,0,0,0,0,0,0,0,0,0,0,0,0,0,0,0,0,0,0,0,0,0,0,0,0,0,0,0,0,0,0,0,0,0,0,0,0,0,0,0,0],"sum_hessian":[1.1306453E3,8.28586E2,3.0205923E2,6.3644257E2,1.9214345E2,9.3038445E1,2.090208E2,2.017527E2,4.3468985E2,1.7905736E2,1.3086082E1,5.3639618E1,3.9398823E1,5.269164E1,1.5632915E2,9.008969E1,1.1166301E2,3.945959E2,4.0093964E1,1.22874306E2,5.6183056E1,1.8875952E1,3.4763668E1,2.9652931E1,9.745893E0,3.3974934E1,1.8716703E1,8.40855E1,7.224365E1,6.811698E1,2.197271E1,1.0307696E2,8.586051E0,1.2688321E2,2.6771268E2,8.788085E0,3.130588E1,7.537152E1,4.7502777E1,2.123325E1,3.4949806E1,8.085603E0,1.079035E1,2.4491814E1,1.02718525E1,8.269359E0,2.1383574E1,8.6158085E0,2.5359125E1,8.865814E0,9.850889E0,7.5216415E1,8.869091E0,6.412193E1,8.121718E0],"tree_param":{"num_deleted":"0","num_feature":"106","num_nodes":"55","size_leaf_vector":"1"}},{"base_weights":[-3.1712066E-2,-3.7676933E-1,3.8715154E-1,-6.9795895E-1,-1.02864794E-1,4.4741683E-2,7.319677E-1,-7.745881E-1,2.0029962E-1,2.2167678E-1,-3.8934857E-1,1.9895063E-1,-3.4789193E-1,5.436361E-1,1.0966437E0,-1.2262465E0,-6.3616204E-1,5.820208E-3,-3.5568315E-3,3.6653027E-1,-3.3987588E-1,-1.3542685E-2,-5.5652106E-1,5.1170635E-1,-2.3114268E-2,-1.6377015E-1,-9.01567E-3,9.1968864E-1,3.3659342E-1,3.8284434E-3,1.1618465E0,-4.550602E-3,-1.3315655E-2,-4.5700134E-3,-1.041074E-2,-4.002311E-4,4.8863236E-3,-9.974068E-3,5.3057424E-4,4.681203E-3,-3.251141E-3,-6.4190435E-3,4.159638E-4,5.955299E-3,-2.0279086E-3,-3.0843527E-3,2.4067576E-3,-3.524304E-3,3.5184177E-3,1.0069493E-2,3.560197E-4,-2.381581E-3,4.3359688E-3,6.4599826E-3,1.2468829E-2],"categories":[],"categories_nodes":[],"categories_segments":[],"categories_sizes":[],"default_left":[0,0,0,0,0,0,0,0,0,0,0,0,0,0,0,0,0,0,0,0,0,0,0,0,0,0,0,0,0,0,0,0,0,0,0,0,0,0,0,0,0,0,0,0,0,0,0,0,0,0,0,0,0,0,0],"id":9,"left_children":[1,3,5,7,9,11,13,15,17,19,21,23,25,27,29,31,33,-1,-1,35,37,39,41,43,45,47,-1,49,51,-1,53,-1,-1,-1,-1,-1,-1,-1,-1,-1,-1,-1,-1,-1,-1,-1,-1,-1,-1,-1,-1,-1,-1,-1,-1],"loss_changes":[1.6456682E2,5.437793E1,6.0045036E1,2.0254745E1,3.1771282E1,1.5670268E1,1.5826157E1,1.4573059E1,5.7182846E0,1.30301485E1,1.1017235E1,1.3425572E1,7.1014967E0,1.215921E1,2.3152466E0,6.084465E0,1.30720825E1,0E0,0E0,8.1174965E0,9.770817E0,9.763783E0,9.496834E0,7.132509E0,9.296126E0,6.49244E0,0E0,6.6135826E0,8.259287E0,0E0,3.4253845E0,0E0,0E0,0E0,0E0,0E0,0E0,0E0,0E0,0E0,0E0,0E0,0E0,0E0,0E0,0E0,0E0,0E0,0E0,0E0,0E0,0E0,0E0,0E0,0E0],"parents":[2147483647,0,0,1,1,2,2,3,3,4,4,5,5,6,6,7,7,8,8,9,9,10,10,11,11,12,12,13,13,14,14,15,15,16,16,19,19,20,20,21,21,22,22,23,23,24,24,25,25,27,27,28,28,30,30],"right_children":[2,4,6,8,10,12,14,16,18,20,22,24,26,28,30,32,34,-1,-1,36,38,40,42,44,46,48,-1,50,52,-1,54,-1,-1,-1,-1,-1,-1,-1,-1,-1,-1,-1,-1,-1,-1,-1,-1,-1,-1,-1,-1,-1,-1,-1,-1],"split_conditions":[1E0,1.4E1,1.3E1,4.88E1,2E1,6.2E0,2.4E1,4E0,2.4E1,2.6E1,3.19E1,5E0,1.1E1,5E0,1.94E1,1.2E1,2.1E1,5.820208E-3,-3.5568315E-3,1.5E1,2.1E1,2.05E1,5.6E0,1.7E1,1.4E1,1.4E1,-9.01567E-3,2E1,4.81E1,3.8284434E-3,6E0,-4.550602E-3,-1.3315655E-2,-4.5700134E-3,-1.041074E-2,-4.002311E-4,4.8863236E-3,-9.974068E-3,5.3057424E-4,4.681203E-3,-3.251141E-3,-6.4190435E-3,4.159638E-4,5.955299E-3,-2.0279086E-3,-3.0843527E-3,2.4067576E-3,-3.524304E-3,3.5184177E-3,1.0069493E-2,3.560197E-4,-2.381581E-3,4.3359688E-3,6.4599826E-3,1.2468829E-2],"split_indices":[25,103,80,56,28,77,79,85,31,39,15,28,51,51,74,50,30,0,0,80,103,17,20,103,101,50,0,11,4,0,78,0,0,0,0,0,0,0,0,0,0,0,0,0,0,0,0,0,0,0,0,0,0,0,0],"split_type":[0,0,0,0,0,0,0,0,0,0,0,0,0,0,0,0,0,0,0,0,0,0,0,0,0,0,0,0,0,0,0,0,0,0,0,0,0,0,0,0,0,0,0,0,0,0,0,0,0,0,0,0,0,0,0],"sum_hessian":[1.1369414E3,6.243639E2,5.125775E2,2.8557886E2,3.38785E2,2.5869965E2,2.5387788E2,2.6396378E2,2.161508E1,1.577793E2,1.810057E2,1.8734058E2,7.135908E1,1.7010533E2,8.377255E1,5.9141838E1,2.0482195E2,1.3254534E1,8.360545E0,1.2666107E2,3.111823E1,5.7312847E1,1.2369286E2,7.8638725E1,1.0870185E2,5.6405632E1,1.49534445E1,5.8139748E1,1.1196558E2,8.669116E0,7.510344E1,1.2794107E1,4.634773E1,1.5608441E2,4.8737537E1,3.2732376E1,9.3928696E1,1.1241847E1,1.9876385E1,2.1551233E1,3.5761616E1,1.0387775E2,1.9815113E1,6.869095E1,9.947781E0,5.3126457E1,5.5575394E1,4.1749805E1,1.46558275E1,4.9208332E1,8.931415E0,1.7939253E1,9.402633E1,2.0442968E1,5.466047E1],"tree_param":{"num_deleted":"0","num_feature":"106","num_nodes":"55","size_leaf_vector":"1"}},{"base_weights":[-2.6116574E-2,2.4798423E-1,-5.924486E-1,5.3442526E-1,-1.2687354E-1,-1.00147486E-1,-8.80644E-1,3.289147E-1,8.256301E-1,2.2971362E-1,-4.693442E-1,2.4743079E-1,-4.8150828E-1,-5.5305785E-1,-1.0648665E0,1.14067085E-1,5.895121E-1,3.6317715E-1,9.28304E-1,4.2206633E-1,-2.5583756E-1,-3.5721415E-1,-1.0157267E0,6.417098E-1,-2.5492445E-2,-4.2562976E-2,-7.679241E-1,-3.3350936E-1,-9.930635E-1,5.522276E-4,-1.1448761E0,4.5940992E-3,-1.585041E-3,2.8895127E-4,7.864006E-3,7.865574E-3,-1.7404999E-4,7.6180475E-4,9.372547E-3,5.7532615E-3,-5.2545156E-4,3.6143808E-4,-1.0014658E-2,7.452619E-4,-4.612663E-3,-1.348564E-2,-1.8774742E-3,2.2101616E-3,1.2578232E-2,-6.176676E-3,1.3297582E-3,-5.0899982E-3,2.7490691E-3,-9.277774E-3,-1.8470735E-5,4.1682567E-3,-4.536732E-3,-4.1205473E-3,-1.2750106E-2,-7.465235E-4,-1.1431522E-2],"categories":[],"categories_nodes":[],"categories_segments":[],"categories_sizes":[],"default_left":[0,0,0,0,0,0,0,0,0,0,0,0,0,0,0,0,0,0,0,0,0,0,0,0,0,0,0,0,0,0,0,0,0,0,0,0,0,0,0,0,0,0,0,0,0,0,0,0,0,0,0,0,0,0,0,0,0,0,0,0,0],"id":10,"left_children":[1,3,5,7,9,11,13,15,17,19,21,23,25,27,29,31,33,35,37,39,41,43,45,47,49,51,53,55,57,-1,59,-1,-1,-1,-1,-1,-1,-1,-1,-1,-1,-1,-1,-1,-1,-1,-1,-1,-1,-1,-1,-1,-1,-1,-1,-1,-1,-1,-1,-1,-1],"loss_changes":[1.7608109E2,8.222175E1,5.1765213E1,2.4893753E1,4.055138E1,1.8638288E1,1.2385696E1,1.3833883E1,7.220604E0,1.5265366E1,9.10947E0,8.2079735E0,7.8669977E0,7.1712837E0,1.3990387E1,1.5242587E1,1.4733627E1,6.7956758E0,6.529457E0,1.0731781E1,1.1399942E1,8.392206E0,7.7126503E0,7.1969023E0,4.8385553E0,4.9903297E0,5.724182E0,6.9761953E0,3.6304913E0,0E0,7.9686737E0,0E0,0E0,0E0,0E0,0E0,0E0,0E0,0E0,0E0,0E0,0E0,0E0,0E0,0E0,0E0,0E0,0E0,0E0,0E0,0E0,0E0,0E0,0E0,0E0,0E0,0E0,0E0,0E0,0E0,0E0],"parents":[2147483647,0,0,1,1,2,2,3,3,4,4,5,5,6,6,7,7,8,8,9,9,10,10,11,11,12,12,13,13,14,14,15,15,16,16,17,17,18,18,19,19,20,20,21,21,22,22,23,23,24,24,25,25,26,26,27,27,28,28,30,30],"right_children":[2,4,6,8,10,12,14,16,18,20,22,24,26,28,30,32,34,36,38,40,42,44,46,48,50,52,54,56,58,-1,60,-1,-1,-1,-1,-1,-1,-1,-1,-1,-1,-1,-1,-1,-1,-1,-1,-1,-1,-1,-1,-1,-1,-1,-1,-1,-1,-1,-1,-1,-1],"split_conditions":[1.9E1,1.5E0,-1.4E0,3.3E0,1E1,3.28E1,2.4E1,1.8E1,6E0,3.32E1,2.54E1,2.18E1,1.039E2,2.3E1,1.49E1,-2.4E0,1.5E1,1.3E1,4E0,7.08E-1,5.6E0,8E0,1.4E1,1.8E1,8.19E1,4.29E1,2.6E1,4E0,1.4E1,5.522276E-4,1.87E1,4.5940992E-3,-1.585041E-3,2.8895127E-4,7.864006E-3,7.865574E-3,-1.7404999E-4,7.6180475E-4,9.372547E-3,5.7532615E-3,-5.2545156E-4,3.6143808E-4,-1.0014658E-2,7.452619E-4,-4.612663E-3,-1.348564E-2,-1.8774742E-3,2.2101616E-3,1.2578232E-2,-6.176676E-3,1.3297582E-3,-5.0899982E-3,2.7490691E-3,-9.277774E-3,-1.8470735E-5,4.1682567E-3,-4.536732E-3,-4.1205473E-3,-1.2750106E-2,-7.465235E-4,-1.1431522E-2],"split_indices":[28,77,77,25,51,67,51,32,49,61,12,64,76,34,63,77,85,84,91,55,72,40,95,78,58,16,34,101,18,0,61,0,0,0,0,0,0,0,0,0,0,0,0,0,0,0,0,0,0,0,0,0,0,0,0,0,0,0,0,0,0],"split_type":[0,0,0,0,0,0,0,0,0,0,0,0,0,0,0,0,0,0,0,0,0,0,0,0,0,0,0,0,0,0,0,0,0,0,0,0,0,0,0,0,0,0,0,0,0,0,0,0,0,0,0,0,0,0,0,0,0,0,0,0,0],"sum_hessian":[1.13107E3,7.61667E2,3.6940292E2,4.326101E2,3.2905692E2,1.3773195E2,2.3167096E2,2.5611572E2,1.7649438E2,1.6033629E2,1.6872064E2,7.124844E1,6.648351E1,8.600529E1,1.4566568E2,1.4254097E2,1.1357474E2,3.4022648E1,1.4247174E2,1.15962E2,4.4374287E1,1.4224228E2,2.6478365E1,2.9725798E1,4.1522644E1,2.761374E1,3.8869774E1,5.945414E1,2.6551146E1,9.116478E0,1.365492E2,6.231856E1,8.022241E1,3.5300423E1,7.8274315E1,1.5681228E1,1.8341421E1,1.0396183E1,1.3207556E2,8.448951E1,3.1472488E1,3.241294E1,1.1961344E1,3.139676E1,1.1084551E2,1.6677992E1,9.800373E0,1.9990099E1,9.735698E0,9.054828E0,3.2467815E1,1.17448435E1,1.58688965E1,2.9569874E1,9.299898E0,8.350662E0,5.1103477E1,1.17852125E1,1.4765933E1,8.137871E0,1.2841133E2],"tree_param":{"num_deleted":"0","num_feature":"106","num_nodes":"61","size_leaf_vector":"1"}},{"base_weights":[-1.9134106E-3,4.0471402E-1,-3.806409E-1,2.3690781E-1,1.0825729E0,-8.4805995E-2,-7.9270476E-1,5.015864E-1,-2.8320374E-2,1.1869215E0,-0E0,-5.048488E-1,1.5378447E-1,-9.393937E-1,-1.2901981E-1,-1.24817505E-1,6.1460406E-1,-2.8383046E-1,2.3781657E-1,1.2585645E0,5.4293317E-3,1.6876698E-1,-6.200676E-1,4.794019E-1,-2.2320485E-2,-0E0,-1.0203421E0,-5.246628E-1,1.794376E-1,2.2140997E-3,-8.207033E-3,-2.7573225E-3,6.5380028E-3,-5.0052265E-3,6.81949E-5,3.712978E-4,7.536933E-3,8.31655E-3,1.2871284E-2,5.4180017E-3,-2.155876E-3,-4.0884176E-3,-1.08258845E-2,6.166272E-3,-3.8660955E-4,-6.8556285E-3,9.3042623E-4,-1.2291573E-2,-7.4492074E-3,-0E0,-9.41396E-3,-4.709723E-3,5.8688335E-3],"categories":[],"categories_nodes":[],"categories_segments":[],"categories_sizes":[],"default_left":[0,0,0,0,0,0,0,0,0,0,0,0,0,0,0,0,0,0,0,0,0,0,0,0,0,0,0,0,0,0,0,0,0,0,0,0,0,0,0,0,0,0,0,0,0,0,0,0,0,0,0,0,0],"id":11,"left_children":[1,3,5,7,9,11,13,15,17,19,-1,21,23,25,27,29,31,33,35,37,-1,39,41,43,45,-1,47,49,51,-1,-1,-1,-1,-1,-1,-1,-1,-1,-1,-1,-1,-1,-1,-1,-1,-1,-1,-1,-1,-1,-1,-1,-1],"loss_changes":[1.7567268E2,6.132657E1,7.143848E1,3.1388596E1,1.19856415E1,3.502114E1,2.3103989E1,1.6177776E1,1.5074849E1,2.4130096E0,0E0,1.0243599E1,1.2972663E1,1.5696182E1,5.989315E0,9.596766E0,1.3366615E1,8.484563E0,1.1236416E1,6.6589355E-1,0E0,3.2739198E0,9.235901E0,7.46949E0,1.2534762E1,0E0,9.649353E0,4.6396427E0,8.00054E0,0E0,0E0,0E0,0E0,0E0,0E0,0E0,0E0,0E0,0E0,0E0,0E0,0E0,0E0,0E0,0E0,0E0,0E0,0E0,0E0,0E0,0E0,0E0,0E0],"parents":[2147483647,0,0,1,1,2,2,3,3,4,4,5,5,6,6,7,7,8,8,9,9,11,11,12,12,13,13,14,14,15,15,16,16,17,17,18,18,19,19,21,21,22,22,23,23,24,24,26,26,27,27,28,28],"right_children":[2,4,6,8,10,12,14,16,18,20,-1,22,24,26,28,30,32,34,36,38,-1,40,42,44,46,-1,48,50,52,-1,-1,-1,-1,-1,-1,-1,-1,-1,-1,-1,-1,-1,-1,-1,-1,-1,-1,-1,-1,-1,-1,-1,-1],"split_conditions":[1.5E1,2.3E1,5.45E-1,8E0,4.13E1,-4.7E0,2.3E1,4E0,1.4E1,2.19E1,-0E0,3E0,3.56E-1,5E0,1E1,1.1E1,1.28E1,1.8E1,2.5E1,7.48E-1,5.4293317E-3,2.1E1,2.3E1,1.55E1,2.08E1,-0E0,-3.2E0,2E1,1.2E1,2.2140997E-3,-8.207033E-3,-2.7573225E-3,6.5380028E-3,-5.0052265E-3,6.81949E-5,3.712978E-4,7.536933E-3,8.31655E-3,1.2871284E-2,5.4180017E-3,-2.155876E-3,-4.0884176E-3,-1.08258845E-2,6.166272E-3,-3.8660955E-4,-6.8556285E-3,9.3042623E-4,-1.2291573E-2,-7.4492074E-3,-0E0,-9.41396E-3,-4.709723E-3,5.8688335E-3],"split_indices":[51,80,55,51,57,25,98,81,99,75,0,78,55,53,102,50,18,90,64,65,0,98,53,18,17,0,25,47,38,0,0,0,0,0,0,0,0,0,0,0,0,0,0,0,0,0,0,0,0,0,0,0,0],"split_type":[0,0,0,0,0,0,0,0,0,0,0,0,0,0,0,0,0,0,0,0,0,0,0,0,0,0,0,0,0,0,0,0,0,0,0,0,0,0,0,0,0,0,0,0,0,0,0,0,0,0,0,0,0],"sum_hessian":[1.139114E3,5.483972E2,5.907168E2,4.4134238E2,1.0705482E2,3.4545264E2,2.4526419E2,2.218468E2,2.1949557E2,9.7421936E1,9.632877E0,1.2586316E2,2.1958948E2,1.9970532E2,4.5558876E1,3.294123E1,1.8890558E2,1.1330586E2,1.0618971E2,8.540786E1,1.2014083E1,1.7431704E1,1.0843146E2,7.796123E1,1.4162823E2,1.5484683E1,1.8422063E2,2.06959E1,2.4862976E1,2.19584E1,1.098283E1,1.35678005E1,1.7533777E2,6.25438E1,5.0762062E1,7.989762E1,2.6292091E1,2.0872723E1,6.453513E1,9.337185E0,8.09452E0,8.178428E1,2.6647175E1,5.9519974E1,1.8441256E1,2.0999928E1,1.2062831E2,8.137867E1,1.0284196E2,1.0836615E1,9.859286E0,9.120326E0,1.5742651E1],"tree_param":{"num_deleted":"0","num_feature":"106","num_nodes":"53","size_leaf_vector":"1"}},{"base_weights":[3.3399235E-2,3.4840044E-1,-6.083908E-1,-1.0471094E-1,6.9410086E-1,2.723142E-3,-7.6847017E-1,1.9788948E-1,-3.499933E-1,9.2276746E-1,4.3513697E-1,3.1068435E-1,-5.42627E-1,-8.828921E-1,-2.76564E-1,4.5645502E-1,-1.4821392E-1,-4.2581382E-1,6.7863027E-3,9.724838E-1,7.5844384E-4,2.0802039E-1,7.322362E-1,6.8991685E-1,-2.0751685E-2,-7.6124416E-4,-1.0621647E-2,-1.1700872E0,-6.686952E-1,2.6646507E-1,-5.8302426E-1,-4.7534637E-4,6.6663185E-3,5.2121324E-3,-4.7495356E-3,-3.1297943E-3,-1.0440719E-2,1.20231954E-4,9.547953E-3,-5.301071E-3,3.2168059E-3,-0E0,7.916127E-3,9.4835105E-4,1.0115959E-2,2.9997965E-3,-3.4598354E-3,-8.6048787E-4,-1.1921807E-2,-8.5600466E-4,-7.85714E-3,7.6122037E-3,-2.0188875E-3,-7.9822745E-3,2.2360345E-3],"categories":[],"categories_nodes":[],"categories_segments":[],"categories_sizes":[],"default_left":[0,0,0,0,0,0,0,0,0,0,0,0,0,0,0,0,0,0,0,0,0,0,0,0,0,0,0,0,0,0,0,0,0,0,0,0,0,0,0,0,0,0,0,0,0,0,0,0,0,0,0,0,0,0,0],"id":12,"left_children":[1,3,5,7,9,11,13,15,17,19,21,23,25,27,29,31,33,35,-1,37,-1,39,41,43,45,-1,-1,47,49,51,53,-1,-1,-1,-1,-1,-1,-1,-1,-1,-1,-1,-1,-1,-1,-1,-1,-1,-1,-1,-1,-1,-1,-1,-1],"loss_changes":[2.2864284E2,1.1951153E2,3.692581E1,2.4566101E1,2.428125E1,1.2937702E1,1.5612579E1,1.3379857E1,1.4860628E1,8.711655E0,1.3084114E1,6.8536563E0,6.377985E0,1.2689529E1,1.0043353E1,1.1143909E1,1.5499483E1,9.800642E0,0E0,6.4107666E0,0E0,1.2012445E1,6.700184E0,4.571575E0,3.2547832E0,0E0,0E0,8.33989E0,1.2252968E1,5.9040666E0,8.72643E0,0E0,0E0,0E0,0E0,0E0,0E0,0E0,0E0,0E0,0E0,0E0,0E0,0E0,0E0,0E0,0E0,0E0,0E0,0E0,0E0,0E0,0E0,0E0,0E0],"parents":[2147483647,0,0,1,1,2,2,3,3,4,4,5,5,6,6,7,7,8,8,9,9,10,10,11,11,12,12,13,13,14,14,15,15,16,16,17,17,19,19,21,21,22,22,23,23,24,24,27,27,28,28,29,29,30,30],"right_children":[2,4,6,8,10,12,14,16,18,20,22,24,26,28,30,32,34,36,-1,38,-1,40,42,44,46,-1,-1,48,50,52,54,-1,-1,-1,-1,-1,-1,-1,-1,-1,-1,-1,-1,-1,-1,-1,-1,-1,-1,-1,-1,-1,-1,-1,-1],"split_conditions":[1.9E1,1.2E1,3.59E-1,9E0,-1.8E0,2.7E1,1.099E2,4.9E0,2.6E1,4.68E-1,3.2E0,3.23E1,2.3E1,-5.9E0,2E1,9E0,3E0,8.9E0,6.7863027E-3,7.97E1,7.5844384E-4,6.7E0,1.9E1,1.3E1,1.6E1,-7.6124416E-4,-1.0621647E-2,8E0,3.44E-1,8.89E1,2.12E1,-4.7534637E-4,6.6663185E-3,5.2121324E-3,-4.7495356E-3,-3.1297943E-3,-1.0440719E-2,1.20231954E-4,9.547953E-3,-5.301071E-3,3.2168059E-3,-0E0,7.916127E-3,9.4835105E-4,1.0115959E-2,2.9997965E-3,-3.4598354E-3,-8.6048787E-4,-1.1921807E-2,-8.5600466E-4,-7.85714E-3,7.6122037E-3,-2.0188875E-3,-7.9822745E-3,2.2360345E-3],"split_indices":[28,81,55,51,77,51,24,77,102,59,25,67,35,25,53,44,28,77,0,58,0,19,23,32,46,0,0,52,62,58,74,0,0,0,0,0,0,0,0,0,0,0,0,0,0,0,0,0,0,0,0,0,0,0,0],"split_type":[0,0,0,0,0,0,0,0,0,0,0,0,0,0,0,0,0,0,0,0,0,0,0,0,0,0,0,0,0,0,0,0,0,0,0,0,0,0,0,0,0,0,0,0,0,0,0,0,0,0,0,0,0,0,0],"sum_hessian":[1.1301178E3,7.590535E2,3.710643E2,3.2787125E2,4.3118228E2,7.6284485E1,2.9477982E2,1.4557274E2,1.8229852E2,2.2636935E2,2.0481291E2,4.9816086E1,2.6468403E1,2.374336E2,5.7346226E1,8.433259E1,6.124015E1,1.7129245E2,1.1006074E1,2.128441E2,1.352526E1,1.18251465E2,8.6561455E1,2.3790941E1,2.6025145E1,1.5927279E1,1.0541122E1,9.838656E1,1.3904704E2,1.9898705E1,3.744752E1,2.6917074E1,5.7415516E1,1.9729397E1,4.1510754E1,1.5209172E2,1.920073E1,8.20002E0,2.0464407E2,1.609022E1,1.0216125E2,1.061033E1,7.5951126E1,1.0434637E1,1.3356305E1,1.2147362E1,1.3877782E1,8.125448E0,9.026111E1,3.1409191E1,1.0763785E2,9.8095255E0,1.0089179E1,2.9082672E1,8.364846E0],"tree_param":{"num_deleted":"0","num_feature":"106","num_nodes":"55","size_leaf_vector":"1"}},{"base_weights":[2.36592E-2,-4.9962503E-1,3.3709988E-1,2.6248652E-1,-6.826112E-1,-1.2031115E-1,6.055523E-1,-3.643807E-1,5.146866E-1,-1.2338493E0,-5.5927396E-1,-6.5973824E-1,1.8549833E-2,4.7537494E-1,1.1216003E0,-9.079676E-3,1.4529342E-3,7.1518004E-1,-3.5438308E-4,-1.4657186E0,-7.92675E-1,-2.0318039E-1,-7.8287894E-1,-1.3288056E-2,-4.2484215E-1,5.0231004E-1,-8.37713E-2,2.5171816E-1,7.081179E-1,7.0321274E-1,1.3753531E0,8.163942E-3,5.464874E-5,-7.1387053E-3,-1.5368102E-2,-1.1669663E-2,-2.668276E-4,-4.3227696E-3,1.0219641E-3,-8.65331E-3,-1.2788428E-3,-0E0,-1.0121133E-2,7.5218547E-3,-8.266846E-4,1.7374483E-4,-6.8712365E-3,-3.8629838E-3,3.0955353E-3,-7.775715E-4,7.554774E-3,2.1219014E-3,1.0288917E-2,1.3822986E-2,7.044451E-3],"categories":[],"categories_nodes":[],"categories_segments":[],"categories_sizes":[],"default_left":[0,0,0,0,0,0,0,0,0,0,0,0,0,0,0,0,0,0,0,0,0,0,0,0,0,0,0,0,0,0,0,0,0,0,0,0,0,0,0,0,0,0,0,0,0,0,0,0,0,0,0,0,0,0,0],"id":13,"left_children":[1,3,5,7,9,11,13,15,17,19,21,23,25,27,29,-1,-1,31,-1,33,35,37,39,-1,41,43,45,47,49,51,53,-1,-1,-1,-1,-1,-1,-1,-1,-1,-1,-1,-1,-1,-1,-1,-1,-1,-1,-1,-1,-1,-1,-1,-1],"loss_changes":[1.875741E2,6.011483E1,8.838025E1,1.33436775E1,2.1665207E1,2.02914E1,2.8819748E1,7.8926E0,7.15765E0,3.699562E0,2.1888458E1,7.832449E0,1.0741969E1,1.811818E1,7.1990433E0,0E0,0E0,4.058857E0,0E0,1.5169983E0,7.1638727E0,9.130421E0,1.37962265E1,0E0,1.2415975E1,7.089491E0,1.1843261E1,9.360238E0,1.2948959E1,5.570383E0,3.3335114E-1,0E0,0E0,0E0,0E0,0E0,0E0,0E0,0E0,0E0,0E0,0E0,0E0,0E0,0E0,0E0,0E0,0E0,0E0,0E0,0E0,0E0,0E0,0E0,0E0],"parents":[2147483647,0,0,1,1,2,2,3,3,4,4,5,5,6,6,7,7,8,8,9,9,10,10,11,11,12,12,13,13,14,14,17,17,19,19,20,20,21,21,22,22,24,24,25,25,26,26,27,27,28,28,29,29,30,30],"right_children":[2,4,6,8,10,12,14,16,18,20,22,24,26,28,30,-1,-1,32,-1,34,36,38,40,-1,42,44,46,48,50,52,54,-1,-1,-1,-1,-1,-1,-1,-1,-1,-1,-1,-1,-1,-1,-1,-1,-1,-1,-1,-1,-1,-1,-1,-1],"split_conditions":[4.62E-1,3.59E-1,1.1E1,2.71E-1,5E0,3E-1,2.7E1,1.8E1,3.99E1,4.42E1,2.4E1,1.61E1,4E0,6E-1,7.5E-1,-9.079676E-3,1.4529342E-3,3.15E1,-3.5438308E-4,4.11E1,2E1,8.64E1,4.02E1,-1.3288056E-2,5.2E0,2E1,2.5E1,5E0,9E0,2.1E1,3.83E-1,8.163942E-3,5.464874E-5,-7.1387053E-3,-1.5368102E-2,-1.1669663E-2,-2.668276E-4,-4.3227696E-3,1.0219641E-3,-8.65331E-3,-1.2788428E-3,-0E0,-1.0121133E-2,7.5218547E-3,-8.266846E-4,1.7374483E-4,-6.8712365E-3,-3.8629838E-3,3.0955353E-3,-7.775715E-4,7.554774E-3,2.1219014E-3,1.0288917E-2,1.3822986E-2,7.044451E-3],"split_indices":[3,55,103,3,103,25,103,94,5,16,51,11,43,3,65,0,0,9,0,16,84,58,5,0,20,92,98,83,52,94,10,0,0,0,0,0,0,0,0,0,0,0,0,0,0,0,0,0,0,0,0,0,0,0,0],"split_type":[0,0,0,0,0,0,0,0,0,0,0,0,0,0,0,0,0,0,0,0,0,0,0,0,0,0,0,0,0,0,0,0,0,0,0,0,0,0,0,0,0,0,0,0,0,0,0,0,0,0,0,0,0,0,0],"sum_hessian":[1.1425701E3,4.2697757E2,7.155925E2,8.185143E1,3.4512616E2,2.6385815E2,4.5173434E2,2.2571001E1,5.928043E1,6.0640533E1,2.8448563E2,5.4396553E1,2.0946161E2,3.6314645E2,8.858789E1,1.0808786E1,1.1762214E1,4.423773E1,1.5042702E1,3.739235E1,2.3248184E1,1.1158308E2,1.7290254E2,1.1328847E1,4.3067703E1,3.718472E1,1.7227689E2,1.876459E2,1.7550056E2,3.5718212E1,5.2869682E1,3.5706005E1,8.531722E0,8.413938E0,2.8978413E1,1.3855038E1,9.393147E0,6.257221E1,4.9010868E1,1.4280429E2,3.0098242E1,2.6083836E1,1.698387E1,2.549022E1,1.1694502E1,1.4838287E2,2.3894007E1,1.7783928E1,1.6986197E2,1.6953777E1,1.5854678E2,1.726988E1,1.8448332E1,4.475709E1,8.11259E0],"tree_param":{"num_deleted":"0","num_feature":"106","num_nodes":"55","size_leaf_vector":"1"}},{"base_weights":[4.2274594E-3,-5.1785445E-1,3.1927556E-1,-5.4821618E-2,-8.1248504E-1,5.97963E-1,-5.1004123E-2,-4.6557862E-1,1.8404703E-1,-2.9280087E-1,-9.028193E-1,4.337292E-1,9.0237063E-1,-2.7924174E-1,3.3445907E-1,-7.817982E-2,-9.7438186E-1,-2.765471E-2,5.187892E-1,4.9233478E-2,-7.85566E-3,-7.1269596E-1,-1.2464906E0,2.0898588E-1,8.016095E-1,-0E0,9.6192074E-1,-1.4197014E-1,-9.4700444E-1,-1.15886144E-1,5.368036E-1,2.874158E-3,-5.074721E-3,-1.2708315E-2,-2.559716E-3,3.1263933E-3,-2.8758945E-3,7.838454E-3,-2.316926E-3,-2.5275107E-3,6.4616613E-3,-1.14929E-3,-7.688024E-3,-7.806215E-3,-1.3843342E-2,2.6067314E-3,-4.524653E-3,2.7538831E-3,9.280183E-3,-0E0,9.730986E-3,-1.9010433E-3,7.231312E-3,-1.6736417E-3,-1.1247054E-2,5.0353073E-3,-3.5639554E-3,7.059909E-3,-8.953221E-4],"categories":[],"categories_nodes":[],"categories_segments":[],"categories_sizes":[],"default_left":[0,0,0,0,0,0,0,0,0,0,0,0,0,0,0,0,0,0,0,0,0,0,0,0,0,0,0,0,0,0,0,0,0,0,0,0,0,0,0,0,0,0,0,0,0,0,0,0,0,0,0,0,0,0,0,0,0,0,0],"id":14,"left_children":[1,3,5,7,9,11,13,15,17,19,21,23,25,27,29,31,33,35,37,39,-1,41,43,45,47,-1,49,51,53,55,57,-1,-1,-1,-1,-1,-1,-1,-1,-1,-1,-1,-1,-1,-1,-1,-1,-1,-1,-1,-1,-1,-1,-1,-1,-1,-1,-1,-1],"loss_changes":[1.8518242E2,5.708339E1,7.300927E1,1.6600613E1,1.1024307E1,1.8846817E1,2.659458E1,1.1515937E1,7.7822485E0,8.023741E0,1.2092941E1,2.102377E1,7.8616257E0,1.66419E1,1.0509794E1,6.7930846E0,5.303808E0,6.346648E0,1.0443486E1,5.399791E0,0E0,7.615448E0,4.1554337E0,7.520909E0,7.826195E0,0E0,7.6938553E0,8.242626E0,4.6858177E0,5.817318E0,1.078191E1,0E0,0E0,0E0,0E0,0E0,0E0,0E0,0E0,0E0,0E0,0E0,0E0,0E0,0E0,0E0,0E0,0E0,0E0,0E0,0E0,0E0,0E0,0E0,0E0,0E0,0E0,0E0,0E0],"parents":[2147483647,0,0,1,1,2,2,3,3,4,4,5,5,6,6,7,7,8,8,9,9,10,10,11,11,12,12,13,13,14,14,15,15,16,16,17,17,18,18,19,19,21,21,22,22,23,23,24,24,26,26,27,27,28,28,29,29,30,30],"right_children":[2,4,6,8,10,12,14,16,18,20,22,24,26,28,30,32,34,36,38,40,-1,42,44,46,48,-1,50,52,54,56,58,-1,-1,-1,-1,-1,-1,-1,-1,-1,-1,-1,-1,-1,-1,-1,-1,-1,-1,-1,-1,-1,-1,-1,-1,-1,-1,-1,-1],"split_conditions":[-1.1E0,-1E0,5.45E-1,3.21E-1,1.001E2,4.4E0,4.5E0,2.14E1,7.8E0,1.4E1,3.4E1,2.3E1,2E0,3.6E1,4.2E0,3.3E1,3.46E-1,-5.1E0,1.57E1,1.75E1,-7.85566E-3,1.2E1,4.7E0,8.11E-1,1.64E1,-0E0,8.6E0,2.8E1,1E1,4.61E-1,1.8E1,2.874158E-3,-5.074721E-3,-1.2708315E-2,-2.559716E-3,3.1263933E-3,-2.8758945E-3,7.838454E-3,-2.316926E-3,-2.5275107E-3,6.4616613E-3,-1.14929E-3,-7.688024E-3,-7.806215E-3,-1.3843342E-2,2.6067314E-3,-4.524653E-3,2.7538831E-3,9.280183E-3,-0E0,9.730986E-3,-1.9010433E-3,7.231312E-3,-1.6736417E-3,-1.1247054E-2,5.0353073E-3,-3.5639554E-3,7.059909E-3,-8.953221E-4],"split_indices":[25,77,55,3,76,25,25,22,19,82,2,80,37,67,73,67,10,77,18,11,0,33,72,65,11,0,66,41,47,7,78,0,0,0,0,0,0,0,0,0,0,0,0,0,0,0,0,0,0,0,0,0,0,0,0,0,0,0,0],"split_type":[0,0,0,0,0,0,0,0,0,0,0,0,0,0,0,0,0,0,0,0,0,0,0,0,0,0,0,0,0,0,0,0,0,0,0,0,0,0,0,0,0,0,0,0,0,0,0,0,0,0,0,0,0,0,0,0,0,0,0],"sum_hessian":[1.1249858E3,4.2233008E2,7.026557E2,1.6555766E2,2.567724E2,4.0169724E2,3.009585E2,6.1660927E1,1.03896736E2,3.971999E1,2.1705243E2,2.637831E2,1.3791412E2,1.9032858E2,1.10629906E2,3.6357018E1,2.5303911E1,6.2838615E1,4.1058125E1,2.3920492E1,1.5799499E1,1.4276732E2,7.428511E1,1.6577446E2,9.800866E1,8.154101E0,1.2976003E2,1.5961543E2,3.0713148E1,3.3330883E1,7.729903E1,1.9138836E1,1.721818E1,1.5476339E1,9.827572E0,2.617695E1,3.6661667E1,2.9855543E1,1.12025795E1,1.5541288E1,8.379204E0,2.1657015E1,1.211103E2,2.7463854E1,4.6821255E1,1.5263461E2,1.3139842E1,2.6866644E1,7.114201E1,8.642095E0,1.2111793E2,1.5126979E2,8.345637E0,8.336963E0,2.2376186E1,8.522118E0,2.4808765E1,5.8864452E1,1.843457E1],"tree_param":{"num_deleted":"0","num_feature":"106","num_nodes":"59","size_leaf_vector":"1"}},{"base_weights":[-1.4996715E-3,2.774643E-1,-5.012403E-1,1.2392056E-1,8.973192E-1,-1.3562627E-1,-8.815918E-1,-1.3137515E-1,4.0881485E-1,9.9172264E-1,2.1301782E-1,-3.6399138E-1,3.484824E-1,-1.2880901E0,-6.58655E-1,-4.3064174E-1,1.655487E-2,-1.668178E-1,5.9825945E-1,1.271484E-3,1.0465916E0,6.783948E-3,-2.8161604E-3,-5.5364835E-1,2.74833E-2,5.6069857E-1,-6.5673655E-3,-1.416525E0,-2.248606E-3,-1.769157E-1,-8.3131325E-1,-5.7681534E-3,9.3153346E-4,1.4687174E-3,-3.1205625E-3,1.0419352E-3,-4.572907E-3,-2.1650854E-3,6.348531E-3,1.1934408E-2,6.3368017E-3,-1.580528E-3,-7.8118737E-3,-4.0678065E-3,3.997672E-3,-1.4415564E-4,7.846852E-3,-1.5399141E-2,-8.484118E-3,4.082232E-3,-5.6107687E-3,-9.136878E-3,-7.19343E-4],"categories":[],"categories_nodes":[],"categories_segments":[],"categories_sizes":[],"default_left":[0,0,0,0,0,0,0,0,0,0,0,0,0,0,0,0,0,0,0,0,0,0,0,0,0,0,0,0,0,0,0,0,0,0,0,0,0,0,0,0,0,0,0,0,0,0,0,0,0,0,0,0,0],"id":15,"left_children":[1,3,5,7,9,11,13,15,17,19,21,23,25,27,29,31,33,35,37,-1,39,-1,-1,41,43,45,-1,47,-1,49,51,-1,-1,-1,-1,-1,-1,-1,-1,-1,-1,-1,-1,-1,-1,-1,-1,-1,-1,-1,-1,-1,-1],"loss_changes":[1.5798985E2,6.824916E1,5.570665E1,4.2681488E1,8.207901E0,2.3250042E1,1.585257E1,1.3892861E1,3.0627666E1,4.906929E0,5.4370995E0,1.1043528E1,1.4938891E1,7.743492E0,1.0044884E1,1.0120344E1,9.719E0,6.283497E0,1.2839935E1,0E0,7.247238E0,0E0,0E0,9.436197E0,8.515189E0,9.243401E0,0E0,3.478279E0,0E0,9.584509E0,8.721649E0,0E0,0E0,0E0,0E0,0E0,0E0,0E0,0E0,0E0,0E0,0E0,0E0,0E0,0E0,0E0,0E0,0E0,0E0,0E0,0E0,0E0,0E0],"parents":[2147483647,0,0,1,1,2,2,3,3,4,4,5,5,6,6,7,7,8,8,9,9,10,10,11,11,12,12,13,13,14,14,15,15,16,16,17,17,18,18,20,20,23,23,24,24,25,25,27,27,29,29,30,30],"right_children":[2,4,6,8,10,12,14,16,18,20,22,24,26,28,30,32,34,36,38,-1,40,-1,-1,42,44,46,-1,48,-1,50,52,-1,-1,-1,-1,-1,-1,-1,-1,-1,-1,-1,-1,-1,-1,-1,-1,-1,-1,-1,-1,-1,-1],"split_conditions":[1.8E1,2.3E1,5.12E-1,2.9E0,4.03E1,-2.7E0,-6E0,8E0,6E0,3E0,2.02E1,2.5E1,7E1,3.46E1,2E0,2.2E1,2.3E1,2.02E1,3E0,1.271484E-3,3.16E-1,6.783948E-3,-2.8161604E-3,2E1,2.4E1,3.41E-1,-6.5673655E-3,1.05E1,-2.248606E-3,1.66E1,8.97E1,-5.7681534E-3,9.3153346E-4,1.4687174E-3,-3.1205625E-3,1.0419352E-3,-4.572907E-3,-2.1650854E-3,6.348531E-3,1.1934408E-2,6.3368017E-3,-1.580528E-3,-7.8118737E-3,-4.0678065E-3,3.997672E-3,-1.4415564E-4,7.846852E-3,-1.5399141E-2,-8.484118E-3,4.082232E-3,-5.6107687E-3,-9.136878E-3,-7.19343E-4],"split_indices":[28,80,55,25,57,25,25,103,103,30,23,81,52,15,105,33,90,22,90,0,55,0,0,47,2,62,0,8,0,11,6,0,0,0,0,0,0,0,0,0,0,0,0,0,0,0,0,0,0,0,0,0,0],"split_type":[0,0,0,0,0,0,0,0,0,0,0,0,0,0,0,0,0,0,0,0,0,0,0,0,0,0,0,0,0,0,0,0,0,0,0,0,0,0,0,0,0,0,0,0,0,0,0,0,0,0,0,0,0],"sum_hessian":[1.1304276E3,7.248022E2,4.056254E2,5.826452E2,1.4215698E2,2.0835962E2,1.972658E2,3.0622437E2,2.7642084E2,1.2367814E2,1.8478846E1,1.4270985E2,6.564976E1,6.729291E1,1.2997289E2,1.023299E2,2.0389449E2,6.754991E1,2.0887093E2,8.38806E0,1.1529008E2,9.828768E0,8.650077E0,9.710846E1,4.5601402E1,5.542799E1,1.02217655E1,5.9099644E1,8.193267E0,3.582932E1,9.414356E1,7.747578E1,2.4854126E1,1.4740855E2,5.648592E1,3.5100227E1,3.2449684E1,1.5692861E1,1.9317807E2,7.1331924E1,4.3958157E1,4.1601048E1,5.550741E1,2.0265738E1,2.5335663E1,1.69843E1,3.844369E1,3.997681E1,1.9122833E1,1.3838438E1,2.1990883E1,7.908862E1,1.5054941E1],"tree_param":{"num_deleted":"0","num_feature":"106","num_nodes":"53","size_leaf_vector":"1"}},{"base_weights":[8.744631E-4,-3.5173967E-1,4.2590758E-1,-6.5681554E-2,-7.360891E-1,-1.0759538E-1,7.215227E-1,-5.090068E-1,1.2160342E-1,-4.620329E-1,-9.6060705E-1,-3.9325285E-1,1.4108649E-1,-0E0,7.943329E-1,-7.240359E-1,7.987843E-3,5.659973E-1,-2.2702906E-2,-5.925268E-1,-0E0,-1.0201334E0,-0E0,-7.4030244E-1,8.8031754E-2,3.730246E-1,-3.866565E-1,-5.719724E-3,5.2696494E-3,6.415481E-1,1.0670407E0,-9.026409E-3,-2.751114E-3,3.4908466E-3,-5.9285825E-3,9.32122E-3,2.9674605E-3,-5.61865E-3,6.4826215E-4,-1.0380946E-3,-7.3708855E-3,6.782582E-3,-3.5159306E-3,-3.104912E-3,-1.0741891E-2,-8.891898E-3,-7.085735E-4,3.727369E-3,-7.088523E-3,6.1035706E-3,-1.1187609E-3,8.476977E-4,-8.038219E-3,6.761565E-3,-6.0324516E-4,2.0640003E-3,1.0784928E-2],"categories":[],"categories_nodes":[],"categories_segments":[],"categories_sizes":[],"default_left":[0,0,0,0,0,0,0,0,0,0,0,0,0,0,0,0,0,0,0,0,0,0,0,0,0,0,0,0,0,0,0,0,0,0,0,0,0,0,0,0,0,0,0,0,0,0,0,0,0,0,0,0,0,0,0,0,0],"id":16,"left_children":[1,3,5,7,9,11,13,15,17,19,21,23,25,27,29,31,33,35,37,39,41,43,-1,45,47,49,51,-1,-1,53,55,-1,-1,-1,-1,-1,-1,-1,-1,-1,-1,-1,-1,-1,-1,-1,-1,-1,-1,-1,-1,-1,-1,-1,-1,-1,-1],"loss_changes":[1.6576073E2,6.57356E1,7.971081E1,2.9214706E1,1.43875885E1,1.2939335E1,1.7187119E1,1.2139936E1,1.6052908E1,7.4990196E0,7.848633E0,1.4686793E1,1.1741879E1,1.0469586E1,1.0484619E1,6.2979813E0,7.004786E0,5.2699146E0,9.95699E0,7.652672E0,7.3218994E0,8.876419E0,0E0,5.8385353E0,9.049965E0,9.396096E0,6.859325E0,0E0,0E0,1.0251617E1,5.012352E0,0E0,0E0,0E0,0E0,0E0,0E0,0E0,0E0,0E0,0E0,0E0,0E0,0E0,0E0,0E0,0E0,0E0,0E0,0E0,0E0,0E0,0E0,0E0,0E0,0E0,0E0],"parents":[2147483647,0,0,1,1,2,2,3,3,4,4,5,5,6,6,7,7,8,8,9,9,10,10,11,11,12,12,13,13,14,14,15,15,16,16,17,17,18,18,19,19,20,20,21,21,23,23,24,24,25,25,26,26,29,29,30,30],"right_children":[2,4,6,8,10,12,14,16,18,20,22,24,26,28,30,32,34,36,38,40,42,44,-1,46,48,50,52,-1,-1,54,56,-1,-1,-1,-1,-1,-1,-1,-1,-1,-1,-1,-1,-1,-1,-1,-1,-1,-1,-1,-1,-1,-1,-1,-1,-1,-1],"split_conditions":[5.29E-1,5.41E-1,1E1,-4.9E0,2E1,1.2E1,4.1E0,2.3E1,3.19E-1,2.19E1,1.33E1,1.05E1,3.74E-1,1E1,5.4E0,2.3E1,1.62E1,1.3E1,2E0,6E0,1.1E1,5.69E-1,-0E0,6.96E-1,1.8E1,1.47E1,1.1E1,-5.719724E-3,5.2696494E-3,1.62E1,3.9E0,-9.026409E-3,-2.751114E-3,3.4908466E-3,-5.9285825E-3,9.32122E-3,2.9674605E-3,-5.61865E-3,6.4826215E-4,-1.0380946E-3,-7.3708855E-3,6.782582E-3,-3.5159306E-3,-3.104912E-3,-1.0741891E-2,-8.891898E-3,-7.085735E-4,3.727369E-3,-7.088523E-3,6.1035706E-3,-1.1187609E-3,8.476977E-4,-8.038219E-3,6.761565E-3,-6.0324516E-4,2.0640003E-3,1.0784928E-2],"split_indices":[3,55,103,25,28,91,73,101,55,22,8,66,62,30,73,79,18,90,104,30,45,55,0,3,47,18,42,0,0,70,72,0,0,0,0,0,0,0,0,0,0,0,0,0,0,0,0,0,0,0,0,0,0,0,0,0,0],"split_type":[0,0,0,0,0,0,0,0,0,0,0,0,0,0,0,0,0,0,0,0,0,0,0,0,0,0,0,0,0,0,0,0,0,0,0,0,0,0,0,0,0,0,0,0,0,0,0,0,0,0,0,0,0,0,0,0,0],"sum_hessian":[1.1039412E3,6.025477E2,5.013934E2,3.4707397E2,2.5547375E2,1.7811238E2,3.2328104E2,1.0375663E2,2.4331735E2,1.17643585E2,1.3783017E2,8.398027E1,9.413211E1,2.946008E1,2.9382095E2,7.3998314E1,2.9758312E1,6.0225025E1,1.8309233E2,9.2553825E1,2.5089766E1,1.2965869E2,8.171478E0,4.9376934E1,3.460334E1,6.649588E1,2.7636232E1,1.4263768E1,1.519631E1,1.9182176E2,1.0199918E2,4.6748478E1,2.724984E1,1.9908056E1,9.850256E0,2.0735907E1,3.9489117E1,2.5640144E1,1.5745218E2,2.7075977E1,6.5477844E1,8.84292E0,1.6246843E1,1.9550358E1,1.1010834E2,3.6976887E1,1.2400048E1,2.62995E1,8.30384E0,4.36073E1,2.288858E1,1.3190378E1,1.4445854E1,1.7499667E2,1.6825083E1,8.880334E0,9.311885E1],"tree_param":{"num_deleted":"0","num_feature":"106","num_nodes":"57","size_leaf_vector":"1"}},{"base_weights":[-3.6848255E-2,1.995205E-1,-6.7219776E-1,-9.0391055E-2,5.970453E-1,-3.6766273E-1,-9.900908E-1,2.6004395E-1,-2.8656766E-1,6.6792524E-1,-0E0,-6.8404585E-1,-0E0,-1.2297661E0,-7.523229E-1,4.444677E-1,-3.0482608E-1,-7.535416E-1,-1.2393753E-1,7.844406E-1,2.325337E-1,-7.8572845E-3,3.157151E-1,-2.5449973E-1,-1.0186297E0,3.9671704E-1,-2.5219503E-1,-1.313548E0,-4.723061E-3,-0E0,-9.885095E-1,5.804635E-3,-7.9309416E-4,-5.741725E-3,1.117965E-3,-8.96346E-3,-3.3450915E-4,4.769214E-4,-4.6707676E-3,5.6845695E-3,1.0145477E-2,-4.234959E-5,7.005048E-3,7.6713804E-3,-0E0,-4.79615E-3,4.9952245E-3,-1.1822428E-2,2.621955E-4,8.877114E-3,-0E0,4.8533394E-3,-4.849223E-3,-5.3035184E-3,-1.3361919E-2,3.614637E-3,-3.959311E-3,-4.336587E-3,-1.12246405E-2],"categories":[],"categories_nodes":[],"categories_segments":[],"categories_sizes":[],"default_left":[0,0,0,0,0,0,0,0,0,0,0,0,0,0,0,0,0,0,0,0,0,0,0,0,0,0,0,0,0,0,0,0,0,0,0,0,0,0,0,0,0,0,0,0,0,0,0,0,0,0,0,0,0,0,0,0,0,0,0],"id":17,"left_children":[1,3,5,7,9,11,13,15,17,19,21,23,25,27,29,31,33,35,37,39,41,-1,43,45,47,49,51,53,-1,55,57,-1,-1,-1,-1,-1,-1,-1,-1,-1,-1,-1,-1,-1,-1,-1,-1,-1,-1,-1,-1,-1,-1,-1,-1,-1,-1,-1,-1],"loss_changes":[1.749189E2,9.797231E1,2.9323547E1,3.3720024E1,1.5223984E1,1.945468E1,6.5245667E0,1.8421215E1,2.3252573E1,1.5375671E1,1.04097E1,1.1659885E1,7.7557373E0,2.655014E0,1.371648E1,1.2215174E1,5.8229227E0,1.0341759E1,1.5504933E1,1.1529022E1,8.938239E0,0E0,4.8046985E0,8.273917E0,1.2557919E1,6.9499035E0,9.346195E0,2.602417E0,0E0,3.4542212E0,4.679184E0,0E0,0E0,0E0,0E0,0E0,0E0,0E0,0E0,0E0,0E0,0E0,0E0,0E0,0E0,0E0,0E0,0E0,0E0,0E0,0E0,0E0,0E0,0E0,0E0,0E0,0E0,0E0,0E0],"parents":[2147483647,0,0,1,1,2,2,3,3,4,4,5,5,6,6,7,7,8,8,9,9,10,10,11,11,12,12,13,13,14,14,15,15,16,16,17,17,18,18,19,19,20,20,22,22,23,23,24,24,25,25,26,26,27,27,29,29,30,30],"right_children":[2,4,6,8,10,12,14,16,18,20,22,24,26,28,30,32,34,36,38,40,42,-1,44,46,48,50,52,54,-1,56,58,-1,-1,-1,-1,-1,-1,-1,-1,-1,-1,-1,-1,-1,-1,-1,-1,-1,-1,-1,-1,-1,-1,-1,-1,-1,-1,-1,-1],"split_conditions":[2.2E1,1.5E1,5.15E-1,8E0,2.6E1,-4.7E0,8.58E1,6.94E-1,5E0,1.106E2,6E0,2.24E1,3.71E-1,2.6E1,1.088E2,3.39E1,3.67E-1,2.18E1,8.79E1,2.9E1,3.43E1,-7.8572845E-3,4.7E0,2.5E1,4.86E-1,1.009E2,4.7E0,1.3E1,-4.723061E-3,2E1,1.1E1,5.804635E-3,-7.9309416E-4,-5.741725E-3,1.117965E-3,-8.96346E-3,-3.3450915E-4,4.769214E-4,-4.6707676E-3,5.6845695E-3,1.0145477E-2,-4.234959E-5,7.005048E-3,7.6713804E-3,-0E0,-4.79615E-3,4.9952245E-3,-1.1822428E-2,2.621955E-4,8.877114E-3,-0E0,4.8533394E-3,-4.849223E-3,-5.3035184E-3,-1.3361919E-2,3.614637E-3,-3.959311E-3,-4.336587E-3,-1.12246405E-2],"split_indices":[29,80,55,51,36,25,58,55,85,76,32,64,55,100,76,61,10,22,6,1,61,0,21,34,55,76,21,50,0,43,49,0,0,0,0,0,0,0,0,0,0,0,0,0,0,0,0,0,0,0,0,0,0,0,0,0,0,0,0],"split_type":[0,0,0,0,0,0,0,0,0,0,0,0,0,0,0,0,0,0,0,0,0,0,0,0,0,0,0,0,0,0,0,0,0,0,0,0,0,0,0,0,0,0,0,0,0,0,0,0,0,0,0,0,0,0,0,0,0,0,0],"sum_hessian":[1.160906E3,8.4574457E2,3.1516144E2,4.8842868E2,3.5731586E2,1.6304274E2,1.521187E2,1.7390471E2,3.14524E2,3.1945544E2,3.7860397E1,8.806634E1,7.497641E1,7.2491516E1,7.962719E1,1.3218065E2,4.172406E1,7.931612E1,2.3520786E2,2.5019243E2,6.926302E1,1.0143878E1,2.771652E1,4.0146744E1,4.791959E1,2.9824059E1,4.5152348E1,6.356296E1,8.928555E0,1.9829926E1,5.979726E1,1.0120236E2,3.0978287E1,2.5131348E1,1.659271E1,6.159019E1,1.7725922E1,1.5894495E2,7.626291E1,1.5510529E2,9.508716E1,4.6816807E1,2.2446218E1,1.0823879E1,1.6892641E1,3.1284565E1,8.862181E0,3.9743843E1,8.175749E0,1.2569712E1,1.7254349E1,1.0540985E1,3.4611362E1,8.679176E0,5.4883785E1,9.664406E0,1.0165521E1,1.78453E1,4.195196E1],"tree_param":{"num_deleted":"0","num_feature":"106","num_nodes":"59","size_leaf_vector":"1"}},{"base_weights":[6.083425E-3,3.7447456E-1,-3.3139867E-1,5.3065866E-1,-2.5383234E-1,-8.8223624E-1,-1.5580085E-1,1.0825688E0,4.2106467E-1,-6.013184E-1,2.1534953E-1,-9.654758E-1,-0E0,-6.144162E-1,2.1887628E-2,1.1928234E0,2.3362918E-3,6.801817E-1,2.1048181E-1,-7.4257714E-1,1.9727892E-3,4.5180306E-1,-2.839118E-3,-5.770787E-1,-1.1589385E0,1.10068865E-1,-7.535038E-1,-5.3444624E-1,7.505855E-2,1.2819494E-2,7.948893E-3,-8.1136276E-4,7.306744E-3,7.9968935E-3,7.275973E-4,-1.052377E-2,-4.2303265E-3,-1.0947648E-3,6.559639E-3,-5.9719797E-4,-1.0424024E-2,-1.194473E-2,-3.2471367E-3,5.7241786E-3,-2.8955003E-3,-9.148174E-4,-8.808633E-3,-1.199836E-2,-8.3954656E-4,-1.4838435E-3,1.8995588E-3],"categories":[],"categories_nodes":[],"categories_segments":[],"categories_sizes":[],"default_left":[0,0,0,0,0,0,0,0,0,0,0,0,0,0,0,0,0,0,0,0,0,0,0,0,0,0,0,0,0,0,0,0,0,0,0,0,0,0,0,0,0,0,0,0,0,0,0,0,0,0,0],"id":18,"left_children":[1,3,5,7,9,11,13,15,17,19,21,23,-1,25,27,29,-1,31,33,35,-1,37,-1,39,41,43,45,47,49,-1,-1,-1,-1,-1,-1,-1,-1,-1,-1,-1,-1,-1,-1,-1,-1,-1,-1,-1,-1,-1,-1],"loss_changes":[1.4224492E2,5.407657E1,5.6798447E1,2.5161041E1,1.8115583E1,9.985718E0,3.742167E1,5.303314E0,1.9414642E1,7.7790146E0,5.8298135E0,7.972412E0,0E0,1.3413307E1,9.380709E0,9.8561096E-1,0E0,1.1913475E1,1.679024E1,4.4741573E0,0E0,4.9503827E0,0E0,1.1523873E1,5.500931E0,4.5828056E0,1.1699696E1,7.9056845E0,8.775426E0,0E0,0E0,0E0,0E0,0E0,0E0,0E0,0E0,0E0,0E0,0E0,0E0,0E0,0E0,0E0,0E0,0E0,0E0,0E0,0E0,0E0,0E0],"parents":[2147483647,0,0,1,1,2,2,3,3,4,4,5,5,6,6,7,7,8,8,9,9,10,10,11,11,13,13,14,14,15,15,17,17,18,18,19,19,21,21,23,23,24,24,25,25,26,26,27,27,28,28],"right_children":[2,4,6,8,10,12,14,16,18,20,22,24,-1,26,28,30,-1,32,34,36,-1,38,-1,40,42,44,46,48,50,-1,-1,-1,-1,-1,-1,-1,-1,-1,-1,-1,-1,-1,-1,-1,-1,-1,-1,-1,-1,-1,-1],"split_conditions":[1.5E1,6.71E-1,8E0,3.24E-1,1.2E1,2.6E1,-5.9E0,2.02E1,7E0,7.65E-1,3.54E1,1.6E1,-0E0,8E0,6E0,7.72E-1,2.3362918E-3,4E0,5E0,9.7E0,1.9727892E-3,4.3E1,-2.839118E-3,7.8E-1,2.73E1,2.15E1,3.47E-1,1.6E1,1E1,1.2819494E-2,7.948893E-3,-8.1136276E-4,7.306744E-3,7.9968935E-3,7.275973E-4,-1.052377E-2,-4.2303265E-3,-1.0947648E-3,6.559639E-3,-5.9719797E-4,-1.0424024E-2,-1.194473E-2,-3.2471367E-3,5.7241786E-3,-2.8955003E-3,-9.148174E-4,-8.808633E-3,-1.199836E-2,-8.3954656E-4,-1.4838435E-3,1.8995588E-3],"split_indices":[51,55,103,55,86,95,25,11,51,3,67,50,0,52,85,65,0,99,40,8,0,68,0,65,69,17,55,87,92,0,0,0,0,0,0,0,0,0,0,0,0,0,0,0,0,0,0,0,0,0,0],"split_type":[0,0,0,0,0,0,0,0,0,0,0,0,0,0,0,0,0,0,0,0,0,0,0,0,0,0,0,0,0,0,0,0,0,0,0,0,0,0,0,0,0,0,0,0,0,0,0,0,0,0,0],"sum_hessian":[1.1421708E3,5.4703217E2,5.951386E2,4.3912943E2,1.07902725E2,1.4205276E2,4.5308585E2,7.042124E1,3.687082E2,6.271501E1,4.518771E1,1.2918492E2,1.2867849E1,1.2704221E2,3.260436E2,6.1147533E1,9.27371E0,1.6294376E2,2.0576445E2,5.419868E1,8.516333E0,3.1977037E1,1.3210672E1,4.5303566E1,8.388135E1,1.9674032E1,1.0736819E2,2.6606882E1,2.9943674E2,3.9109703E1,2.2037832E1,1.643257E1,1.4651118E2,3.4162537E1,1.7160191E2,2.2069273E1,3.2129406E1,8.772642E0,2.3204395E1,2.4004997E1,2.1298569E1,7.344423E1,1.0437117E1,9.587274E0,1.0086759E1,2.3792648E1,8.357554E1,8.879226E0,1.7727657E1,1.0309812E2,1.9633861E2],"tree_param":{"num_deleted":"0","num_feature":"106","num_nodes":"51","size_leaf_vector":"1"}},{"base_weights":[2.7254958E-2,2.640018E-1,-6.0753465E-1,4.567661E-1,-1.5525198E-1,-3.2631752E-1,-1.0536281E0,3.492453E-1,8.4453773E-1,-4.2236933E-1,1.7995028E-1,-5.821298E-1,7.715663E-2,-1.1865942E0,-3.498002E-1,-2.78159E-1,4.3805784E-1,-0E0,9.0841585E-1,-0E0,-5.9990805E-1,-9.069881E-2,5.7087123E-1,-6.856244E-1,-0E0,2.7338263E-1,-5.6539937E-3,-1.3348441E0,-5.368997E-1,9.4564416E-4,-8.3417175E-3,6.8766307E-3,-4.5799706E-3,6.799832E-3,2.2079346E-3,9.571844E-3,4.0210458E-3,-2.7263523E-3,5.8830176E-3,-6.6422E-3,4.27894E-3,6.0639177E-3,-3.3035665E-3,7.3278015E-3,-1.7771029E-3,-1.0378992E-3,-7.679697E-3,-4.640437E-3,4.27632E-3,6.637108E-3,-0E0,-5.7220985E-3,-1.3903141E-2,-0E0,-1.2151086E-2],"categories":[],"categories_nodes":[],"categories_segments":[],"categories_sizes":[],"default_left":[0,0,0,0,0,0,0,0,0,0,0,0,0,0,0,0,0,0,0,0,0,0,0,0,0,0,0,0,0,0,0,0,0,0,0,0,0,0,0,0,0,0,0,0,0,0,0,0,0,0,0,0,0,0,0],"id":19,"left_children":[1,3,5,7,9,11,13,15,17,19,21,23,25,27,29,31,33,-1,35,37,39,41,43,45,47,49,-1,51,53,-1,-1,-1,-1,-1,-1,-1,-1,-1,-1,-1,-1,-1,-1,-1,-1,-1,-1,-1,-1,-1,-1,-1,-1,-1,-1],"loss_changes":[1.7477261E2,6.888355E1,3.831637E1,2.3209175E1,2.413234E1,2.0599195E1,9.850983E0,2.580907E1,7.243431E0,1.154236E1,1.2845451E1,7.504551E0,9.911866E0,7.7223816E0,5.6873016E0,1.1755213E1,2.231279E1,0E0,4.335518E0,8.246781E0,1.1727867E1,1.3033198E1,8.108206E0,6.679859E0,4.2991695E0,7.2251134E0,0E0,5.5130157E0,9.2096615E0,0E0,0E0,0E0,0E0,0E0,0E0,0E0,0E0,0E0,0E0,0E0,0E0,0E0,0E0,0E0,0E0,0E0,0E0,0E0,0E0,0E0,0E0,0E0,0E0,0E0,0E0],"parents":[2147483647,0,0,1,1,2,2,3,3,4,4,5,5,6,6,7,7,8,8,9,9,10,10,11,11,12,12,13,13,14,14,15,15,16,16,18,18,19,19,20,20,21,21,22,22,23,23,24,24,25,25,27,27,28,28],"right_children":[2,4,6,8,10,12,14,16,18,20,22,24,26,28,30,32,34,-1,36,38,40,42,44,46,48,50,-1,52,54,-1,-1,-1,-1,-1,-1,-1,-1,-1,-1,-1,-1,-1,-1,-1,-1,-1,-1,-1,-1,-1,-1,-1,-1,-1,-1],"split_conditions":[2.2E1,6.06E-1,5.52E-1,2.6E1,3.1E0,-4.6E0,2.4E1,7E0,1.92E1,2.26E1,2.49E1,4.01E1,1.17E1,1.089E2,4.73E-1,2.08E1,8E0,-0E0,1.56E1,8.47E1,9.17E1,3.5E-1,1.6E1,1.91E1,2.1E1,1.5E1,-5.6539937E-3,9E0,-3.5E0,9.4564416E-4,-8.3417175E-3,6.8766307E-3,-4.5799706E-3,6.799832E-3,2.2079346E-3,9.571844E-3,4.0210458E-3,-2.7263523E-3,5.8830176E-3,-6.6422E-3,4.27894E-3,6.0639177E-3,-3.3035665E-3,7.3278015E-3,-1.7771029E-3,-1.0378992E-3,-7.679697E-3,-4.640437E-3,4.27632E-3,6.637108E-3,-0E0,-5.7220985E-3,-1.3903141E-2,-0E0,-1.2151086E-2],"split_indices":[29,55,55,103,25,25,90,1,12,69,17,5,8,24,59,61,28,0,18,58,58,10,41,75,99,100,0,42,25,0,0,0,0,0,0,0,0,0,0,0,0,0,0,0,0,0,0,0,0,0,0,0,0,0,0],"split_type":[0,0,0,0,0,0,0,0,0,0,0,0,0,0,0,0,0,0,0,0,0,0,0,0,0,0,0,0,0,0,0,0,0,0,0,0,0,0,0,0,0,0,0,0,0,0,0,0,0,0,0,0,0,0,0],"sum_hessian":[1.1627788E3,8.480929E2,3.146859E2,5.820725E2,2.6602042E2,1.9489442E2,1.1979147E2,4.5841653E2,1.2365599E2,1.4909138E2,1.1692902E2,1.20108925E2,7.478551E1,9.941787E1,2.0373608E1,5.563293E1,4.027836E2,8.118231E0,1.1553776E2,4.354928E1,1.0554211E2,6.841794E1,4.851108E1,1.0230923E2,1.77997E1,5.9121677E1,1.5663829E1,7.932489E1,2.009298E1,1.0683988E1,9.689621E0,8.4832E0,4.714973E1,1.6818314E2,2.3460045E2,9.35553E1,2.1982462E1,2.9527008E1,1.4022272E1,9.717883E1,8.363271E0,1.6803514E1,5.1614426E1,3.9019962E1,9.491119E0,1.9482622E1,8.282661E1,8.165644E0,9.634055E0,2.3019596E1,3.610208E1,1.3674607E1,6.565028E1,1.1673502E1,8.419478E0],"tree_param":{"num_deleted":"0","num_feature":"106","num_nodes":"55","size_leaf_vector":"1"}},{"base_weights":[4.3431584E-2,-4.6843866E-1,3.077212E-1,-1.06490895E-1,-8.05858E-1,5.328346E-1,-1.6198446E-1,1.2784784E-1,-6.2127364E-1,-2.4983035E-1,-9.127573E-1,7.9860073E-1,3.331579E-1,2.2737867E-1,-4.99353E-1,-1.3106667E-1,4.4390255E-1,-3.0532882E-1,-1.1753252E0,6.776477E-2,-1.00876875E-2,-1.0011863E0,-3.0423144E-1,4.9318942E-1,1.0414668E0,6.5549195E-1,1.7435478E-1,5.3848416E-1,-2.4690856E-1,-6.7685056E-1,-1.14451684E-1,-6.6526923E-3,9.0628583E-4,2.0499246E-3,9.189366E-3,-5.3556073E-3,4.071495E-3,-4.586083E-3,-1.6189942E-2,4.6941903E-3,-5.606159E-3,-4.788235E-3,-1.0779649E-2,-9.6426075E-3,2.2942843E-3,6.3730716E-3,-1.50334E-3,1.5731348E-3,1.0566265E-2,8.687904E-3,3.0035293E-3,3.3460357E-3,-1.6796793E-3,7.0903404E-3,-5.6539553E-5,-5.4037934E-3,5.0173677E-3,-9.8178685E-3,-3.086058E-3,-7.1988143E-3,1.7910424E-3],"categories":[],"categories_nodes":[],"categories_segments":[],"categories_sizes":[],"default_left":[0,0,0,0,0,0,0,0,0,0,0,0,0,0,0,0,0,0,0,0,0,0,0,0,0,0,0,0,0,0,0,0,0,0,0,0,0,0,0,0,0,0,0,0,0,0,0,0,0,0,0,0,0,0,0,0,0,0,0,0,0],"id":20,"left_children":[1,3,5,7,9,11,13,15,17,19,21,23,25,27,29,31,33,35,37,39,-1,41,43,45,47,49,51,53,55,57,59,-1,-1,-1,-1,-1,-1,-1,-1,-1,-1,-1,-1,-1,-1,-1,-1,-1,-1,-1,-1,-1,-1,-1,-1,-1,-1,-1,-1,-1,-1],"loss_changes":[1.5345575E2,4.6382805E1,7.958159E1,2.3103245E1,1.0780075E1,2.5924011E1,3.213896E1,1.08274555E1,9.1361065E0,9.623199E0,7.6999664E0,1.4478775E1,1.4313438E1,1.6872244E1,8.335117E0,9.587638E0,6.1040688E0,7.9625535E0,5.3495064E0,7.1799E0,0E0,7.9806824E0,9.79161E0,1.195476E1,6.5141296E0,7.2721863E0,1.267067E1,8.388578E0,1.1358549E1,9.886253E0,9.073649E0,0E0,0E0,0E0,0E0,0E0,0E0,0E0,0E0,0E0,0E0,0E0,0E0,0E0,0E0,0E0,0E0,0E0,0E0,0E0,0E0,0E0,0E0,0E0,0E0,0E0,0E0,0E0,0E0,0E0,0E0],"parents":[2147483647,0,0,1,1,2,2,3,3,4,4,5,5,6,6,7,7,8,8,9,9,10,10,11,11,12,12,13,13,14,14,15,15,16,16,17,17,18,18,19,19,21,21,22,22,23,23,24,24,25,25,26,26,27,27,28,28,29,29,30,30],"right_children":[2,4,6,8,10,12,14,16,18,20,22,24,26,28,30,32,34,36,38,40,-1,42,44,46,48,50,52,54,56,58,60,-1,-1,-1,-1,-1,-1,-1,-1,-1,-1,-1,-1,-1,-1,-1,-1,-1,-1,-1,-1,-1,-1,-1,-1,-1,-1,-1,-1,-1,-1],"split_conditions":[4.41E-1,0E0,3E0,2.7E1,9E0,-1.9E0,9E0,2.3E1,1.08E1,2.7E1,2.4E1,2E1,8E0,7E-1,1.11E1,2.07E1,2.1E1,2.6E1,2.7E1,2E1,-1.00876875E-2,7E0,1.2E1,1.7E1,2.01E1,1.08E1,1.8E1,1.3E1,7.56E-1,1.1E1,2.3E1,-6.6526923E-3,9.0628583E-4,2.0499246E-3,9.189366E-3,-5.3556073E-3,4.071495E-3,-4.586083E-3,-1.6189942E-2,4.6941903E-3,-5.606159E-3,-4.788235E-3,-1.0779649E-2,-9.6426075E-3,2.2942843E-3,6.3730716E-3,-1.50334E-3,1.5731348E-3,1.0566265E-2,8.687904E-3,3.0035293E-3,3.3460357E-3,-1.6796793E-3,7.0903404E-3,-5.6539553E-5,-5.4037934E-3,5.0173677E-3,-9.8178685E-3,-3.086058E-3,-7.1988143E-3,1.7910424E-3],"split_indices":[3,77,77,28,53,77,51,81,8,33,26,99,33,55,14,17,82,86,50,45,0,101,91,51,17,60,34,8,3,91,52,0,0,0,0,0,0,0,0,0,0,0,0,0,0,0,0,0,0,0,0,0,0,0,0,0,0,0,0,0,0],"split_type":[0,0,0,0,0,0,0,0,0,0,0,0,0,0,0,0,0,0,0,0,0,0,0,0,0,0,0,0,0,0,0,0,0,0,0,0,0,0,0,0,0,0,0,0,0,0,0,0,0,0,0,0,0,0,0,0,0,0,0,0,0],"sum_hessian":[1.1334006E3,3.8479883E2,7.486018E2,1.8720563E2,1.9759322E2,5.0699994E2,2.4160188E2,1.2814754E2,5.9058083E1,3.3388977E1,1.6420424E2,2.1488321E2,2.9211676E2,1.1131824E2,1.3028365E2,6.9492E1,5.865554E1,3.9270855E1,1.978723E1,2.3965963E1,9.423015E0,1.4187396E2,2.2330278E1,9.7625824E1,1.1725738E2,9.40621E1,1.9805464E2,6.80508E1,4.326744E1,8.7464966E1,4.2818687E1,2.0124567E1,4.936743E1,4.271154E1,1.5943999E1,2.9872826E1,9.398027E0,9.900406E0,9.886824E0,1.5317019E1,8.648943E0,3.2525826E1,1.0934813E2,9.924593E0,1.2405686E1,7.7403786E1,2.0222038E1,1.0014392E1,1.0724299E2,5.1108353E1,4.295375E1,1.326494E2,6.540524E1,4.9841766E1,1.8209028E1,3.1351099E1,1.1916341E1,4.1439724E1,4.6025238E1,1.4027624E1,2.8791063E1],"tree_param":{"num_deleted":"0","num_feature":"106","num_nodes":"61","size_leaf_vector":"1"}},{"base_weights":[2.7945157E-2,-4.2418838E-1,2.9862377E-1,1.2858385E-1,-5.71681E-1,5.1258636E-1,-1.254871E-1,-2.9975238E-1,3.9546242E-1,-6.722911E-1,-1.0518716E-1,3.0449036E-1,7.607392E-1,-4.348475E-1,1.4684665E-1,-6.782871E-1,5.3505544E-3,-2.0116493E-3,5.9037024E-1,-5.2213573E-1,-9.897937E-1,1.4808057E-1,-7.979367E-3,6.541758E-1,-3.5996016E-2,8.2456243E-1,-0E0,6.8109185E-2,-6.2163436E-1,-2.335387E-1,3.8847083E-1,-1.2998179E-2,-1.9176233E-3,1.5104122E-3,8.711966E-3,-7.5282985E-3,-2.3113214E-3,-1.0334116E-2,-0E0,8.446095E-3,-4.0223674E-4,-7.6608226E-4,7.2491583E-3,-4.889566E-3,1.2459288E-3,8.320874E-3,3.5705985E-4,-5.5066994E-3,5.726443E-3,-6.6702035E-3,6.8768836E-3,-0E0,-7.756097E-3,-5.9562093E-3,2.1922165E-3,3.7554282E-4,6.2130634E-3],"categories":[],"categories_nodes":[],"categories_segments":[],"categories_sizes":[],"default_left":[0,0,0,0,0,0,0,0,0,0,0,0,0,0,0,0,0,0,0,0,0,0,0,0,0,0,0,0,0,0,0,0,0,0,0,0,0,0,0,0,0,0,0,0,0,0,0,0,0,0,0,0,0,0,0,0,0],"id":21,"left_children":[1,3,5,7,9,11,13,15,17,19,21,23,25,27,29,31,-1,-1,33,35,37,39,-1,41,43,45,47,49,51,53,55,-1,-1,-1,-1,-1,-1,-1,-1,-1,-1,-1,-1,-1,-1,-1,-1,-1,-1,-1,-1,-1,-1,-1,-1,-1,-1],"loss_changes":[1.3928555E2,3.5068024E1,6.5054794E1,1.0379934E1,1.5210541E1,2.3598091E1,2.0374197E1,1.1454954E1,7.056566E0,1.1640953E1,1.2174583E1,3.159549E1,1.0026985E1,1.1062729E1,1.1806152E1,6.7127695E0,0E0,0E0,5.3229E0,1.3535091E1,7.9772186E0,7.170557E0,0E0,1.1110802E1,1.0959496E1,7.606415E0,6.652747E0,1.5885311E1,1.0176537E1,9.307922E0,6.8240433E0,0E0,0E0,0E0,0E0,0E0,0E0,0E0,0E0,0E0,0E0,0E0,0E0,0E0,0E0,0E0,0E0,0E0,0E0,0E0,0E0,0E0,0E0,0E0,0E0,0E0,0E0],"parents":[2147483647,0,0,1,1,2,2,3,3,4,4,5,5,6,6,7,7,8,8,9,9,10,10,11,11,12,12,13,13,14,14,15,15,18,18,19,19,20,20,21,21,23,23,24,24,25,25,26,26,27,27,28,28,29,29,30,30],"right_children":[2,4,6,8,10,12,14,16,18,20,22,24,26,28,30,32,-1,-1,34,36,38,40,-1,42,44,46,48,50,52,54,56,-1,-1,-1,-1,-1,-1,-1,-1,-1,-1,-1,-1,-1,-1,-1,-1,-1,-1,-1,-1,-1,-1,-1,-1,-1,-1],"split_conditions":[4.59E-1,3.59E-1,2.6E0,-5.6E0,7.88E-1,6.03E-1,2.8E0,7.75E-1,5E0,6.32E-1,3.6E1,-1.4E0,2.2E1,9E0,4E0,1.47E1,5.3505544E-3,-2.0116493E-3,2.5E1,-4.7E0,8.9E0,9.1E0,-7.979367E-3,8E0,9E0,8.12E-1,1.1E1,8E0,7E0,3.67E-1,1.3E1,-1.2998179E-2,-1.9176233E-3,1.5104122E-3,8.711966E-3,-7.5282985E-3,-2.3113214E-3,-1.0334116E-2,-0E0,8.446095E-3,-4.0223674E-4,-7.6608226E-4,7.2491583E-3,-4.889566E-3,1.2459288E-3,8.320874E-3,3.5705985E-4,-5.5066994E-3,5.726443E-3,-6.6702035E-3,6.8768836E-3,-0E0,-7.756097E-3,-5.9562093E-3,2.1922165E-3,3.7554282E-4,6.2130634E-3],"split_indices":[3,55,77,25,13,3,25,65,26,55,2,77,50,40,81,18,0,0,2,25,19,14,0,99,95,65,41,95,43,10,49,0,0,0,0,0,0,0,0,0,0,0,0,0,0,0,0,0,0,0,0,0,0,0,0,0,0],"split_type":[0,0,0,0,0,0,0,0,0,0,0,0,0,0,0,0,0,0,0,0,0,0,0,0,0,0,0,0,0,0,0,0,0,0,0,0,0,0,0,0,0,0,0,0,0,0,0,0,0,0,0,0,0,0,0,0,0],"sum_hessian":[1.1370858E3,4.2465768E2,7.124281E2,8.845959E1,3.3619812E2,4.745181E2,2.3791E2,3.2903046E1,5.5556545E1,2.7499774E2,6.120037E1,2.6067667E2,2.1384142E2,1.12354805E2,1.2555521E2,2.3577074E1,9.32597E0,1.2594737E1,4.2961807E1,1.897536E2,8.524414E1,4.5341312E1,1.5859059E1,1.2923161E2,1.3144507E2,1.9663849E2,1.7202932E1,2.9552267E1,8.280254E1,4.7650593E1,7.790461E1,8.338022E0,1.5239053E1,2.0069345E1,2.2892462E1,9.385874E1,9.589485E1,7.682072E1,8.423422E0,9.3633995E0,3.5977913E1,1.6099707E1,1.13131905E2,3.4628296E1,9.681677E1,1.8323627E2,1.3402216E1,8.379885E0,8.823048E0,1.3072081E1,1.6480186E1,2.0177748E1,6.262479E1,2.6421255E1,2.1229336E1,3.5348312E1,4.25563E1],"tree_param":{"num_deleted":"0","num_feature":"106","num_nodes":"57","size_leaf_vector":"1"}},{"base_weights":[1.4085275E-2,-3.23763E-1,3.8778517E-1,2.5598624E-1,-5.496821E-1,1.2055845E-1,8.4017634E-1,-1.19185835E-1,6.2147415E-1,-9.440279E-1,-4.1868672E-1,3.240767E-1,-1.8438612E-1,9.831334E-1,4.6549192E-1,3.4505466E-1,-3.667637E-1,7.5150096E-1,4.3724872E-2,-1.1216373E0,-0E0,-3.4689534E-1,-1.3046906E0,3.8564342E-1,-8.457473E-3,-5.796484E-1,-0E0,3.2465858E-3,1.0501901E0,-3.144319E-2,7.380287E-1,6.1285845E-3,-2.456624E-3,-6.3939635E-3,3.5003643E-5,9.699287E-3,3.4691447E-3,5.2423966E-3,-3.709601E-3,-8.333236E-4,-1.1738349E-2,-1.861554E-3,-6.609648E-3,-1.4935369E-2,-6.335945E-3,7.655156E-3,2.707134E-3,9.6381624E-4,-8.583925E-3,-1.3693867E-3,9.108404E-3,3.865023E-3,1.0429594E-2,-4.8429715E-3,4.055253E-3,8.7595324E-4,9.809601E-3],"categories":[],"categories_nodes":[],"categories_segments":[],"categories_sizes":[],"default_left":[0,0,0,0,0,0,0,0,0,0,0,0,0,0,0,0,0,0,0,0,0,0,0,0,0,0,0,0,0,0,0,0,0,0,0,0,0,0,0,0,0,0,0,0,0,0,0,0,0,0,0,0,0,0,0,0,0],"id":22,"left_children":[1,3,5,7,9,11,13,15,17,19,21,23,25,27,29,31,33,35,37,39,-1,41,43,45,-1,47,49,-1,51,53,55,-1,-1,-1,-1,-1,-1,-1,-1,-1,-1,-1,-1,-1,-1,-1,-1,-1,-1,-1,-1,-1,-1,-1,-1,-1,-1],"loss_changes":[1.3975635E2,7.6320816E1,6.287171E1,2.2687271E1,2.0325897E1,2.0810469E1,8.995117E0,9.308895E0,5.6730156E0,1.7241669E1,1.861935E1,1.50172825E1,9.495017E0,4.6601562E0,8.193012E0,5.3810167E0,6.578232E0,5.717079E0,4.116902E0,9.376228E0,0E0,1.4825096E1,1.4297256E0,7.170164E0,0E0,9.897222E0,1.2618879E1,0E0,2.543518E0,4.6465435E0,6.319868E0,0E0,0E0,0E0,0E0,0E0,0E0,0E0,0E0,0E0,0E0,0E0,0E0,0E0,0E0,0E0,0E0,0E0,0E0,0E0,0E0,0E0,0E0,0E0,0E0,0E0,0E0],"parents":[2147483647,0,0,1,1,2,2,3,3,4,4,5,5,6,6,7,7,8,8,9,9,10,10,11,11,12,12,13,13,14,14,15,15,16,16,17,17,18,18,19,19,21,21,22,22,23,23,25,25,26,26,28,28,29,29,30,30],"right_children":[2,4,6,8,10,12,14,16,18,20,22,24,26,28,30,32,34,36,38,40,-1,42,44,46,-1,48,50,-1,52,54,56,-1,-1,-1,-1,-1,-1,-1,-1,-1,-1,-1,-1,-1,-1,-1,-1,-1,-1,-1,-1,-1,-1,-1,-1,-1,-1],"split_conditions":[6E-1,-2.4E0,1.7E1,-3.2E0,-5.9E0,9E0,3.4E1,1.5E1,1.56E1,4E1,8.7E0,2.8E1,1.5E1,8E0,1.8E1,1.3E1,1.2E1,7.78E-1,2.27E1,1.5E1,-0E0,2.2E1,1.77E1,3E0,-8.457473E-3,1E1,2.6E1,3.2465858E-3,8E0,1.4E1,9E0,6.1285845E-3,-2.456624E-3,-6.3939635E-3,3.5003643E-5,9.699287E-3,3.4691447E-3,5.2423966E-3,-3.709601E-3,-8.333236E-4,-1.1738349E-2,-1.861554E-3,-6.609648E-3,-1.4935369E-2,-6.335945E-3,7.655156E-3,2.707134E-3,9.6381624E-4,-8.583925E-3,-1.3693867E-3,9.108404E-3,3.865023E-3,1.0429594E-2,-4.8429715E-3,4.055253E-3,8.7595324E-4,9.809601E-3],"split_indices":[25,77,80,25,25,51,67,46,18,5,77,69,1,99,1,1,26,13,64,63,0,92,63,31,0,92,100,0,83,49,89,0,0,0,0,0,0,0,0,0,0,0,0,0,0,0,0,0,0,0,0,0,0,0,0,0,0],"split_type":[0,0,0,0,0,0,0,0,0,0,0,0,0,0,0,0,0,0,0,0,0,0,0,0,0,0,0,0,0,0,0,0,0,0,0,0,0,0,0,0,0,0,0,0,0,0,0,0,0,0,0,0,0,0,0,0,0],"sum_hessian":[1.104874E3,5.793413E2,5.2553265E2,1.6154709E2,4.177942E2,3.320432E2,1.9348947E2,7.905163E1,8.249547E1,1.01504875E2,3.162893E2,2.0049316E2,1.3155003E2,1.3768039E2,5.5809082E1,2.6386751E1,5.266488E1,6.613281E1,1.6362656E1,8.5357765E1,1.6147118E1,2.944253E2,2.1864016E1,1.9194466E2,8.54851E0,4.0797672E1,9.0752365E1,1.45401E1,1.2314029E2,1.912015E1,3.668893E1,1.8341173E1,8.045578E0,2.9419092E1,2.3245785E1,3.688156E1,2.9251247E1,8.177073E0,8.185583E0,9.427595E0,7.593017E1,2.0831015E2,8.611516E1,1.3665768E1,8.198248E0,3.4269833E1,1.5767482E2,1.2693389E1,2.8104284E1,7.976909E1,1.0983273E1,1.0498349E1,1.12641945E2,1.0057853E1,9.062296E0,1.2659913E1,2.402902E1],"tree_param":{"num_deleted":"0","num_feature":"106","num_nodes":"57","size_leaf_vector":"1"}},{"base_weights":[5.565521E-4,2.9177436E-1,-3.996884E-1,5.803287E-1,-1.1693449E-1,1.0199646E-1,-6.248922E-1,4.8823196E-2,6.4751875E-1,-1.0249054E0,-4.0829167E-2,-3.1081992E-1,4.9597114E-1,-7.1854347E-1,-0E0,3.567908E-1,-4.8986473E-3,1.1249087E0,5.738967E-1,-1.4315428E-2,-3.2131271E-3,2.2135626E-1,-2.9566777E-1,-7.2861665E-1,-1.7884102E-2,8.2881665E-1,1.408728E-1,-1.0902852E0,-5.734467E-1,-8.317435E-3,2.6741678E-1,5.4916833E-3,-1.5513425E-3,1.2146745E-2,3.3792828E-3,2.4755192E-3,6.5518073E-3,6.3903867E-3,6.4697524E-4,-7.22008E-4,-7.05366E-3,1.9431715E-4,-1.1838436E-2,-2.6589527E-3,8.601789E-3,1.980775E-3,9.822385E-3,3.9433E-3,-3.0339714E-3,-1.1490264E-2,-4.1405894E-3,-9.491294E-3,-3.8252613E-3,5.0294604E-3,-3.8372285E-3],"categories":[],"categories_nodes":[],"categories_segments":[],"categories_sizes":[],"default_left":[0,0,0,0,0,0,0,0,0,0,0,0,0,0,0,0,0,0,0,0,0,0,0,0,0,0,0,0,0,0,0,0,0,0,0,0,0,0,0,0,0,0,0,0,0,0,0,0,0,0,0,0,0,0,0],"id":23,"left_children":[1,3,5,7,9,11,13,15,17,19,21,23,25,27,29,31,-1,33,35,-1,-1,37,39,41,43,45,47,49,51,-1,53,-1,-1,-1,-1,-1,-1,-1,-1,-1,-1,-1,-1,-1,-1,-1,-1,-1,-1,-1,-1,-1,-1,-1,-1],"loss_changes":[1.339331E2,7.899074E1,5.5015793E1,1.3475296E1,1.825257E1,2.4573383E1,1.9936508E1,8.073272E0,1.0429413E1,5.099634E0,1.720257E1,8.353512E0,8.398018E0,1.402124E1,1.0172482E1,3.9834895E0,0E0,3.7618942E0,1.0302025E1,0E0,0E0,8.1189E0,1.2314866E1,1.2163887E1,1.0610821E1,3.937378E0,5.210671E0,4.720909E0,1.4142151E1,0E0,6.4030323E0,0E0,0E0,0E0,0E0,0E0,0E0,0E0,0E0,0E0,0E0,0E0,0E0,0E0,0E0,0E0,0E0,0E0,0E0,0E0,0E0,0E0,0E0,0E0,0E0],"parents":[2147483647,0,0,1,1,2,2,3,3,4,4,5,5,6,6,7,7,8,8,9,9,10,10,11,11,12,12,13,13,14,14,15,15,17,17,18,18,21,21,22,22,23,23,24,24,25,25,26,26,27,27,28,28,30,30],"right_children":[2,4,6,8,10,12,14,16,18,20,22,24,26,28,30,32,-1,34,36,-1,-1,38,40,42,44,46,48,50,52,-1,54,-1,-1,-1,-1,-1,-1,-1,-1,-1,-1,-1,-1,-1,-1,-1,-1,-1,-1,-1,-1,-1,-1,-1,-1],"split_conditions":[1.7E1,1.7E0,-2E0,4.2E0,2E0,-4.1E0,7.94E-1,1.9E1,3E0,1.6E1,9E0,1.6E1,3.3E1,8E0,1.63E1,4.85E1,-4.8986473E-3,3.48E1,1.97E1,-1.4315428E-2,-3.2131271E-3,1.34E1,1.21E1,1.97E1,5.6E0,4.3E0,7.74E-1,4.86E1,6E0,-8.317435E-3,1.97E1,5.4916833E-3,-1.5513425E-3,1.2146745E-2,3.3792828E-3,2.4755192E-3,6.5518073E-3,6.3903867E-3,6.4697524E-4,-7.22008E-4,-7.05366E-3,1.9431715E-4,-1.1838436E-2,-2.6589527E-3,8.601789E-3,1.980775E-3,9.822385E-3,3.9433E-3,-3.0339714E-3,-1.1490264E-2,-4.1405894E-3,-9.491294E-3,-3.8252613E-3,5.0294604E-3,-3.8372285E-3],"split_indices":[27,77,77,73,95,25,13,48,33,46,51,94,15,87,63,4,0,67,23,0,0,70,60,75,72,72,65,4,85,0,63,0,0,0,0,0,0,0,0,0,0,0,0,0,0,0,0,0,0,0,0,0,0,0,0],"split_type":[0,0,0,0,0,0,0,0,0,0,0,0,0,0,0,0,0,0,0,0,0,0,0,0,0,0,0,0,0,0,0,0,0,0,0,0,0,0,0,0,0,0,0,0,0,0,0,0,0,0,0,0,0,0,0],"sum_hessian":[1.1479956E3,6.656581E2,4.8233755E2,3.909825E2,2.7467557E2,1.4861319E2,3.337244E2,4.5223186E1,3.457593E2,1.969672E1,2.5497884E2,7.1786064E1,7.682712E1,2.9080576E2,4.291863E1,3.0293314E1,1.4929871E1,4.327697E1,3.0248236E2,1.0327441E1,9.369278E0,1.2436994E2,1.306089E2,2.8068106E1,4.371796E1,3.8038956E1,3.8788166E1,7.870327E1,2.1210248E2,9.133564E0,3.3785065E1,2.2099556E1,8.19376E0,3.471251E1,8.56446E0,8.491046E1,2.1757188E2,2.9521755E1,9.484818E1,8.942232E1,4.118658E1,1.1288025E1,1.678008E1,3.511353E1,8.604431E0,1.0823135E1,2.7215818E1,2.5300024E1,1.348814E1,6.47985E1,1.3904771E1,5.7904556E1,1.5419792E2,2.5163437E1,8.621628E0],"tree_param":{"num_deleted":"0","num_feature":"106","num_nodes":"55","size_leaf_vector":"1"}},{"base_weights":[-3.0603696E-2,2.1045375E-1,-4.9624833E-1,3.581436E-1,-6.0956955E-1,-6.816352E-1,-0E0,1.7402145E-1,6.8214583E-1,-2.7047598E-1,-1.1301615E0,-4.670263E-1,-1.0563991E0,1.9388302E-1,-7.1273065E-1,6.328579E-1,2.7892178E-2,6.689391E-3,7.4613684E-1,2.1299449E-1,-5.32862E-1,-1.5259366E0,-7.7886504E-1,-8.883285E-2,-7.034802E-1,-1.3783855E-3,-1.142576E0,4.963481E-1,-1.3873047E-1,-6.132138E-4,-1.0970835E-2,1.0205014E-3,8.311675E-3,-4.1887327E-3,1.004351E-3,5.7101552E-3,-4.542522E-3,7.7938726E-3,6.6293665E-4,7.849156E-3,-1.324548E-3,-7.681675E-3,4.2144084E-4,-8.657615E-3,-1.828753E-2,-0E0,-1.1386725E-2,-6.829059E-3,2.6065547E-3,-8.300608E-3,-0E0,-4.355608E-3,-1.2182459E-2,-3.9287414E-3,7.2194207E-3,3.482873E-3,-6.271655E-3],"categories":[],"categories_nodes":[],"categories_segments":[],"categories_sizes":[],"default_left":[0,0,0,0,0,0,0,0,0,0,0,0,0,0,0,0,0,0,0,0,0,0,0,0,0,0,0,0,0,0,0,0,0,0,0,0,0,0,0,0,0,0,0,0,0,0,0,0,0,0,0,0,0,0,0,0,0],"id":24,"left_children":[1,3,5,7,9,11,13,15,17,19,21,23,25,27,29,31,33,35,37,39,41,43,45,47,49,-1,51,53,55,-1,-1,-1,-1,-1,-1,-1,-1,-1,-1,-1,-1,-1,-1,-1,-1,-1,-1,-1,-1,-1,-1,-1,-1,-1,-1,-1,-1],"loss_changes":[1.26362816E2,8.958943E1,3.504606E1,3.6760674E1,1.8604542E1,2.0953018E1,1.5016642E1,2.654047E1,9.2287445E0,9.210765E0,3.3691978E0,1.550581E1,6.7814713E0,8.717567E0,5.810807E0,1.1545742E1,1.1089374E1,6.521262E0,9.891335E0,5.8604484E0,8.038671E0,1.0532455E0,8.985555E0,1.6908243E1,1.354504E1,0E0,7.0626907E0,1.1404412E1,1.0834018E1,0E0,0E0,0E0,0E0,0E0,0E0,0E0,0E0,0E0,0E0,0E0,0E0,0E0,0E0,0E0,0E0,0E0,0E0,0E0,0E0,0E0,0E0,0E0,0E0,0E0,0E0,0E0,0E0],"parents":[2147483647,0,0,1,1,2,2,3,3,4,4,5,5,6,6,7,7,8,8,9,9,10,10,11,11,12,12,13,13,14,14,15,15,16,16,17,17,18,18,19,19,20,20,21,21,22,22,23,23,24,24,26,26,27,27,28,28],"right_children":[2,4,6,8,10,12,14,16,18,20,22,24,26,28,30,32,34,36,38,40,42,44,46,48,50,-1,52,54,56,-1,-1,-1,-1,-1,-1,-1,-1,-1,-1,-1,-1,-1,-1,-1,-1,-1,-1,-1,-1,-1,-1,-1,-1,-1,-1,-1,-1],"split_conditions":[1.9E1,5.9E0,2.2E1,1.9E1,2.54E1,2.7E1,2.1E1,5E0,4.4E0,8E0,8E0,2E1,3.7E0,3.01E1,3.27E-1,9E0,2.08E1,1.7E1,2.51E1,4E0,2.13E1,4.6E0,1.3E1,1E2,2.1E1,-1.3783855E-3,6.8E0,1.99E1,1.7E1,-6.132138E-4,-1.0970835E-2,1.0205014E-3,8.311675E-3,-4.1887327E-3,1.004351E-3,5.7101552E-3,-4.542522E-3,7.7938726E-3,6.6293665E-4,7.849156E-3,-1.324548E-3,-7.681675E-3,4.2144084E-4,-8.657615E-3,-1.828753E-2,-0E0,-1.1386725E-2,-6.829059E-3,2.6065547E-3,-8.300608E-3,-0E0,-4.355608E-3,-1.2182459E-2,-3.9287414E-3,7.2194207E-3,3.482873E-3,-6.271655E-3],"split_indices":[27,77,103,80,69,51,30,29,73,50,29,53,20,61,55,97,17,84,69,25,75,21,51,24,85,0,8,12,97,0,0,0,0,0,0,0,0,0,0,0,0,0,0,0,0,0,0,0,0,0,0,0,0,0,0,0,0],"split_type":[0,0,0,0,0,0,0,0,0,0,0,0,0,0,0,0,0,0,0,0,0,0,0,0,0,0,0,0,0,0,0,0,0,0,0,0,0,0,0,0,0,0,0,0,0,0,0,0,0,0,0,0,0,0,0,0,0],"sum_hessian":[1.1222998E3,7.3879425E2,3.835056E2,6.271805E2,1.1161372E2,2.7829065E2,1.0521496E2,4.021482E2,2.250323E2,6.9200554E1,4.2413166E1,1.7938126E2,9.89094E1,8.269721E1,2.2517748E1,9.528129E1,3.068669E2,2.0509724E1,2.0452258E2,2.3455906E1,4.574465E1,1.7647734E1,2.4765432E1,7.060996E1,1.08771286E2,9.454806E0,8.94546E1,4.419983E1,3.8497383E1,1.0209756E1,1.2307992E1,3.1535608E1,6.3745678E1,4.1867634E1,2.649993E2,9.7729645E0,1.0736759E1,1.8272772E2,2.1794857E1,8.854754E0,1.46011505E1,3.148313E1,1.4261521E1,8.815836E0,8.831897E0,8.626804E0,1.6138628E1,2.6206964E1,4.4403E1,8.755239E1,2.1218893E1,1.6936127E1,7.251847E1,9.261431E0,3.4938396E1,1.9006931E1,1.9490452E1],"tree_param":{"num_deleted":"0","num_feature":"106","num_nodes":"57","size_leaf_vector":"1"}},{"base_weights":[-9.606892E-3,-5.309443E-1,2.1689482E-1,2.0181581E-2,-6.510599E-1,7.158881E-1,4.4993944E-2,6.574615E-1,-3.809212E-1,-7.66374E-1,-1.4848942E-1,7.9740393E-1,-3.0173706E-2,-2.8152388E-1,2.2729315E-1,-0E0,1.063446E-2,-3.8628295E-2,-1.0269765E-2,-1.1238681E-1,-8.3254844E-1,1.0109735E-1,-7.05806E-3,8.545343E-1,1.9723075E-5,-5.616021E-3,5.0789495E-3,-1.442322E-2,-5.2726763E-1,-1.8301888E-1,3.1326976E-1,2.730698E-3,-6.2985746E-3,-6.5694386E-3,2.859138E-3,-5.475023E-3,-1.0207248E-2,-1.2215641E-3,8.174999E-3,9.677813E-3,5.6736344E-3,-2.8818601E-3,2.7261635E-3,-1.019559E-2,-3.5953296E-3,-4.9737757E-3,2.6286086E-3,4.3359636E-3,2.4487232E-4],"categories":[],"categories_nodes":[],"categories_segments":[],"categories_sizes":[],"default_left":[0,0,0,0,0,0,0,0,0,0,0,0,0,0,0,0,0,0,0,0,0,0,0,0,0,0,0,0,0,0,0,0,0,0,0,0,0,0,0,0,0,0,0,0,0,0,0,0,0],"id":25,"left_children":[1,3,5,7,9,11,13,15,17,19,21,23,25,27,29,-1,-1,31,-1,33,35,37,-1,39,-1,-1,-1,41,43,45,47,-1,-1,-1,-1,-1,-1,-1,-1,-1,-1,-1,-1,-1,-1,-1,-1,-1,-1],"loss_changes":[1.2941339E2,2.2454247E1,6.477995E1,1.5555183E1,1.5131531E1,1.236483E1,3.386008E1,7.2217007E0,7.8846507E0,8.83699E0,8.452909E0,7.3845825E0,6.3899703E0,1.2916758E1,1.307806E1,0E0,0E0,5.7313733E0,0E0,5.82234E0,1.0754288E1,7.181069E0,0E0,5.2878876E0,0E0,0E0,0E0,8.7806E0,7.0756893E0,1.0154917E1,1.2285204E1,0E0,0E0,0E0,0E0,0E0,0E0,0E0,0E0,0E0,0E0,0E0,0E0,0E0,0E0,0E0,0E0,0E0,0E0],"parents":[2147483647,0,0,1,1,2,2,3,3,4,4,5,5,6,6,7,7,8,8,9,9,10,10,11,11,12,12,13,13,14,14,17,17,19,19,20,20,21,21,23,23,27,27,28,28,29,29,30,30],"right_children":[2,4,6,8,10,12,14,16,18,20,22,24,26,28,30,-1,-1,32,-1,34,36,38,-1,40,-1,-1,-1,42,44,46,48,-1,-1,-1,-1,-1,-1,-1,-1,-1,-1,-1,-1,-1,-1,-1,-1,-1,-1],"split_conditions":[-2.1E0,-4.3E0,-2.5E0,8.8E0,2E1,2.8E1,9E-1,1.6E1,2.5E1,1.1E1,2.1E1,2.31E1,4.3E1,1.6E0,4E0,-0E0,1.063446E-2,5.5E0,-1.0269765E-2,1.4E1,1.49E1,2.4E1,-7.05806E-3,2.96E1,1.9723075E-5,-5.616021E-3,5.0789495E-3,1.6E1,1.59E1,1.2E1,1.109E2,2.730698E-3,-6.2985746E-3,-6.5694386E-3,2.859138E-3,-5.475023E-3,-1.0207248E-2,-1.2215641E-3,8.174999E-3,9.677813E-3,5.6736344E-3,-2.8818601E-3,2.7261635E-3,-1.019559E-2,-3.5953296E-3,-4.9737757E-3,2.6286086E-3,4.3359636E-3,2.4487232E-4],"split_indices":[25,77,77,8,26,35,25,84,43,50,86,22,52,77,81,0,0,21,0,83,18,90,0,61,0,0,0,93,11,97,76,0,0,0,0,0,0,0,0,0,0,0,0,0,0,0,0,0,0],"split_type":[0,0,0,0,0,0,0,0,0,0,0,0,0,0,0,0,0,0,0,0,0,0,0,0,0,0,0,0,0,0,0,0,0,0,0,0,0,0,0,0,0,0,0,0,0,0,0,0,0],"sum_hessian":[1.092371E3,3.314443E2,7.609267E2,5.838823E1,2.7305606E2,1.9322125E2,5.6770544E2,2.3020569E1,3.536766E1,2.2058812E2,5.2467953E1,1.7498761E2,1.8233643E1,2.0184444E2,3.65861E2,9.942494E0,1.3078074E1,2.5065865E1,1.0301798E1,2.1461737E1,1.9912639E2,3.665355E1,1.5814404E1,1.6237335E2,1.2614248E1,9.751254E0,8.482388E0,9.853051E1,1.0331393E2,6.1792675E1,3.0406833E2,1.6033741E1,9.0321245E0,9.40039E0,1.2061347E1,1.0027056E2,9.885582E1,2.7988216E1,8.665333E0,9.516227E1,6.721109E1,5.148821E1,4.70423E1,1.9795185E1,8.3518745E1,3.6275978E1,2.5516697E1,2.0052792E2,1.0354039E2],"tree_param":{"num_deleted":"0","num_feature":"106","num_nodes":"49","size_leaf_vector":"1"}},{"base_weights":[-6.98192E-3,-4.6945605E-1,2.5314587E-1,-0E0,-6.9073933E-1,-3.2258213E-2,5.7966787E-1,7.102988E-1,-1.1698503E-1,-7.951937E-1,-2.1944238E-1,-4.9621716E-1,1.2219201E-1,4.7824886E-1,1.0145067E0,9.972396E-3,2.9000489E-3,9.911886E-2,-5.6814045E-1,-2.825775E-1,-8.9170754E-1,-4.7683433E-1,5.016027E-3,-6.767048E-1,1.3021098E-1,2.595672E-1,-2.5310192E-1,8.373121E-1,3.389487E-1,2.4986707E-3,1.111657E0,-4.0733167E-3,3.3568647E-3,-1.051461E-2,-9.883858E-4,8.5314066E-4,-6.973364E-3,-9.489904E-4,-8.905348E-3,4.898009E-4,-7.548384E-3,-7.905829E-3,3.9043336E-3,-3.9473125E-3,5.7815854E-3,3.7894966E-3,-2.229968E-3,-3.9654197E-3,4.4171214E-3,8.973668E-3,-0E0,4.451244E-3,-7.939286E-4,1.1848275E-2,5.406863E-3],"categories":[],"categories_nodes":[],"categories_segments":[],"categories_sizes":[],"default_left":[0,0,0,0,0,0,0,0,0,0,0,0,0,0,0,0,0,0,0,0,0,0,0,0,0,0,0,0,0,0,0,0,0,0,0,0,0,0,0,0,0,0,0,0,0,0,0,0,0,0,0,0,0,0,0],"id":26,"left_children":[1,3,5,7,9,11,13,15,17,19,21,23,25,27,29,-1,-1,31,33,35,37,39,-1,41,43,45,47,49,51,-1,53,-1,-1,-1,-1,-1,-1,-1,-1,-1,-1,-1,-1,-1,-1,-1,-1,-1,-1,-1,-1,-1,-1,-1,-1],"loss_changes":[1.362365E2,4.275844E1,6.777985E1,1.1252014E1,1.2828262E1,2.7937286E1,1.3454498E1,1.4260931E0,1.1346418E1,1.0143814E1,1.0369201E1,1.1493721E1,1.4947336E1,1.2799065E1,3.2954025E0,0E0,0E0,1.0291852E1,8.487183E0,6.9692297E0,6.327835E0,7.399761E0,0E0,1.3742699E1,6.0389113E0,1.4987521E1,9.216297E0,7.4647408E0,1.14998455E1,0E0,2.1255798E0,0E0,0E0,0E0,0E0,0E0,0E0,0E0,0E0,0E0,0E0,0E0,0E0,0E0,0E0,0E0,0E0,0E0,0E0,0E0,0E0,0E0,0E0,0E0,0E0],"parents":[2147483647,0,0,1,1,2,2,3,3,4,4,5,5,6,6,7,7,8,8,9,9,10,10,11,11,12,12,13,13,14,14,17,17,18,18,19,19,20,20,21,21,23,23,24,24,25,25,26,26,27,27,28,28,30,30],"right_children":[2,4,6,8,10,12,14,16,18,20,22,24,26,28,30,-1,-1,32,34,36,38,40,-1,42,44,46,48,50,52,-1,54,-1,-1,-1,-1,-1,-1,-1,-1,-1,-1,-1,-1,-1,-1,-1,-1,-1,-1,-1,-1,-1,-1,-1,-1],"split_conditions":[4.5E-1,-2.3E0,1.4E1,8.21E1,2.3E1,4E0,2.7E1,2.5E1,2.2E1,1E1,2.5E1,4.6E1,1.5E1,7E0,1E1,9.972396E-3,2.9000489E-3,2.2E1,2E1,1.9E1,4.05E1,7.44E-1,5.016027E-3,1.37E1,2.11E1,2.1E1,2.6E1,7.99E-1,4.15E1,2.4986707E-3,1.53E1,-4.0733167E-3,3.3568647E-3,-1.051461E-2,-9.883858E-4,8.5314066E-4,-6.973364E-3,-9.489904E-4,-8.905348E-3,4.898009E-4,-7.548384E-3,-7.905829E-3,3.9043336E-3,-3.9473125E-3,5.7815854E-3,3.7894966E-3,-2.229968E-3,-3.9654197E-3,4.4171214E-3,8.973668E-3,-0E0,4.451244E-3,-7.939286E-4,1.1848275E-2,5.406863E-3],"split_indices":[3,77,80,6,99,81,80,80,44,